// trained brain saved here in the state, incoming shitload of code :/
// training data starts at 648 
// component starts at line 708
// currently analyze comments and returns an array of baddies 
import brain from "brain.js"
import React from "react"
import trained_brain from "./trained_brain"
// import trainingData from "./data.js"
// import "./neural_net.js"
// import "./chitchatdata.js"
import { Component } from "react";
import "./sky_net.scss";
class Ultron extends Component {
    constructor() {
        super();

        this.state = {
            show: "Allow me to assist, humans", // display text window
          can_you_see_me: 1,
          scanned:0,
             // trained net after initialise method
            comments: [], // array of cleaned reviews, only content
            prediction: [], // array of string, 'good' or 'bad' based on trained_net
          baddies: [],// array of users with bad comments
          baddiesChoices: [],
        


            trained_net: function anonymous(rawInput, isSampleI, temperature
              ) {
              
                if (typeof rawInput === 'undefined') rawInput = [];
                if (typeof isSampleI === 'undefined') isSampleI = false;
                if (typeof temperature === 'undefined') temperature = 1;
                
              var characterTable = {"0":"I","1":" ","2":"a","3":"m","4":"s","5":"t","6":"i","7":"f","8":"e","9":"d","10":"w","11":"n","12":"o","13":"k","14":"l","15":"y","16":"!","17":"T","18":"h","19":"v","20":"r","21":"g","22":"b","23":"c","24":"x","25":"p","26":"u","27":",","28":"j","29":"q","30":null,"31":null,"32":null};
              var indexTable = {"I":0," ":1,"a":2,"m":3,"s":4,"t":5,"i":6,"f":7,"e":8,"d":9,"w":10,"n":11,"o":12,"k":13,"l":14,"y":15,"!":16,"T":17,"h":18,"v":19,"r":20,"g":21,"b":22,"c":23,"x":24,"p":25,"u":26,",":27,"j":28,"q":29,"stop-input":30,"start-output":31,"unrecognized":32};
              var characters = ["I"," ","a","m","s","t","i","f","e","d","w","n","o","k","l","y","!","T","h","v","r","g","b","c","x","p","u",",","j","q","stop-input","start-output","unrecognized"];
              function toIndexes(value) {
                    var maxThreshold = arguments.length > 1 && arguments[1] !== undefined ? arguments[1] : 0;
                    var result = [];
                    
                    for (var i = 0, max = value.length; i < max; i++) {
                      var character = value[i];
                      var index = indexTable[character];
              
                      if (index === undefined) {
                        if (indexTable['unrecognized']) {
                          index = indexTable['unrecognized'];
                        } else {
                          throw new Error('unrecognized character "' + character + '"');
                        }
                      }
              
                      if (index < maxThreshold) continue;
                      result.push(index);
                    }
              
                    return result;
                  }
              function toIndexesInputOutput(value1) {
                    var value2 = arguments.length > 1 && arguments[1] !== undefined ? arguments[1] : null;
                    var maxThreshold = arguments.length > 2 && arguments[2] !== undefined ? arguments[2] : 0;
                    var result = void 0;
              
                    if (typeof value1 === 'string') {
                      result = toIndexes(value1.split('').concat(['stop-input', 'start-output']), maxThreshold);
                    } else {
                      result = toIndexes(value1.concat(['stop-input', 'start-output']), maxThreshold);
                    }
              
                    if (value2 === null) return result;
              
                    if (typeof value2 === 'string') {
                      return result.concat(toIndexes(value2.split(''), maxThreshold));
                    } else {
                      return result.concat(toIndexes(value2, maxThreshold));
                    }
                  }
              function toCharacters(indices) {
                    var maxThreshold = arguments.length > 1 && arguments[1] !== undefined ? arguments[1] : 0;
                    var result = [];
                          var indexTable = indexTable;
              
                    for (var i = 0, max = indices.length; i < max; i++) {
                      var index = indices[i];
                      if (index < maxThreshold) continue;
                      var character = characterTable[index];
              
                      if (character === undefined) {
                        if (indexTable['unrecognized']) {
                          character = characterTable[indexTable['unrecognized']];
                        } else {
                          throw new Error('unrecognized index "' + index + '"');
                        }
                      } else if (character !== null) {
                        result.push(character);
                      }
                    }
              
                    return result;
                  }
              
                
                var input = formatDataIn(rawInput);
                var json = {"type":"LSTM","options":{"inputSize":33,"inputRange":33,"hiddenLayers":[20,20],"outputSize":33,"decayRate":0.999,"smoothEps":1e-8,"regc":0.000001,"clipval":5,"maxPredictionLength":100,"dataFormatter":{"values":["I am satisfied","I want to kill myself","I want to kill myself !","This is very good !","alot of errors in my order","asdf","bad","bad after sale service","bad and slow","bad bad bad","bad experience","best choice out there","delicious food, great service","food was delicious awesome service","ghjghjghj","good","happy","hello","hi","i already set a record for ordering from them every week today i ordered twice","i am happy!","i am satisfied","i am super happy","i had a bad experience ordering with them","i had a really bad experience with them","i had to put it to the garbage","i had to trow half the food to the garbage","i hated the service and the food","i really did not liked the spagetthi","i want to kill myself","i was disapointed","i was happy with my order","i was very disapointed","i was very disapointed with my order","i was very happy with my order","i would never order from there again","i would not recommend","i would not recommend it to my friends","i would recommend it to my friends","omg best service","quick delivery, fast and effective","really bad first experice","review content","taste was not what i expected","taste was weird","the food tasted like crap","the food tasted like shit","the food was terrible","the vegetables where rotten","this is the best food ever","this is the worst place to eat in montreal","this is very good","this looks really bad","very bad quality and slow","very good","very large choice of meals easy to order and interesting offers to watch for great","very satisfied with alce they take care when delivering always on time great variety of","what a trhill","would not recommend to anyone"],"indexTable":{"I":0," ":1,"a":2,"m":3,"s":4,"t":5,"i":6,"f":7,"e":8,"d":9,"w":10,"n":11,"o":12,"k":13,"l":14,"y":15,"!":16,"T":17,"h":18,"v":19,"r":20,"g":21,"b":22,"c":23,"x":24,"p":25,"u":26,",":27,"j":28,"q":29,"stop-input":30,"start-output":31,"unrecognized":32},"characterTable":{"0":"I","1":" ","2":"a","3":"m","4":"s","5":"t","6":"i","7":"f","8":"e","9":"d","10":"w","11":"n","12":"o","13":"k","14":"l","15":"y","16":"!","17":"T","18":"h","19":"v","20":"r","21":"g","22":"b","23":"c","24":"x","25":"p","26":"u","27":",","28":"j","29":"q","30":null,"31":null,"32":null},"characters":["I"," ","a","m","s","t","i","f","e","d","w","n","o","k","l","y","!","T","h","v","r","g","b","c","x","p","u",",","j","q","stop-input","start-output","unrecognized"],"specialIndexes":[30,31,32]}},"input":{"rows":34,"columns":33,"weights":{"0":0.857496976852417,"1":2.2465946674346924,"2":-1.2471877336502075,"3":-1.0146074295043945,"4":1.5704039335250854,"5":-1.860236644744873,"6":0.6231734752655029,"7":-1.019927740097046,"8":3.551730155944824,"9":1.9207075834274292,"10":0.35826483368873596,"11":1.5300811529159546,"12":-0.5216909646987915,"13":1.4064117670059204,"14":0.3388032019138336,"15":1.6737940311431885,"16":1.9861478805541992,"17":0.8935201168060303,"18":-0.7008178234100342,"19":-0.13033916056156158,"20":-1.695331335067749,"21":-2.3107762336730957,"22":0.1178927794098854,"23":0.6516293883323669,"24":-2.284029006958008,"25":-1.304714560508728,"26":-0.7811394333839417,"27":2.814207077026367,"28":-0.3752690553665161,"29":0.9291305541992188,"30":0.6811060905456543,"31":-3.2618255615234375,"32":-2.707134962081909,"33":3.074568510055542,"34":4.113060474395752,"35":-6.305563926696777,"36":2.5314416885375977,"37":3.469074249267578,"38":-5.214019298553467,"39":1.6751105785369873,"40":-13.610267639160156,"41":15.185565948486328,"42":15.728638648986816,"43":-5.071240425109863,"44":-2.7330751419067383,"45":-6.715506553649902,"46":7.128867149353027,"47":-5.738175392150879,"48":-1.1022740602493286,"49":-6.347334861755371,"50":-8.580089569091797,"51":-7.850289344787598,"52":-1.7040830850601196,"53":-12.89638614654541,"54":0.043820418417453766,"55":7.879274368286133,"56":2.8346500396728516,"57":-16.358152389526367,"58":-2.123032569885254,"59":2.143529176712036,"60":17.6591854095459,"61":6.954848289489746,"62":6.970381259918213,"63":7.2474164962768555,"64":-1.5490273237228394,"65":2.9281973838806152,"66":-0.3252568542957306,"67":0.44498834013938904,"68":0.9577975273132324,"69":0.10001703351736069,"70":-0.8818198442459106,"71":-1.1777193546295166,"72":-0.6983993053436279,"73":3.920092821121216,"74":1.3981515169143677,"75":-0.4470709264278412,"76":-3.0896222591400146,"77":0.2727567255496979,"78":3.6412720680236816,"79":-0.3974321484565735,"80":0.10378561913967133,"81":-3.5311167240142822,"82":3.3843488693237305,"83":-2.174887180328369,"84":1.3300058841705322,"85":0.91581791639328,"86":-0.09291765838861465,"87":0.5759872198104858,"88":-0.12248177081346512,"89":0.3480273485183716,"90":0.6215215921401978,"91":0.5894429683685303,"92":-3.0158534049987793,"93":-0.5646741986274719,"94":0.11179222911596298,"95":0.012003248557448387,"96":-0.5219875574111938,"97":-4.709479808807373,"98":1.4901455640792847,"99":0.723712146282196,"100":1.3117427825927734,"101":-0.3540801703929901,"102":-0.8877734541893005,"103":1.1918269395828247,"104":-0.3598495125770569,"105":0.5285457372665405,"106":-0.2894454598426819,"107":1.3627095222473145,"108":0.2614900767803192,"109":0.15082451701164246,"110":0.3600248694419861,"111":-0.045847535133361816,"112":0.3514367341995239,"113":-0.32865288853645325,"114":-0.514150857925415,"115":0.847084105014801,"116":0.026734137907624245,"117":0.0011676291469484568,"118":0.043447673320770264,"119":-1.2348846197128296,"120":-0.8161231279373169,"121":-1.0013136863708496,"122":-0.15467751026153564,"123":-0.6575819253921509,"124":-0.3369337022304535,"125":-0.8054972290992737,"126":0.03691666200757027,"127":-0.18878790736198425,"128":0.2647322416305542,"129":-0.5836917757987976,"130":-1.6800340414047241,"131":-1.1757639646530151,"132":3.6502609252929688,"133":0.2972063422203064,"134":-2.7556612491607666,"135":-1.5157963037490845,"136":3.869154691696167,"137":-0.2587307095527649,"138":3.0378620624542236,"139":-5.9901018142700195,"140":-2.4128379821777344,"141":-0.702857255935669,"142":0.2307068109512329,"143":4.293050289154053,"144":-4.476088523864746,"145":1.42738938331604,"146":0.430501252412796,"147":1.9208463430404663,"148":-2.169322967529297,"149":3.5843491554260254,"150":-3.062401056289673,"151":0.13552138209342957,"152":-3.150513172149658,"153":-2.9552571773529053,"154":-0.5994111895561218,"155":0.3169941306114197,"156":-1.13871431350708,"157":-1.1432994604110718,"158":-0.25727713108062744,"159":1.7668317556381226,"160":-2.588691234588623,"161":1.1352035999298096,"162":2.6090831756591797,"163":1.8970377445220947,"164":-0.690944254398346,"165":2.1996171474456787,"166":2.909919500350952,"167":0.39105966687202454,"168":1.6097551584243774,"169":2.1312856674194336,"170":0.14029988646507263,"171":4.779369354248047,"172":-1.8543076515197754,"173":-1.8251736164093018,"174":0.6914436221122742,"175":-1.7564544677734375,"176":2.5866012573242188,"177":0.13362827897071838,"178":-1.8625530004501343,"179":-0.6071240901947021,"180":-0.586262583732605,"181":-3.5316789150238037,"182":1.6968462467193604,"183":-0.8952072262763977,"184":-0.14076241850852966,"185":0.6593944430351257,"186":-1.0332822799682617,"187":0.1787342131137848,"188":-0.5057327747344971,"189":1.9983110427856445,"190":1.921431064605713,"191":-3.0210468769073486,"192":1.4196279048919678,"193":-0.18072715401649475,"194":-0.1827075332403183,"195":3.6820054054260254,"196":2.761336326599121,"197":1.3183866739273071,"198":3.5539140701293945,"199":-1.8383175134658813,"200":1.2313694953918457,"201":-1.2630853652954102,"202":0.762259304523468,"203":-0.0210785623639822,"204":3.3329882621765137,"205":-1.613761305809021,"206":-5.00871467590332,"207":-1.945356845855713,"208":-1.0880383253097534,"209":2.4634101390838623,"210":0.1758914291858673,"211":-1.6388837099075317,"212":-0.6154283881187439,"213":-0.22300726175308228,"214":0.7506618499755859,"215":0.052554648369550705,"216":-3.9587552547454834,"217":-0.22990238666534424,"218":3.1385974884033203,"219":-0.294554740190506,"220":0.19128000736236572,"221":-1.0214463472366333,"222":2.1674063205718994,"223":2.7605490684509277,"224":0.686540961265564,"225":0.6547625660896301,"226":1.0715941190719604,"227":0.41581347584724426,"228":-1.4063637256622314,"229":1.8066375255584717,"230":-0.3758327066898346,"231":4.496014595031738,"232":3.8069400787353516,"233":-0.006685757078230381,"234":-0.9442460536956787,"235":3.293595314025879,"236":-0.3891836404800415,"237":4.387451171875,"238":-3.056720018386841,"239":0.8595613241195679,"240":1.6415762901306152,"241":-3.4044175148010254,"242":1.798403263092041,"243":-1.972101092338562,"244":1.5546258687973022,"245":-0.0907716453075409,"246":2.50175404548645,"247":0.5758033394813538,"248":-2.3992302417755127,"249":-1.3763970136642456,"250":-0.6889856457710266,"251":-1.1797903776168823,"252":-1.7215425968170166,"253":-0.7368229627609253,"254":-1.2922029495239258,"255":-1.585578203201294,"256":0.08018210530281067,"257":-1.4703079462051392,"258":0.9693304896354675,"259":-3.2137324810028076,"260":1.8974311351776123,"261":1.7689040899276733,"262":-1.510830283164978,"263":0.09787607938051224,"264":2.5337159633636475,"265":2.5308425426483154,"266":-0.6123961806297302,"267":-2.1848459243774414,"268":3.065439462661743,"269":1.4163907766342163,"270":3.25484561920166,"271":-4.709309101104736,"272":1.755483865737915,"273":4.873933792114258,"274":-4.429819583892822,"275":0.3005434274673462,"276":-1.363683819770813,"277":2.8772222995758057,"278":-1.6955889463424683,"279":-0.9087364673614502,"280":0.14475689828395844,"281":0.6371841430664062,"282":-0.5731989741325378,"283":-0.08895758539438248,"284":-1.4848359823226929,"285":-0.3629099130630493,"286":2.038177490234375,"287":-2.942776679992676,"288":-2.6867918968200684,"289":1.7452975511550903,"290":-1.0170243978500366,"291":0.7003199458122253,"292":-2.0458056926727295,"293":0.2237354964017868,"294":4.518491268157959,"295":-2.308197498321533,"296":1.5423808097839355,"297":1.9353264570236206,"298":1.9367197751998901,"299":-1.9764593839645386,"300":-3.9609389305114746,"301":1.5821651220321655,"302":-2.9243505001068115,"303":1.3064169883728027,"304":-0.3714333772659302,"305":0.47029682993888855,"306":-0.580817699432373,"307":-0.9954140782356262,"308":1.8959704637527466,"309":-1.601760745048523,"310":1.258866310119629,"311":-2.893564224243164,"312":-1.0077693462371826,"313":1.3712300062179565,"314":1.2913273572921753,"315":-3.0564112663269043,"316":-1.5884214639663696,"317":-6.537189483642578,"318":-1.7887091636657715,"319":2.7477989196777344,"320":-0.4699235260486603,"321":-1.5972106456756592,"322":2.754058599472046,"323":1.8576213121414185,"324":1.2721099853515625,"325":0.12508389353752136,"326":5.792614936828613,"327":-1.868886113166809,"328":-0.6799615621566772,"329":-2.406841278076172,"330":1.6322696208953857,"331":-0.01219362672418356,"332":-0.3010118305683136,"333":-0.34268078207969666,"334":0.7624516487121582,"335":0.0934554859995842,"336":2.4206762313842773,"337":0.09343048930168152,"338":-0.045881085097789764,"339":0.09645140916109085,"340":-1.737236738204956,"341":-0.14001908898353577,"342":-0.011798051185905933,"343":0.861975908279419,"344":-0.08332417160272598,"345":-0.0772952064871788,"346":-0.06252634525299072,"347":-0.030090630054473877,"348":-0.23756010830402374,"349":0.5129330158233643,"350":-0.24209731817245483,"351":-0.4553000032901764,"352":-0.4750819206237793,"353":-0.07467735558748245,"354":0.015930091962218285,"355":-0.3333700895309448,"356":-0.14266152679920197,"357":0.04911153391003609,"358":-0.23902539908885956,"359":0.09444902837276459,"360":0.016951054334640503,"361":0.15510107576847076,"362":-0.3336111009120941,"363":1.3093383312225342,"364":2.4626994132995605,"365":0.6475817561149597,"366":0.4076932966709137,"367":3.6081104278564453,"368":2.088366985321045,"369":4.661053657531738,"370":-1.221057653427124,"371":2.9434847831726074,"372":2.5352611541748047,"373":-4.781712532043457,"374":2.0560989379882812,"375":-4.8850908279418945,"376":3.879646062850952,"377":1.1417346000671387,"378":-1.0994539260864258,"379":1.801384449005127,"380":-2.391767978668213,"381":-0.18782255053520203,"382":1.0847514867782593,"383":-0.04766177758574486,"384":0.7369357347488403,"385":4.43618631362915,"386":-1.2442231178283691,"387":-6.432217597961426,"388":-1.4033156633377075,"389":-2.338139772415161,"390":3.4100182056427,"391":-0.5798763036727905,"392":0.4590094983577728,"393":-1.9369993209838867,"394":-2.752241373062134,"395":1.0188382863998413,"396":1.005235195159912,"397":3.319185256958008,"398":1.1122373342514038,"399":-1.409161925315857,"400":2.440295696258545,"401":4.9587082862854,"402":4.52943754196167,"403":-5.962728977203369,"404":1.9350076913833618,"405":6.297566890716553,"406":-2.692155361175537,"407":-1.260227084159851,"408":-4.4333906173706055,"409":4.080811977386475,"410":-0.367798775434494,"411":1.8970890045166016,"412":-0.12339432537555695,"413":-2.0668609142303467,"414":-0.57072514295578,"415":2.3105809688568115,"416":-0.33634093403816223,"417":4.2842254638671875,"418":6.55302619934082,"419":-1.3619507551193237,"420":-3.795736074447632,"421":3.1331675052642822,"422":0.40875524282455444,"423":4.367895126342773,"424":-2.4656429290771484,"425":1.3865257501602173,"426":-2.370725154876709,"427":-1.8403509855270386,"428":0.3237342834472656,"429":1.4495694637298584,"430":0.573992133140564,"431":1.3837846517562866,"432":-0.3702830672264099,"433":-0.037930265069007874,"434":5.146238803863525,"435":-3.306340456008911,"436":3.6147847175598145,"437":1.9065005779266357,"438":-1.4041177034378052,"439":1.8411051034927368,"440":-0.8510008454322815,"441":2.455888271331787,"442":-1.0311815738677979,"443":2.020941734313965,"444":-3.1241471767425537,"445":1.0590863227844238,"446":-1.7950704097747803,"447":1.7360117435455322,"448":2.8138720989227295,"449":2.701202154159546,"450":3.6746163368225098,"451":2.7815606594085693,"452":-0.19960974156856537,"453":2.942124843597412,"454":2.6953043937683105,"455":1.2226029634475708,"456":3.1236977577209473,"457":0.2589651644229889,"458":-0.5880022644996643,"459":-2.9599618911743164,"460":-2.635246515274048,"461":1.2533652782440186,"462":-1.808231234550476,"463":-2.5365490913391113,"464":2.6752665042877197,"465":5.425296783447266,"466":1.0158488750457764,"467":1.2539948225021362,"468":1.672400951385498,"469":-4.019948482513428,"470":-1.580842137336731,"471":1.621623158454895,"472":-2.429079532623291,"473":-6.5741753578186035,"474":-2.057689905166626,"475":-2.0492382049560547,"476":8.90051555633545,"477":7.685253143310547,"478":-1.967697024345398,"479":-1.6825426816940308,"480":4.533928394317627,"481":6.6507792472839355,"482":6.286295413970947,"483":-0.594879686832428,"484":-5.698826313018799,"485":-1.7873409986495972,"486":1.3570027351379395,"487":-3.214902400970459,"488":4.68233060836792,"489":2.276714563369751,"490":-1.4621050357818604,"491":-5.660349369049072,"492":7.224706649780273,"493":6.1386260986328125,"494":3.5534493923187256,"495":-0.06519946455955505,"496":4.648538112640381,"497":-0.17124620079994202,"498":-2.150481700897217,"499":3.3170480728149414,"500":1.0160764455795288,"501":0.42811471223831177,"502":0.22196820378303528,"503":3.4047648906707764,"504":1.7056463956832886,"505":0.3081219792366028,"506":-0.005677504930645227,"507":-0.27655425667762756,"508":3.8592371940612793,"509":1.5337443351745605,"510":1.9396032094955444,"511":-0.1914806365966797,"512":0.7893852591514587,"513":1.8841053247451782,"514":2.1714541912078857,"515":0.7989612817764282,"516":-0.4571187198162079,"517":1.4305919408798218,"518":0.4090439975261688,"519":-3.2020485401153564,"520":0.2708888053894043,"521":-2.878687620162964,"522":3.6090099811553955,"523":1.0617121458053589,"524":-0.8233302235603333,"525":0.7089560031890869,"526":-1.2314456701278687,"527":-2.981981039047241,"528":2.307285785675049,"529":0.6283330917358398,"530":-3.1202476024627686,"531":-3.1427314281463623,"532":0.48031386733055115,"533":-3.179121494293213,"534":2.26442551612854,"535":0.6368661522865295,"536":-0.030418818816542625,"537":0.8884090185165405,"538":-2.1607041358947754,"539":0.40951216220855713,"540":-1.5215003490447998,"541":-1.0598890781402588,"542":-4.591330528259277,"543":-0.3859612047672272,"544":-1.015782356262207,"545":1.5373224020004272,"546":-3.5270822048187256,"547":-3.5572752952575684,"548":-2.805053234100342,"549":1.7330820560455322,"550":1.38752281665802,"551":2.0940725803375244,"552":-1.1643623113632202,"553":0.7789995074272156,"554":-0.27574384212493896,"555":0.5699122548103333,"556":-0.3315827548503876,"557":0.8328836560249329,"558":0.24711906909942627,"559":0.5002402067184448,"560":-1.5780903100967407,"561":8.554107666015625,"562":6.241604804992676,"563":-1.0550042390823364,"564":-4.790690898895264,"565":10.06148910522461,"566":-1.1869926452636719,"567":7.7227396965026855,"568":-10.660443305969238,"569":5.067126274108887,"570":14.071961402893066,"571":-7.453449726104736,"572":5.602017402648926,"573":-2.148521661758423,"574":0.15486276149749756,"575":1.07584547996521,"576":10.118012428283691,"577":2.9693117141723633,"578":1.445786714553833,"579":-6.7321696281433105,"580":-0.7079322338104248,"581":-2.2488129138946533,"582":-1.5635274648666382,"583":3.0674259662628174,"584":-0.7303931713104248,"585":-3.0230953693389893,"586":-0.029173387214541435,"587":-2.5010294914245605,"588":6.7747907638549805,"589":-5.363346099853516,"590":6.3475165367126465,"591":6.3884382247924805,"592":-3.4602320194244385,"593":-0.31958985328674316,"594":4.344359874725342,"595":-2.3287317752838135,"596":-17.069263458251953,"597":-3.8754310607910156,"598":2.8927433490753174,"599":-18.630338668823242,"600":-2.2343246936798096,"601":-0.5670489072799683,"602":5.937002658843994,"603":6.5137858390808105,"604":-1.2422857284545898,"605":-4.6715593338012695,"606":-1.3879598379135132,"607":1.4457789659500122,"608":-8.481243133544922,"609":1.9928663969039917,"610":-1.3866891860961914,"611":0.9105342626571655,"612":-14.195944786071777,"613":-23.025035858154297,"614":-10.502311706542969,"615":-17.624149322509766,"616":-1.8582738637924194,"617":1.9234145879745483,"618":-1.1021661758422852,"619":-2.3803086280822754,"620":11.774022102355957,"621":2.9378724098205566,"622":-7.860130786895752,"623":17.84857940673828,"624":-3.3916163444519043,"625":1.5364166498184204,"626":-4.499992370605469,"627":4.5751776695251465,"628":1.1297688484191895,"629":-0.4878804683685303,"630":-2.773149251937866,"631":2.091991662979126,"632":1.9812047481536865,"633":7.439827919006348,"634":0.15959756076335907,"635":0.7029209733009338,"636":1.2865355014801025,"637":-6.579108715057373,"638":1.2634642124176025,"639":-1.1800185441970825,"640":2.119230031967163,"641":-0.10947702080011368,"642":-1.9721524715423584,"643":0.8740049004554749,"644":-2.4422497749328613,"645":-0.8641093969345093,"646":-0.20553439855575562,"647":0.8966926336288452,"648":0.3454454839229584,"649":2.360736608505249,"650":-0.8982579708099365,"651":-2.9387569427490234,"652":-1.6366603374481201,"653":-5.0312957763671875,"654":0.2914261221885681,"655":1.3222743272781372,"656":-1.4837040901184082,"657":1.5766072273254395,"658":-1.1175329685211182,"659":-2.0573720932006836,"660":-0.7724066376686096,"661":0.015461183153092861,"662":0.29989030957221985,"663":0.09498343616724014,"664":-0.5825315713882446,"665":0.7987906336784363,"666":-2.9983224868774414,"667":-1.545586347579956,"668":-3.6184608936309814,"669":-2.661391496658325,"670":-1.3278621435165405,"671":0.4168481230735779,"672":-2.910569429397583,"673":2.472559928894043,"674":-0.16323162615299225,"675":1.190139889717102,"676":0.6739364862442017,"677":-1.9344611167907715,"678":-0.8124683499336243,"679":-0.5219727754592896,"680":2.343745231628418,"681":-0.481648713350296,"682":-0.16018764674663544,"683":-3.1636836528778076,"684":1.8402427434921265,"685":0.6231110692024231,"686":2.087843418121338,"687":-2.316575288772583,"688":-1.8146417140960693,"689":0.9962169528007507,"690":0.8973172903060913,"691":2.5589756965637207,"692":2.506390333175659,"693":-0.07855423539876938,"694":-0.9458382725715637,"695":-0.8792963624000549,"696":-0.2156306356191635,"697":-1.268235445022583,"698":0.2023216187953949,"699":0.9140201807022095,"700":-0.8406444787979126,"701":-1.106830358505249,"702":-0.48759347200393677,"703":0.23798418045043945,"704":0.3426949381828308,"705":-0.4284361004829407,"706":-0.22075258195400238,"707":-0.8628609776496887,"708":-0.6824418306350708,"709":-1.0337568521499634,"710":-0.18669730424880981,"711":-1.6018238067626953,"712":-1.8994009494781494,"713":-1.0195000171661377,"714":-0.8928461670875549,"715":-1.7815232276916504,"716":0.08832956105470657,"717":0.05727000534534454,"718":-1.0367815494537354,"719":-0.03655977174639702,"720":-0.2744990885257721,"721":-0.05453748628497124,"722":1.498041033744812,"723":0.5239948630332947,"724":-0.10893945395946503,"725":0.1022227555513382,"726":3.5416417121887207,"727":4.109529495239258,"728":-0.9144668579101562,"729":-1.4650294780731201,"730":2.974778652191162,"731":-0.3081267178058624,"732":5.138431549072266,"733":-3.724701404571533,"734":-2.1643035411834717,"735":-0.4921613335609436,"736":-6.951981067657471,"737":2.3294427394866943,"738":-5.448238849639893,"739":0.4608019292354584,"740":-2.954921007156372,"741":-1.9778475761413574,"742":1.758888602256775,"743":-0.8344222903251648,"744":0.7387911677360535,"745":-1.700007438659668,"746":-0.3020104765892029,"747":-2.0515522956848145,"748":-0.563368022441864,"749":-3.0931715965270996,"750":0.08265320211648941,"751":2.0834262371063232,"752":-3.053417682647705,"753":-3.256963014602661,"754":-2.2073769569396973,"755":2.3340563774108887,"756":1.2245469093322754,"757":-0.15601246058940887,"758":1.9515881538391113,"759":-6.145169258117676,"760":-1.307682752609253,"761":1.6362730264663696,"762":-1.052043080329895,"763":-4.816089153289795,"764":0.5314052700996399,"765":-5.237241268157959,"766":1.9775643348693848,"767":2.58249831199646,"768":1.740047812461853,"769":9.183099746704102,"770":-3.1393489837646484,"771":3.1530001163482666,"772":-2.009251594543457,"773":-0.9898303151130676,"774":-2.7306253910064697,"775":-2.4001541137695312,"776":-0.021108776330947876,"777":1.8187390565872192,"778":-1.9528998136520386,"779":-0.02570372261106968,"780":0.030919738113880157,"781":-0.48046228289604187,"782":3.7333624362945557,"783":-1.5251275300979614,"784":-0.8622499704360962,"785":-1.0042732954025269,"786":0.8779950737953186,"787":-0.22078047692775726,"788":-0.4015099108219147,"789":-2.3487727642059326,"790":-3.1466875076293945,"791":2.7813472747802734,"792":1.8382452726364136,"793":-1.8659062385559082,"794":-3.587230920791626,"795":-2.4901463985443115,"796":-0.5386180877685547,"797":-3.5461668968200684,"798":-0.023013772442936897,"799":-2.55906343460083,"800":0.3854875862598419,"801":-1.1312775611877441,"802":2.692873239517212,"803":0.16858680546283722,"804":-1.3917409181594849,"805":0.6185421347618103,"806":-5.422448635101318,"807":1.8870651721954346,"808":3.267127752304077,"809":3.806135892868042,"810":-5.192783832550049,"811":-6.987194061279297,"812":-4.0578484535217285,"813":-2.913165330886841,"814":2.3708317279815674,"815":-1.220531702041626,"816":-2.0629403591156006,"817":1.7777553796768188,"818":1.4875677824020386,"819":1.458131194114685,"820":-3.035156726837158,"821":2.0648107528686523,"822":2.564497709274292,"823":-2.9996278285980225,"824":-1.371536135673523,"825":-8.79875373840332,"826":-14.155451774597168,"827":-1.2293339967727661,"828":-11.765726089477539,"829":-9.188385009765625,"830":5.78919792175293,"831":2.771409034729004,"832":4.3104753494262695,"833":-0.8251781463623047,"834":3.6324868202209473,"835":9.987176895141602,"836":-1.0178345441818237,"837":11.576606750488281,"838":-17.96858024597168,"839":5.506649494171143,"840":-11.28559684753418,"841":-14.944701194763184,"842":5.3462138175964355,"843":2.9724135398864746,"844":-3.0842339992523193,"845":-4.30415153503418,"846":0.6360392570495605,"847":-13.388875007629395,"848":17.886383056640625,"849":2.2393195629119873,"850":-6.310786724090576,"851":-6.695013523101807,"852":-15.285935401916504,"853":20.27121925354004,"854":-1.079169750213623,"855":2.842772960662842,"856":1.642004132270813,"857":-5.036252021789551,"858":2.3034567832946777,"859":2.87546968460083,"860":-0.23420670628547668,"861":-0.2523328363895416,"862":4.596672058105469,"863":1.0744174718856812,"864":1.497099757194519,"865":-1.678273320198059,"866":0.8548215627670288,"867":4.614656925201416,"868":-0.8707308173179626,"869":2.1875076293945312,"870":0.47386500239372253,"871":0.9290682673454285,"872":1.635259985923767,"873":2.2894229888916016,"874":-0.2977563142776489,"875":-0.056605271995067596,"876":0.22774317860603333,"877":1.1367990970611572,"878":0.8207725286483765,"879":-0.22473354637622833,"880":0.4916117787361145,"881":0.2767808735370636,"882":-1.8850502967834473,"883":-1.9185413122177124,"884":-2.6625280380249023,"885":0.34674885869026184,"886":-0.6782570481300354,"887":-0.5239447355270386,"888":0.7870801687240601,"889":-1.0893537998199463,"890":1.3975069522857666,"891":5.039055824279785,"892":6.4469828605651855,"893":0.5382895469665527,"894":-6.115907669067383,"895":3.839165449142456,"896":0.8541944026947021,"897":-0.4211547076702118,"898":1.84254789352417,"899":4.022684574127197,"900":1.7142494916915894,"901":-1.2367771863937378,"902":-1.94044029712677,"903":0.6098403930664062,"904":6.07153844833374,"905":1.1902034282684326,"906":-0.34125062823295593,"907":2.64747953414917,"908":0.9537464380264282,"909":0.313591331243515,"910":0.9682061672210693,"911":1.930935263633728,"912":-2.3919265270233154,"913":6.532514572143555,"914":-2.4295654296875,"915":-1.3215254545211792,"916":4.897176265716553,"917":-4.433692455291748,"918":8.655014991760254,"919":-1.9606444835662842,"920":0.09823061525821686,"921":-2.3231472969055176,"922":-8.57468318939209,"923":-1.8778493404388428,"924":15.388072967529297,"925":9.589873313903809,"926":-0.873469352722168,"927":-7.44674015045166,"928":15.658437728881836,"929":1.1397864818572998,"930":14.800999641418457,"931":-15.309536933898926,"932":3.858954668045044,"933":16.028343200683594,"934":-19.05230140686035,"935":6.475330352783203,"936":-11.117303848266602,"937":3.2871854305267334,"938":2.515787363052368,"939":10.717453002929688,"940":7.476585388183594,"941":-2.756234884262085,"942":-2.0782930850982666,"943":1.7381398677825928,"944":0.661770761013031,"945":1.5693937540054321,"946":3.6614933013916016,"947":4.226801872253418,"948":-1.4526506662368774,"949":8.881396293640137,"950":1.5550590753555298,"951":11.539931297302246,"952":-6.248989105224609,"953":2.4621989727020264,"954":-2.7154643535614014,"955":3.74082350730896,"956":-7.608590126037598,"957":2.0821738243103027,"958":0.41500067710876465,"959":17.695425033569336,"960":-4.158788204193115,"961":5.8589396476745605,"962":20.29911231994629,"963":-7.235149383544922,"964":7.366612911224365,"965":3.762021780014038,"966":-7.533761024475098,"967":18.803524017333984,"968":-3.113314151763916,"969":8.6282377243042,"970":-1.3066643476486206,"971":10.482040405273438,"972":-14.57777214050293,"973":3.4030840396881104,"974":-19.468578338623047,"975":20.27056884765625,"976":20.394590377807617,"977":9.064154624938965,"978":14.909893035888672,"979":6.503953456878662,"980":2.939798355102539,"981":8.827665328979492,"982":6.23789119720459,"983":3.194467782974243,"984":17.18282699584961,"985":10.12727165222168,"986":-3.7785484790802,"987":-31.81765365600586,"988":-7.4395976066589355,"989":11.648820877075195,"990":9.248100280761719,"991":8.490105628967285,"992":-5.682686805725098,"993":-2.165647506713867,"994":15.2192964553833,"995":-2.8511462211608887,"996":7.483359336853027,"997":-7.504775524139404,"998":7.5290117263793945,"999":5.572075843811035,"1000":-5.4156904220581055,"1001":10.529777526855469,"1002":-3.850365161895752,"1003":5.406544208526611,"1004":-2.8819563388824463,"1005":8.464068412780762,"1006":9.71304988861084,"1007":6.53998327255249,"1008":-3.066800355911255,"1009":-3.991915702819824,"1010":-6.363149166107178,"1011":-9.195297241210938,"1012":2.703540086746216,"1013":-6.91908073425293,"1014":-3.027585029602051,"1015":7.081441879272461,"1016":-11.103565216064453,"1017":3.4112629890441895,"1018":-1.9680272340774536,"1019":2.8345065116882324,"1020":13.449141502380371,"1021":-7.0391926765441895,"1022":-1.1812154054641724,"1023":-0.2645668685436249,"1024":-3.212833881378174,"1025":1.2557021379470825,"1026":-0.45328229665756226,"1027":-4.340823650360107,"1028":0.14532479643821716,"1029":-1.2432185411453247,"1030":0.4499283730983734,"1031":-3.5350351333618164,"1032":-4.948963642120361,"1033":-0.3162377178668976,"1034":-0.5283496975898743,"1035":0.49062055349349976,"1036":-0.2936558425426483,"1037":-1.315660834312439,"1038":-0.9372204542160034,"1039":0.45967578887939453,"1040":0.28008681535720825,"1041":-0.24119751155376434,"1042":-1.4876662492752075,"1043":1.3093628883361816,"1044":0.797686755657196,"1045":-0.7430809736251831,"1046":-0.6735208630561829,"1047":-2.850459098815918,"1048":0.015762127935886383,"1049":-0.2434571236371994,"1050":-2.2708988189697266,"1051":0.49169471859931946,"1052":-0.10247716307640076,"1053":0.7264549136161804,"1054":0.37378162145614624,"1055":2.628009080886841,"1056":-0.3739074468612671,"1057":-1.2254202365875244,"1058":0.0765039324760437,"1059":0.1947869509458542,"1060":-0.9846925139427185,"1061":0.27284955978393555,"1062":0.24122191965579987,"1063":0.9498757123947144,"1064":-1.4200875759124756,"1065":-3.596952199935913,"1066":2.1353888511657715,"1067":0.7139713168144226,"1068":-1.0458024740219116,"1069":-0.36510294675827026,"1070":0.08634687960147858,"1071":1.639047622680664,"1072":1.8346322774887085,"1073":1.6745002269744873,"1074":-0.7085574865341187,"1075":-0.2432926744222641,"1076":0.45163819193840027,"1077":0.5860434174537659,"1078":0.36004626750946045,"1079":-2.3348655700683594,"1080":0.9958071112632751,"1081":0.9931417107582092,"1082":0.2116655558347702,"1083":-0.4973794221878052,"1084":1.0817111730575562,"1085":-0.8581223487854004,"1086":0.1545850932598114,"1087":-0.4224889576435089,"1088":-0.027384323999285698,"1089":-0.004652267321944237,"1090":0.05283907800912857,"1091":0.02724875696003437,"1092":-0.028455935418605804,"1093":0.005912755616009235,"1094":0.03532494232058525,"1095":-0.06499754637479782,"1096":0.03377029299736023,"1097":-0.03681567311286926,"1098":-0.00276386272162199,"1099":-0.05710073560476303,"1100":-0.031302254647016525,"1101":0.07319650053977966,"1102":0.04919480159878731,"1103":0.07586200535297394,"1104":0.0676812082529068,"1105":0.06438961625099182,"1106":0.03267145901918411,"1107":-0.004589954391121864,"1108":0.023298250511288643,"1109":0.015881111845374107,"1110":-0.012137827463448048,"1111":-0.007148244883865118,"1112":-0.05987713485956192,"1113":-0.0014807027764618397,"1114":-0.04213524982333183,"1115":0.010310704819858074,"1116":0.07510265707969666,"1117":0.0011539775878190994,"1118":0.06436657160520554,"1119":-0.0694042518734932,"1120":-0.06557252258062363,"1121":0.0038661218713968992}},"hiddenLayers":[{"inputMatrix":{"rows":20,"columns":33,"weights":{"0":1.1445988416671753,"1":0.026682019233703613,"2":-1.4803155660629272,"3":0.6369014382362366,"4":0.07594046741724014,"5":-1.215657353401184,"6":-0.3092004358768463,"7":0.038432855159044266,"8":-1.5211784839630127,"9":-0.5732912421226501,"10":-1.0489404201507568,"11":1.6350210905075073,"12":0.024545222520828247,"13":-0.2658640146255493,"14":-1.8640778064727783,"15":0.01795629970729351,"16":1.5340666770935059,"17":1.3098134994506836,"18":-1.7665866613388062,"19":-0.9151977300643921,"20":-0.8011109232902527,"21":0.30770251154899597,"22":-1.784749984741211,"23":-0.2892518937587738,"24":-0.1278502643108368,"25":0.7992604970932007,"26":-1.0187636613845825,"27":-0.054533377289772034,"28":1.1637071371078491,"29":1.3817943334579468,"30":0.15935438871383667,"31":1.2434158325195312,"32":1.2128806114196777,"33":-1.7037711143493652,"34":-3.258814573287964,"35":0.34188857674598694,"36":0.9686234593391418,"37":-2.8431849479675293,"38":1.0013964176177979,"39":-2.011169672012329,"40":0.8747907280921936,"41":-0.17511571943759918,"42":0.7829616665840149,"43":1.1751630306243896,"44":-1.733105182647705,"45":1.9269858598709106,"46":-0.9038918614387512,"47":-0.4689130485057831,"48":-0.08804897218942642,"49":-0.9731626510620117,"50":-0.3386482894420624,"51":0.04221576824784279,"52":-1.9562581777572632,"53":0.008268709294497967,"54":-0.0013120068470016122,"55":1.2715462446212769,"56":-0.2805142402648926,"57":-0.7559797763824463,"58":-0.6589483618736267,"59":2.9380619525909424,"60":-0.5016713738441467,"61":0.45581918954849243,"62":-0.31791865825653076,"63":0.7449837923049927,"64":-0.24344360828399658,"65":0.6166467666625977,"66":0.1832723319530487,"67":1.2088531255722046,"68":-1.9899766445159912,"69":-0.6009745001792908,"70":2.229163408279419,"71":-0.3352508544921875,"72":1.5489366054534912,"73":0.21500006318092346,"74":0.6197770237922668,"75":-0.1228802502155304,"76":-0.7187789678573608,"77":1.743642807006836,"78":0.8442208766937256,"79":-0.5435330867767334,"80":0.8805692791938782,"81":-3.169490098953247,"82":0.7160760760307312,"83":1.3156492710113525,"84":-1.34763503074646,"85":-0.023558441549539566,"86":-2.798755407333374,"87":-2.3209640979766846,"88":-0.6449726223945618,"89":0.45099326968193054,"90":-0.003839385462924838,"91":-0.8725765943527222,"92":-4.018152236938477,"93":0.10834667831659317,"94":1.5092136859893799,"95":3.2671940326690674,"96":-0.8317422270774841,"97":-0.4055323600769043,"98":-2.231748580932617,"99":-0.2908770442008972,"100":-0.971289873123169,"101":1.2997444868087769,"102":0.6372696757316589,"103":-1.2479808330535889,"104":0.3451831340789795,"105":-0.25226423144340515,"106":0.7609728574752808,"107":0.3380720317363739,"108":-0.42850998044013977,"109":0.4140639305114746,"110":-0.6341812610626221,"111":0.7528640627861023,"112":-0.2758382260799408,"113":0.6040197014808655,"114":0.12874835729599,"115":0.2014581710100174,"116":0.2975553870201111,"117":2.7304844856262207,"118":1.6119914054870605,"119":1.773680567741394,"120":2.141404867172241,"121":0.21258801221847534,"122":0.35791099071502686,"123":-0.5990279912948608,"124":-0.24765706062316895,"125":0.14455388486385345,"126":1.383284330368042,"127":0.4479302167892456,"128":-3.9430432319641113,"129":-0.3466288447380066,"130":-0.9899460673332214,"131":1.4298697710037231,"132":-0.763679027557373,"133":1.1179885864257812,"134":0.8586229681968689,"135":2.12896466255188,"136":0.22912390530109406,"137":2.6811180114746094,"138":-0.43384644389152527,"139":1.8633426427841187,"140":2.9754931926727295,"141":2.194425582885742,"142":0.6681203246116638,"143":0.5345872044563293,"144":0.9971390962600708,"145":0.5249164700508118,"146":-0.46925976872444153,"147":-1.8118585348129272,"148":-0.5751097202301025,"149":-2.199582576751709,"150":1.184483289718628,"151":0.25590428709983826,"152":-0.36382442712783813,"153":1.19829261302948,"154":1.0301225185394287,"155":-0.8157092332839966,"156":-1.1646969318389893,"157":-0.4785597324371338,"158":-0.7978200316429138,"159":0.9138575792312622,"160":1.6622227430343628,"161":-0.5724080801010132,"162":-0.2653915286064148,"163":-1.9748252630233765,"164":-0.06731782108545303,"165":1.7942984104156494,"166":0.6298156380653381,"167":-0.251913458108902,"168":0.9569222927093506,"169":1.3015679121017456,"170":0.05197944864630699,"171":1.0285040140151978,"172":0.6251793503761292,"173":0.04856674373149872,"174":-0.4984210729598999,"175":-2.655019521713257,"176":0.7718217372894287,"177":-1.0367497205734253,"178":1.1607595682144165,"179":-1.812242031097412,"180":-0.9418359994888306,"181":0.18281309306621552,"182":0.2778650224208832,"183":-2.1232259273529053,"184":-1.196664571762085,"185":0.7838988900184631,"186":-0.5078802704811096,"187":0.7776645421981812,"188":-1.0224254131317139,"189":-1.919477105140686,"190":0.9075736999511719,"191":-0.34283503890037537,"192":0.05829088017344475,"193":-1.4009110927581787,"194":0.9637898802757263,"195":-0.7023131251335144,"196":0.3166111409664154,"197":2.04514479637146,"198":-0.48988014459609985,"199":-1.0939151048660278,"200":1.2350711822509766,"201":0.0820998102426529,"202":-1.4050573110580444,"203":0.9623647332191467,"204":-1.4735807180404663,"205":0.49282699823379517,"206":-0.8572840690612793,"207":-1.5028377771377563,"208":1.6326684951782227,"209":-1.3781719207763672,"210":-0.23318815231323242,"211":0.2065241038799286,"212":0.6347072124481201,"213":0.9677826166152954,"214":-0.14339511096477509,"215":-1.164321780204773,"216":1.8971489667892456,"217":-0.6333082914352417,"218":1.3617513179779053,"219":1.310287594795227,"220":0.8606362342834473,"221":-0.20244668424129486,"222":0.6938268542289734,"223":-0.7700727581977844,"224":2.108851909637451,"225":-0.4293350279331207,"226":-0.2959060072898865,"227":-1.968443512916565,"228":1.2596803903579712,"229":0.06918446719646454,"230":1.0933030843734741,"231":0.38257333636283875,"232":0.17856819927692413,"233":-2.292201519012451,"234":0.1616131216287613,"235":0.12221934646368027,"236":-0.4878706932067871,"237":0.7365782856941223,"238":0.2650566101074219,"239":1.4707928895950317,"240":1.9399505853652954,"241":0.3630889356136322,"242":0.4057205021381378,"243":-0.9072130918502808,"244":-0.4488580822944641,"245":-2.0291781425476074,"246":-1.8230345249176025,"247":-1.1632399559020996,"248":0.8677113056182861,"249":-2.6079463958740234,"250":-1.593653678894043,"251":-2.384227991104126,"252":-0.8129372596740723,"253":-1.1137721538543701,"254":0.7571543455123901,"255":-0.61113041639328,"256":0.5779125094413757,"257":-0.4918282628059387,"258":1.0159302949905396,"259":-0.248964324593544,"260":3.190408706665039,"261":-2.0072221755981445,"262":0.44629934430122375,"263":-1.2901904582977295,"264":-0.4809311628341675,"265":-0.5668375492095947,"266":0.44753775000572205,"267":-0.3525818884372711,"268":-0.7913357019424438,"269":1.38741934299469,"270":-0.9843120574951172,"271":0.24293500185012817,"272":-0.45281922817230225,"273":0.30192556977272034,"274":-0.3666549026966095,"275":-1.3138923645019531,"276":1.459069848060608,"277":0.6045705080032349,"278":-0.4672756493091583,"279":-0.8132993578910828,"280":-1.012550711631775,"281":-1.4687939882278442,"282":0.4937319755554199,"283":0.0427689328789711,"284":-0.4399394989013672,"285":0.38942667841911316,"286":-0.2093012034893036,"287":-0.5259413719177246,"288":-0.8977283239364624,"289":-1.4486159086227417,"290":0.3321409821510315,"291":-1.1135414838790894,"292":0.29134953022003174,"293":-0.015579473227262497,"294":0.7308707237243652,"295":0.5141201019287109,"296":0.625883162021637,"297":-2.0829641819000244,"298":-0.9588587284088135,"299":0.47539210319519043,"300":1.623521089553833,"301":-1.3749361038208008,"302":0.9167316555976868,"303":-2.204329490661621,"304":1.0605632066726685,"305":0.9066375494003296,"306":-1.720910668373108,"307":0.17004665732383728,"308":-0.08465425670146942,"309":2.4030613899230957,"310":-1.0595570802688599,"311":-0.19542570412158966,"312":-1.2287256717681885,"313":0.5680680871009827,"314":-2.472238540649414,"315":0.5271854996681213,"316":-1.3896281719207764,"317":-0.565527617931366,"318":0.9320826530456543,"319":0.15335863828659058,"320":2.2444427013397217,"321":-0.18143662810325623,"322":-0.17712734639644623,"323":0.023232625797390938,"324":-0.6194820404052734,"325":1.5160892009735107,"326":0.6004008650779724,"327":-1.869924783706665,"328":-2.039341926574707,"329":1.8213567733764648,"330":0.2704887092113495,"331":-0.6142341494560242,"332":-1.2153220176696777,"333":-0.8163799047470093,"334":-0.4364176392555237,"335":-3.042991876602173,"336":0.3262099325656891,"337":1.296532392501831,"338":-0.3718487620353699,"339":0.006303710397332907,"340":0.73915034532547,"341":1.1555896997451782,"342":1.0067650079727173,"343":-2.497432231903076,"344":-2.559253692626953,"345":-1.3071634769439697,"346":1.003569483757019,"347":1.6587191820144653,"348":-2.004204511642456,"349":-2.7549049854278564,"350":-0.6305046081542969,"351":-0.4280236065387726,"352":-1.2317142486572266,"353":1.1206084489822388,"354":-1.1311544179916382,"355":-0.8717542290687561,"356":-1.507531762123108,"357":-0.02843361534178257,"358":0.7393313050270081,"359":0.9558231830596924,"360":-1.8337599039077759,"361":-0.7334436774253845,"362":-1.1039576530456543,"363":-0.1901978999376297,"364":-0.9629339575767517,"365":-0.16670851409435272,"366":0.0030428904574364424,"367":-0.6633419394493103,"368":0.3647139072418213,"369":-1.1290652751922607,"370":-0.14516505599021912,"371":-0.35656610131263733,"372":0.003735060105100274,"373":0.5642444491386414,"374":-0.1706644892692566,"375":-0.34784945845603943,"376":-0.22078436613082886,"377":-1.6197997331619263,"378":-0.3820650577545166,"379":-0.8140307664871216,"380":0.16176846623420715,"381":-0.6708791851997375,"382":-1.3762248754501343,"383":-0.7261925339698792,"384":-0.15992319583892822,"385":-0.1095399484038353,"386":0.08670204132795334,"387":-0.2535800337791443,"388":0.2111305594444275,"389":0.19940605759620667,"390":0.12870024144649506,"391":0.7140147686004639,"392":0.41322481632232666,"393":-0.6515837907791138,"394":0.5573866367340088,"395":0.21057890355587006,"396":0.9750423431396484,"397":0.3572642505168915,"398":1.2877076864242554,"399":0.3213200271129608,"400":0.19952745735645294,"401":0.7190649509429932,"402":1.9679467678070068,"403":0.8728979229927063,"404":-1.8510080575942993,"405":-2.286341905593872,"406":-1.0265040397644043,"407":0.6168651580810547,"408":0.19985726475715637,"409":-0.27254465222358704,"410":1.085739254951477,"411":-1.7266875505447388,"412":1.7200208902359009,"413":0.3420606851577759,"414":-0.05993473902344704,"415":1.1265442371368408,"416":2.333822011947632,"417":0.6348862648010254,"418":-0.14663487672805786,"419":0.49724826216697693,"420":0.6605486869812012,"421":0.12936224043369293,"422":-3.5536048412323,"423":-1.3479118347167969,"424":0.9122095108032227,"425":-1.3445624113082886,"426":-0.3054889738559723,"427":-0.12114877998828888,"428":0.7595968246459961,"429":-0.1087016686797142,"430":-0.7060391306877136,"431":1.9036974906921387,"432":0.19834230840206146,"433":-0.2551983892917633,"434":0.746091365814209,"435":-0.8988931179046631,"436":-0.08631094545125961,"437":-0.593989372253418,"438":-1.7978767156600952,"439":-0.8090587258338928,"440":-0.4257079064846039,"441":0.20366987586021423,"442":0.06261278688907623,"443":1.0430736541748047,"444":0.011060004122555256,"445":1.9819178581237793,"446":-1.1994271278381348,"447":1.3790364265441895,"448":0.4211030602455139,"449":2.329029083251953,"450":-0.04622328281402588,"451":1.1359217166900635,"452":-1.4289780855178833,"453":-0.8925363421440125,"454":0.645521879196167,"455":0.3212817907333374,"456":-0.2250678390264511,"457":0.019652945920825005,"458":-1.9742820262908936,"459":1.536141037940979,"460":-0.34657782316207886,"461":0.6695283055305481,"462":-1.8493478298187256,"463":-1.1673880815505981,"464":-0.05265265330672264,"465":0.6412546038627625,"466":-2.218488931655884,"467":1.3628501892089844,"468":-0.6211665272712708,"469":0.06280909478664398,"470":-2.2891926765441895,"471":-1.1817023754119873,"472":2.8094284534454346,"473":0.3016754686832428,"474":0.3397767245769501,"475":-1.9470349550247192,"476":0.3375909626483917,"477":-0.3808484375476837,"478":-1.306988000869751,"479":-1.095902681350708,"480":-0.9346729516983032,"481":-0.09934898465871811,"482":1.7604893445968628,"483":-1.3035129308700562,"484":-2.02648663520813,"485":1.5163484811782837,"486":2.078747510910034,"487":-0.8491790294647217,"488":-1.554136872291565,"489":-1.023783802986145,"490":0.8120079636573792,"491":0.3691064715385437,"492":0.04411842301487923,"493":2.250391960144043,"494":1.0448988676071167,"495":1.4181222915649414,"496":2.3294036388397217,"497":-0.13800615072250366,"498":1.7446385622024536,"499":1.21183443069458,"500":0.5084584951400757,"501":0.02440718561410904,"502":0.9568212032318115,"503":1.0454814434051514,"504":0.18661928176879883,"505":-0.2586055397987366,"506":1.9805608987808228,"507":-0.7909257411956787,"508":0.8990892171859741,"509":2.3926305770874023,"510":0.3957844376564026,"511":1.457997441291809,"512":0.19391454756259918,"513":0.6371107697486877,"514":1.467647671699524,"515":-0.31088143587112427,"516":0.7001050114631653,"517":-0.2672879099845886,"518":-1.2019202709197998,"519":-1.8191953897476196,"520":-0.6706019043922424,"521":-2.2208492755889893,"522":0.6545290350914001,"523":0.6670522093772888,"524":-1.0890285968780518,"525":0.21461400389671326,"526":-1.3889471292495728,"527":1.6860508918762207,"528":-1.260503888130188,"529":0.0715177059173584,"530":1.0060616731643677,"531":0.02304074354469776,"532":-0.416216641664505,"533":-0.33956480026245117,"534":-1.5752809047698975,"535":1.6123119592666626,"536":0.2866750657558441,"537":0.07209277153015137,"538":1.3734676837921143,"539":0.42685794830322266,"540":0.6978516578674316,"541":-0.8028615713119507,"542":-0.39380383491516113,"543":-1.0539699792861938,"544":-0.09125898778438568,"545":0.651027500629425,"546":1.2696782350540161,"547":0.3776295781135559,"548":0.9766548275947571,"549":1.3421039581298828,"550":0.5248530507087708,"551":1.684499979019165,"552":0.38328880071640015,"553":1.2919011116027832,"554":-0.7341861128807068,"555":-0.796294629573822,"556":0.89959317445755,"557":-1.0551763772964478,"558":-0.7889705300331116,"559":0.12034826725721359,"560":0.44703176617622375,"561":-1.7082785367965698,"562":-2.6656460762023926,"563":-0.21205319464206696,"564":-0.4605090022087097,"565":-2.6150593757629395,"566":-0.37029874324798584,"567":-2.0034921169281006,"568":-2.7305192947387695,"569":0.03974743187427521,"570":-0.2884948253631592,"571":-0.002884950954467058,"572":-2.702054500579834,"573":0.5642943978309631,"574":-0.11447444558143616,"575":-0.7508292198181152,"576":-0.038342613726854324,"577":-1.7006282806396484,"578":-1.1812578439712524,"579":-0.09662400186061859,"580":-1.0026702880859375,"581":-0.0848536342382431,"582":-0.8108364343643188,"583":-2.7676777839660645,"584":1.8170257806777954,"585":1.248606562614441,"586":-1.5161319971084595,"587":1.046155571937561,"588":-1.193840742111206,"589":-1.0453563928604126,"590":-0.06822363287210464,"591":1.0899497270584106,"592":0.4380607306957245,"593":-0.12444324046373367,"594":-2.161428928375244,"595":-0.34575608372688293,"596":2.12426495552063,"597":0.28962138295173645,"598":-1.8307546377182007,"599":0.12184718251228333,"600":-2.393169403076172,"601":0.23012444376945496,"602":-0.8549371957778931,"603":-1.0316745042800903,"604":1.4989873170852661,"605":-2.6535120010375977,"606":-1.0515652894973755,"607":1.3540316820144653,"608":-0.7262234687805176,"609":1.7195665836334229,"610":-0.8451533317565918,"611":0.20401303470134735,"612":2.544978141784668,"613":0.2838496267795563,"614":3.2842750549316406,"615":1.5899654626846313,"616":0.8068360686302185,"617":-0.1340400129556656,"618":-0.6123459339141846,"619":0.7809944748878479,"620":3.821681261062622,"621":0.8849099278450012,"622":-2.735349416732788,"623":-2.1592092514038086,"624":0.0758928656578064,"625":0.16005095839500427,"626":0.9821070432662964,"627":0.24362342059612274,"628":-0.6928648948669434,"629":-1.0237759351730347,"630":-1.9854055643081665,"631":0.0368814654648304,"632":-0.4193023145198822,"633":-0.45015808939933777,"634":0.2154303342103958,"635":-2.4130356311798096,"636":-2.4773857593536377,"637":0.26953044533729553,"638":-0.5030081272125244,"639":0.46993306279182434,"640":1.7429839372634888,"641":1.780009150505066,"642":1.2414565086364746,"643":-0.42773759365081787,"644":0.5531237721443176,"645":-0.8734019994735718,"646":1.7450896501541138,"647":-1.2801324129104614,"648":-0.3597850799560547,"649":-2.459728956222534,"650":-0.38826775550842285,"651":1.5986679792404175,"652":-1.1800892353057861,"653":2.3388607501983643,"654":-1.160722017288208,"655":-0.06774953752756119,"656":0.253012478351593,"657":-0.9024264812469482,"658":2.426053524017334,"659":-2.361175060272217}},"inputHidden":{"rows":20,"columns":20,"weights":{"0":-1.674674153327942,"1":1.4578975439071655,"2":2.373722791671753,"3":1.2672463655471802,"4":4.716309070587158,"5":-4.715101718902588,"6":-0.5182960629463196,"7":2.8888986110687256,"8":-3.53027606010437,"9":-3.931736469268799,"10":-0.6957523226737976,"11":2.854189157485962,"12":-2.9362125396728516,"13":-0.16986359655857086,"14":-0.5082015991210938,"15":-6.424749374389648,"16":3.344787836074829,"17":-0.6929363012313843,"18":-1.474138617515564,"19":3.984099864959717,"20":0.03438861295580864,"21":-1.2314236164093018,"22":0.9566214680671692,"23":1.6805710792541504,"24":-0.652645468711853,"25":0.5093746781349182,"26":1.4659744501113892,"27":-1.6080539226531982,"28":-0.032578181475400925,"29":0.09905394166707993,"30":-0.5642662644386292,"31":2.6998846530914307,"32":-3.756221294403076,"33":0.6676450967788696,"34":1.4966964721679688,"35":-0.008386020548641682,"36":3.8513410091400146,"37":-1.4679616689682007,"38":-0.30458003282546997,"39":-0.768743097782135,"40":-1.9165456295013428,"41":0.6638569235801697,"42":3.3716063499450684,"43":0.6429793834686279,"44":0.3289344906806946,"45":2.6484782695770264,"46":-2.1997616291046143,"47":-3.553117513656616,"48":-0.8050633072853088,"49":3.8634355068206787,"50":2.995884418487549,"51":-1.1272575855255127,"52":0.4578234851360321,"53":0.44215768575668335,"54":0.1283668875694275,"55":-0.9336534738540649,"56":-0.5182520747184753,"57":1.7058244943618774,"58":-0.9076237082481384,"59":2.0762481689453125,"60":1.1281377077102661,"61":-1.6548693180084229,"62":-1.031725287437439,"63":-1.0452033281326294,"64":0.9963535070419312,"65":-2.255009412765503,"66":-1.2390555143356323,"67":2.0584890842437744,"68":-0.8120852112770081,"69":2.687760829925537,"70":-0.5903440117835999,"71":0.927577018737793,"72":-0.8243030905723572,"73":-1.9454667568206787,"74":-0.4051445424556732,"75":-1.593004584312439,"76":-2.5551023483276367,"77":2.3741750717163086,"78":1.6068819761276245,"79":0.34621578454971313,"80":1.3842806816101074,"81":-0.30236268043518066,"82":-1.406724452972412,"83":0.058034177869558334,"84":-1.9033006429672241,"85":-0.05842102691531181,"86":2.5015082359313965,"87":1.400760293006897,"88":1.460526704788208,"89":-0.5577624440193176,"90":-0.822953462600708,"91":-5.54637336730957,"92":0.012074455618858337,"93":2.105851173400879,"94":0.923840343952179,"95":-0.1813681572675705,"96":0.12247323244810104,"97":0.8229126930236816,"98":0.7840294241905212,"99":1.4645802974700928,"100":0.23181098699569702,"101":3.532768726348877,"102":4.686636924743652,"103":2.473007917404175,"104":1.440265417098999,"105":4.2897629737854,"106":-1.5102630853652954,"107":-4.036116123199463,"108":0.7383560538291931,"109":1.1274207830429077,"110":5.100308895111084,"111":0.19358152151107788,"112":2.7419393062591553,"113":3.161776065826416,"114":3.007753610610962,"115":2.277853488922119,"116":-1.5456188917160034,"117":-0.14956623315811157,"118":2.123438596725464,"119":2.468735694885254,"120":-0.2978731691837311,"121":-0.46934154629707336,"122":-1.9073418378829956,"123":0.4756181836128235,"124":0.4496981203556061,"125":-3.844487428665161,"126":1.7445378303527832,"127":2.6927902698516846,"128":1.7097946405410767,"129":-1.7782331705093384,"130":-1.5906940698623657,"131":1.275017499923706,"132":-2.1086199283599854,"133":2.2693288326263428,"134":-0.509245753288269,"135":1.3439353704452515,"136":-0.5345640778541565,"137":-1.0137089490890503,"138":-0.59498131275177,"139":-1.5094702243804932,"140":1.7672122716903687,"141":1.1964128017425537,"142":1.6790544986724854,"143":-0.6749810576438904,"144":-0.1725342571735382,"145":-0.38478440046310425,"146":-0.233572855591774,"147":-0.24133358895778656,"148":0.6493397355079651,"149":-2.2377328872680664,"150":-0.4071103036403656,"151":-1.4124386310577393,"152":-0.793012797832489,"153":-1.3944828510284424,"154":-0.38096123933792114,"155":-1.8609555959701538,"156":-3.167945623397827,"157":-1.940913200378418,"158":-0.4447305500507355,"159":-1.5522382259368896,"160":-3.9676756858825684,"161":-10.855417251586914,"162":1.1079012155532837,"163":0.9528727531433105,"164":0.6185895800590515,"165":0.8439910411834717,"166":0.4803996682167053,"167":-0.0006031307275407016,"168":3.4305636882781982,"169":0.38048216700553894,"170":-2.1693711280822754,"171":1.2651647329330444,"172":0.5792024731636047,"173":2.35996675491333,"174":-9.001143455505371,"175":-1.568084955215454,"176":-1.6981818675994873,"177":0.4098976254463196,"178":-4.006457328796387,"179":-4.053936958312988,"180":2.4210808277130127,"181":-1.4364228248596191,"182":1.0535470247268677,"183":5.430522918701172,"184":-1.2451674938201904,"185":-0.5926982760429382,"186":-1.2888704538345337,"187":2.333099842071533,"188":-0.04431238770484924,"189":-0.20276010036468506,"190":-0.5709737539291382,"191":4.716372966766357,"192":1.8008794784545898,"193":-4.31910514831543,"194":0.2286730855703354,"195":0.9974868893623352,"196":2.984170436859131,"197":-2.8458774089813232,"198":-0.9178971648216248,"199":3.7673981189727783,"200":4.233376979827881,"201":-0.012251552194356918,"202":-0.16965603828430176,"203":-1.2703702449798584,"204":3.310835838317871,"205":-1.3194178342819214,"206":-2.8723251819610596,"207":0.5199793577194214,"208":-0.5818113088607788,"209":2.280809164047241,"210":1.0348875522613525,"211":-2.1277031898498535,"212":2.5228381156921387,"213":-1.2205381393432617,"214":-0.9052271842956543,"215":1.4669649600982666,"216":-3.2678496837615967,"217":-2.109614849090576,"218":-1.5130219459533691,"219":2.835066080093384,"220":1.5179994106292725,"221":-1.8538153171539307,"222":-0.3333839774131775,"223":-2.8587071895599365,"224":-3.1519908905029297,"225":1.5169340372085571,"226":-2.30081844329834,"227":0.24058328568935394,"228":-2.393277645111084,"229":1.5870262384414673,"230":-7.016573429107666,"231":6.068066596984863,"232":5.644887924194336,"233":1.2147020101547241,"234":-3.686333417892456,"235":0.9024810194969177,"236":2.8283822536468506,"237":-2.8762929439544678,"238":-4.19840669631958,"239":-0.10090870410203934,"240":2.1766881942749023,"241":-0.3225398361682892,"242":0.7646930813789368,"243":-3.1130669116973877,"244":1.8998864889144897,"245":-0.4542083144187927,"246":-1.7814725637435913,"247":0.8399937748908997,"248":-1.9389464855194092,"249":-1.693277359008789,"250":-0.43685299158096313,"251":-0.9277176856994629,"252":-2.921633005142212,"253":-0.4723036289215088,"254":1.5399631261825562,"255":0.7966180443763733,"256":2.033142566680908,"257":1.2524504661560059,"258":1.06487238407135,"259":3.4707155227661133,"260":-1.301364779472351,"261":-1.2617175579071045,"262":-0.37956297397613525,"263":0.4390627145767212,"264":-1.4967930316925049,"265":-0.39916372299194336,"266":0.936552882194519,"267":1.5569320917129517,"268":-1.067999243736267,"269":1.8647282123565674,"270":-4.832013130187988,"271":0.386656790971756,"272":-1.307824730873108,"273":5.55970573425293,"274":-0.522111177444458,"275":-1.4534094333648682,"276":-2.2022902965545654,"277":0.31872498989105225,"278":2.605051279067993,"279":1.946676254272461,"280":2.2944531440734863,"281":-2.5512261390686035,"282":0.4445922076702118,"283":-0.7554155588150024,"284":0.8327958583831787,"285":1.0490370988845825,"286":-0.34788528084754944,"287":0.2709677815437317,"288":0.6927655935287476,"289":1.0847446918487549,"290":-0.3936186730861664,"291":-0.4458245635032654,"292":0.007528227288275957,"293":-0.4281003475189209,"294":0.10632603615522385,"295":0.17185518145561218,"296":-0.41005563735961914,"297":-0.47785598039627075,"298":1.9821745157241821,"299":1.5233896970748901,"300":1.3325413465499878,"301":2.8410263061523438,"302":0.7288153767585754,"303":-3.9675328731536865,"304":-0.5792525410652161,"305":-3.036196708679199,"306":-1.8356750011444092,"307":-1.3167349100112915,"308":-1.2020469903945923,"309":-1.7465978860855103,"310":-0.4368118941783905,"311":-0.3364051580429077,"312":-5.98789119720459,"313":-2.486056327819824,"314":-0.02097095549106598,"315":2.4582972526550293,"316":-1.341016173362732,"317":2.163916826248169,"318":3.8612420558929443,"319":1.3479983806610107,"320":0.42463210225105286,"321":-3.258995294570923,"322":-6.211356163024902,"323":-1.7949250936508179,"324":1.6489046812057495,"325":-3.8145570755004883,"326":-1.9220311641693115,"327":0.26961031556129456,"328":-0.17058995366096497,"329":1.9597811698913574,"330":0.3529614806175232,"331":-2.2989532947540283,"332":-4.989523887634277,"333":-0.283702552318573,"334":-2.5612728595733643,"335":0.5019835829734802,"336":-1.5159885883331299,"337":0.6388915777206421,"338":-3.202181100845337,"339":2.064382553100586,"340":1.2534739971160889,"341":0.2951858937740326,"342":-1.5377041101455688,"343":-2.083343267440796,"344":-0.6079076528549194,"345":-0.8589696884155273,"346":1.2725354433059692,"347":2.198946952819824,"348":-1.6206921339035034,"349":-0.011956405825912952,"350":-1.46575129032135,"351":-0.41050004959106445,"352":1.667466640472412,"353":1.0583395957946777,"354":0.5824978947639465,"355":0.09092029184103012,"356":-2.8341472148895264,"357":2.0349066257476807,"358":1.290153980255127,"359":0.03690582141280174,"360":-1.7049362659454346,"361":-1.464766502380371,"362":-2.547987699508667,"363":3.213125467300415,"364":-1.8134013414382935,"365":-0.9651609063148499,"366":0.08724372833967209,"367":1.1846169233322144,"368":0.8675556778907776,"369":1.42295241355896,"370":0.02921433188021183,"371":2.9822607040405273,"372":0.8398280739784241,"373":2.833266019821167,"374":0.43152114748954773,"375":0.77512127161026,"376":-1.4308308362960815,"377":-1.7681125402450562,"378":-0.13165397942066193,"379":-1.2546806335449219,"380":-2.2880053520202637,"381":2.9023656845092773,"382":0.456267386674881,"383":1.0173759460449219,"384":-0.06302738934755325,"385":0.9052115678787231,"386":0.08973608165979385,"387":0.3320232629776001,"388":-4.653527736663818,"389":-0.8506273031234741,"390":0.01751425489783287,"391":-0.7110728621482849,"392":2.2173125743865967,"393":1.0215790271759033,"394":2.284101963043213,"395":1.9361850023269653,"396":1.2460709810256958,"397":0.5314311385154724,"398":-0.9411779642105103,"399":-1.7957594394683838}},"inputBias":{"rows":20,"columns":1,"weights":{"0":-0.19548209011554718,"1":-0.7655147314071655,"2":-0.7914464473724365,"3":-1.2313063144683838,"4":-0.5776325464248657,"5":-3.3185606002807617,"6":0.4899309277534485,"7":-0.8615319132804871,"8":-0.513379693031311,"9":-0.3057795763015747,"10":-1.2463387250900269,"11":-0.17241953313350677,"12":-2.0285584926605225,"13":-1.0505454540252686,"14":-0.3353605568408966,"15":-0.7905619740486145,"16":-0.7722874879837036,"17":-0.4816981852054596,"18":-0.58293616771698,"19":-0.6685940027236938}},"forgetMatrix":{"rows":20,"columns":33,"weights":{"0":0.17667439579963684,"1":0.2281108945608139,"2":-0.029680460691452026,"3":0.5974181890487671,"4":1.1255862712860107,"5":3.1104342937469482,"6":0.8223308324813843,"7":-0.7583413124084473,"8":0.36574098467826843,"9":1.4547295570373535,"10":-0.49440357089042664,"11":-0.8010423183441162,"12":-1.9485141038894653,"13":1.0150833129882812,"14":-0.26240089535713196,"15":0.09141604602336884,"16":-0.8665149807929993,"17":-0.3865297734737396,"18":0.3261321783065796,"19":-0.5175202488899231,"20":-0.6356950998306274,"21":0.5730687379837036,"22":-0.27121514081954956,"23":0.078172467648983,"24":-1.659895896911621,"25":0.022859470918774605,"26":0.27267488837242126,"27":0.43094563484191895,"28":-2.3002989292144775,"29":-0.6848848462104797,"30":0.9119769334793091,"31":-0.29481568932533264,"32":-0.21961070597171783,"33":-0.33973777294158936,"34":-0.574221670627594,"35":0.24744048714637756,"36":0.7321524024009705,"37":0.024197008460760117,"38":0.7273999452590942,"39":-0.26896801590919495,"40":-0.6082651615142822,"41":-1.4524823427200317,"42":0.24175716936588287,"43":1.0813266038894653,"44":-0.9761437773704529,"45":0.9908084869384766,"46":-0.18723903596401215,"47":-0.1693810671567917,"48":-1.04831862449646,"49":-3.235809564590454,"50":-1.3804819583892822,"51":0.045487985014915466,"52":-0.174245685338974,"53":1.1380633115768433,"54":-1.5303665399551392,"55":-1.6719976663589478,"56":1.0137301683425903,"57":1.3146194219589233,"58":-0.7234758138656616,"59":-0.055296074599027634,"60":-0.345572829246521,"61":0.05689563229680061,"62":0.48053187131881714,"63":-0.40717437863349915,"64":1.8842605352401733,"65":1.3877142667770386,"66":1.0316094160079956,"67":-0.29268747568130493,"68":-0.7177914977073669,"69":-2.6039576530456543,"70":0.33161312341690063,"71":-0.24557946622371674,"72":0.3845473527908325,"73":-0.2521933317184448,"74":-3.5192975997924805,"75":-0.6166976094245911,"76":-0.42260169982910156,"77":-1.2161871194839478,"78":-0.8568200469017029,"79":0.6211986541748047,"80":-0.749749481678009,"81":0.17472317814826965,"82":-0.1366618126630783,"83":-0.4877978265285492,"84":-1.0324089527130127,"85":0.8734747171401978,"86":0.9181042313575745,"87":0.2605747878551483,"88":-1.0959891080856323,"89":0.973685085773468,"90":2.222524404525757,"91":-1.2224938869476318,"92":3.4365391731262207,"93":-2.432143449783325,"94":-0.018580205738544464,"95":0.7625535726547241,"96":-3.5430421829223633,"97":3.3072702884674072,"98":-2.5372817516326904,"99":0.21691352128982544,"100":-0.24589009582996368,"101":-0.9914065599441528,"102":2.134249210357666,"103":-0.6745717525482178,"104":-0.3859890401363373,"105":0.10150736570358276,"106":-1.0616856813430786,"107":0.7426207661628723,"108":0.5704331398010254,"109":0.3247256278991699,"110":0.004845048300921917,"111":-0.6820656061172485,"112":-1.2314279079437256,"113":-0.2611713409423828,"114":0.841520369052887,"115":-1.7344237565994263,"116":-0.28987279534339905,"117":-0.335916668176651,"118":-0.448955774307251,"119":-0.6026296615600586,"120":-0.46189138293266296,"121":-0.6309551000595093,"122":2.0154616832733154,"123":-1.2680035829544067,"124":-1.0520496368408203,"125":1.0270628929138184,"126":1.7877545356750488,"127":-0.5702629685401917,"128":0.5390989184379578,"129":0.5737276673316956,"130":0.5143898129463196,"131":1.1888190507888794,"132":0.7349420785903931,"133":-0.20072756707668304,"134":0.11126366257667542,"135":-0.42202937602996826,"136":-0.5641233921051025,"137":0.24470186233520508,"138":-0.4285484552383423,"139":-0.32050076127052307,"140":-1.6064406633377075,"141":-1.7808665037155151,"142":0.45428746938705444,"143":-0.5197423100471497,"144":0.6126720905303955,"145":-0.2436433583498001,"146":1.5186282396316528,"147":-0.7586304545402527,"148":-1.4826728105545044,"149":-0.2788224518299103,"150":0.10510622709989548,"151":1.7608642578125,"152":0.7794537544250488,"153":-0.7513124942779541,"154":-0.3112551271915436,"155":0.735334575176239,"156":3.1541106700897217,"157":-0.3360916078090668,"158":-0.01627650111913681,"159":1.33003568649292,"160":0.08855857700109482,"161":-0.46209821105003357,"162":-0.25576692819595337,"163":2.098149061203003,"164":0.47152191400527954,"165":0.5191662907600403,"166":1.4792684316635132,"167":-0.8080219626426697,"168":0.8787918090820312,"169":1.4390869140625,"170":0.18840037286281586,"171":0.9908132553100586,"172":-1.1404414176940918,"173":0.6893571615219116,"174":3.3085644245147705,"175":-2.944751262664795,"176":-0.18003790080547333,"177":-0.17173269391059875,"178":1.4981424808502197,"179":2.1508877277374268,"180":1.8929333686828613,"181":-0.6455522775650024,"182":-0.4905846416950226,"183":0.8690044283866882,"184":2.8939249515533447,"185":-0.34087491035461426,"186":-0.8837334513664246,"187":0.2685477137565613,"188":0.10301872342824936,"189":-1.0437893867492676,"190":-0.9561333060264587,"191":-0.41862404346466064,"192":1.3827112913131714,"193":-2.1127021312713623,"194":-0.5076974034309387,"195":1.357981562614441,"196":0.6292625069618225,"197":-0.07809725403785706,"198":-1.1761865615844727,"199":-1.084206461906433,"200":-0.2492988109588623,"201":0.3780580461025238,"202":-1.8529431819915771,"203":0.2977355718612671,"204":-2.73593807220459,"205":1.5957345962524414,"206":0.8883056044578552,"207":-0.8745614886283875,"208":4.10899543762207,"209":-1.2445943355560303,"210":1.4170722961425781,"211":-1.1334078311920166,"212":-0.21700820326805115,"213":-0.41557562351226807,"214":-0.8599303364753723,"215":0.17039577662944794,"216":0.3857654333114624,"217":-0.7392882704734802,"218":-0.2591211199760437,"219":-0.8255575895309448,"220":0.7627453207969666,"221":0.7584234476089478,"222":0.670417308807373,"223":-0.3451369106769562,"224":1.1095359325408936,"225":0.4086042046546936,"226":1.8470743894577026,"227":0.4008374512195587,"228":-0.058113861829042435,"229":-0.4716602861881256,"230":0.0214740838855505,"231":-0.3407862186431885,"232":0.1492576003074646,"233":-5.085285186767578,"234":1.9340330362319946,"235":-0.1448436677455902,"236":-0.9145811200141907,"237":0.3092675805091858,"238":0.8167950510978699,"239":1.0418397188186646,"240":0.655409574508667,"241":0.4406653642654419,"242":-0.9081470370292664,"243":-0.34857773780822754,"244":-0.7187793850898743,"245":-2.9633121490478516,"246":-1.783232569694519,"247":-2.3461313247680664,"248":0.6549264788627625,"249":-2.9616994857788086,"250":-2.2039601802825928,"251":-2.9741461277008057,"252":-2.659940004348755,"253":-2.117936372756958,"254":0.6728394627571106,"255":0.15583020448684692,"256":0.6705504655838013,"257":1.5388433933258057,"258":0.8433531522750854,"259":-0.42888498306274414,"260":4.737272262573242,"261":-2.3635170459747314,"262":0.22164200246334076,"263":-1.1568264961242676,"264":0.40346336364746094,"265":-1.1889238357543945,"266":1.8739144802093506,"267":2.5803608894348145,"268":-0.5672929883003235,"269":1.2647038698196411,"270":1.047094464302063,"271":0.6535963416099548,"272":0.4961826503276825,"273":0.8039961457252502,"274":1.2956583499908447,"275":1.326261043548584,"276":-0.37552881240844727,"277":-1.7416013479232788,"278":1.8567922115325928,"279":0.2529835104942322,"280":-0.17005564272403717,"281":-0.3672630488872528,"282":0.7656059861183167,"283":1.0108333826065063,"284":1.6741528511047363,"285":1.9155858755111694,"286":1.2308229207992554,"287":0.7420312166213989,"288":0.12652292847633362,"289":1.531211495399475,"290":0.07855977863073349,"291":0.5058038830757141,"292":0.6529236435890198,"293":-3.2227518558502197,"294":-0.5829243659973145,"295":-1.8470892906188965,"296":1.3433234691619873,"297":2.8170645236968994,"298":1.4916355609893799,"299":-1.7034860849380493,"300":-1.377084493637085,"301":2.3748817443847656,"302":-0.7665567994117737,"303":1.6562081575393677,"304":-1.0176845788955688,"305":0.28567054867744446,"306":1.0955158472061157,"307":-0.2206842005252838,"308":1.3499372005462646,"309":-1.4254504442214966,"310":2.0649423599243164,"311":-1.2645964622497559,"312":-0.3635268211364746,"313":0.07611872255802155,"314":1.4889658689498901,"315":-2.0969526767730713,"316":-0.7186602354049683,"317":-1.5186008214950562,"318":0.09673324972391129,"319":1.1132705211639404,"320":-0.04499448835849762,"321":-1.175700068473816,"322":0.8523380160331726,"323":-1.097668170928955,"324":0.7814765572547913,"325":-0.8302571773529053,"326":1.1041059494018555,"327":-0.18685826659202576,"328":-0.0951332375407219,"329":-2.0786898136138916,"330":0.8801081776618958,"331":0.9695088267326355,"332":-0.0006657924386672676,"333":1.406888484954834,"334":1.4480369091033936,"335":3.164677858352661,"336":-0.13428683578968048,"337":-0.15928015112876892,"338":0.8580053448677063,"339":0.4176584780216217,"340":-1.0405445098876953,"341":0.11216773092746735,"342":-1.0050480365753174,"343":2.171025037765503,"344":2.2487881183624268,"345":0.512897789478302,"346":1.5184693336486816,"347":-1.8597103357315063,"348":1.5784811973571777,"349":3.3862242698669434,"350":0.6962229609489441,"351":1.759346604347229,"352":0.354105144739151,"353":-1.5165036916732788,"354":-1.5415129661560059,"355":0.5418071150779724,"356":1.333143949508667,"357":0.3738400638103485,"358":-1.5159425735473633,"359":-0.05102963745594025,"360":0.41856682300567627,"361":0.7226784229278564,"362":1.2544931173324585,"363":0.5667391419410706,"364":0.03465989977121353,"365":-1.0375912189483643,"366":-2.6785802841186523,"367":0.5429602265357971,"368":-0.28362131118774414,"369":1.9726824760437012,"370":-2.1932201385498047,"371":0.35163024067878723,"372":1.5592379570007324,"373":0.6930757164955139,"374":-0.586529552936554,"375":-0.415385901927948,"376":2.150702476501465,"377":-0.02890181727707386,"378":2.777527332305908,"379":-1.004259705543518,"380":0.7414094805717468,"381":-2.049241781234741,"382":-0.027486221864819527,"383":0.42926663160324097,"384":-1.3523253202438354,"385":2.70202898979187,"386":-0.06816539168357849,"387":0.8731046915054321,"388":-1.4702503681182861,"389":0.32928818464279175,"390":2.2353768348693848,"391":-0.2750180959701538,"392":-1.2101391553878784,"393":1.538034200668335,"394":1.2083269357681274,"395":-2.4658167362213135,"396":-0.8059682250022888,"397":0.07766889780759811,"398":-0.19853447377681732,"399":0.6153147220611572,"400":-0.45778608322143555,"401":-0.0038610489573329687,"402":0.5766282081604004,"403":0.6123265027999878,"404":0.0382329486310482,"405":-0.14479076862335205,"406":-0.907340943813324,"407":2.1526432037353516,"408":0.6017212271690369,"409":-2.0371663570404053,"410":0.822090744972229,"411":-1.2668297290802002,"412":-0.6480178833007812,"413":0.6696966886520386,"414":-0.7679194808006287,"415":0.2879330515861511,"416":-0.24074755609035492,"417":0.5306789875030518,"418":1.3255970478057861,"419":2.7662384510040283,"420":2.195158004760742,"421":0.9551880955696106,"422":-0.8422659039497375,"423":-0.5750484466552734,"424":1.5653871297836304,"425":0.3911347985267639,"426":-1.8570287227630615,"427":2.101386785507202,"428":-0.8772859573364258,"429":-0.6917310953140259,"430":0.011419941671192646,"431":0.5144898295402527,"432":-0.8135426640510559,"433":-1.373401403427124,"434":0.8210293054580688,"435":-1.141640543937683,"436":0.26720544695854187,"437":0.16585664451122284,"438":-0.9907771348953247,"439":-0.5219560861587524,"440":-0.2921062707901001,"441":0.8312011957168579,"442":0.8069415092468262,"443":0.7676181197166443,"444":0.6576862931251526,"445":1.0597631931304932,"446":-0.5370479822158813,"447":0.917739748954773,"448":-0.20027334988117218,"449":0.3548336923122406,"450":0.024958694353699684,"451":0.5438230633735657,"452":-1.152611255645752,"453":-1.525071620941162,"454":-0.6695406436920166,"455":-0.1287141740322113,"456":-0.419624388217926,"457":0.6604258418083191,"458":-0.9551183581352234,"459":0.7617131471633911,"460":-1.438058853149414,"461":1.8083664178848267,"462":1.4422481060028076,"463":-1.8264353275299072,"464":-0.9092527627944946,"465":-2.3701603412628174,"466":-1.1645976305007935,"467":-0.4866272807121277,"468":0.6000480651855469,"469":-1.2876464128494263,"470":-1.286693811416626,"471":-0.2619405686855316,"472":-1.096853494644165,"473":2.116142511367798,"474":0.725979745388031,"475":-0.8238852024078369,"476":-0.24685578048229218,"477":0.2676219344139099,"478":-0.09889581054449081,"479":0.7823494076728821,"480":-0.494194895029068,"481":-1.4338079690933228,"482":-1.13297700881958,"483":-0.39177942276000977,"484":-0.5910588502883911,"485":0.6765228509902954,"486":-0.08156874030828476,"487":-0.576286256313324,"488":-1.7127742767333984,"489":-0.27540114521980286,"490":0.7932554483413696,"491":-0.43480104207992554,"492":0.9507890939712524,"493":-0.5205119848251343,"494":-0.7211812734603882,"495":0.22100327908992767,"496":1.1149245500564575,"497":-1.1289923191070557,"498":0.0106251435354352,"499":0.6080455780029297,"500":0.662655234336853,"501":0.6221176981925964,"502":-0.6488121151924133,"503":0.39108896255493164,"504":1.0565688610076904,"505":-2.1247715950012207,"506":0.4591589868068695,"507":0.09689883887767792,"508":1.2237651348114014,"509":-1.1099284887313843,"510":-0.8253599405288696,"511":0.8122449517250061,"512":-0.6424154043197632,"513":-0.2748952805995941,"514":-0.34607449173927307,"515":-2.2438480854034424,"516":-0.44375529885292053,"517":-0.5390732884407043,"518":-0.3112010359764099,"519":-1.341762900352478,"520":-0.5579063892364502,"521":-1.4836211204528809,"522":-0.3477835953235626,"523":0.46228694915771484,"524":1.1024131774902344,"525":1.1472995281219482,"526":-0.6746838688850403,"527":0.010589671321213245,"528":-0.7767345309257507,"529":0.04040425643324852,"530":-0.18962381780147552,"531":-0.9719260931015015,"532":0.44376546144485474,"533":-0.558502197265625,"534":-1.4540550708770752,"535":-2.2529921531677246,"536":0.6786371469497681,"537":2.441631317138672,"538":1.4386476278305054,"539":-1.119383692741394,"540":-1.1897995471954346,"541":1.0477489233016968,"542":-0.17060056328773499,"543":2.282482624053955,"544":-0.28347867727279663,"545":-0.2310161590576172,"546":-0.2053450345993042,"547":-0.4850306212902069,"548":-0.14864517748355865,"549":-0.4220351278781891,"550":0.4531775414943695,"551":0.8989320397377014,"552":-0.18636105954647064,"553":-0.31547173857688904,"554":1.4672125577926636,"555":0.9713312387466431,"556":-1.3603136539459229,"557":0.2731758952140808,"558":0.7962438464164734,"559":0.0742371529340744,"560":0.020857471972703934,"561":0.2082597315311432,"562":-0.35583755373954773,"563":0.09876959025859833,"564":1.8421846628189087,"565":-0.16471542418003082,"566":1.053209900856018,"567":-1.3238253593444824,"568":1.546982765197754,"569":3.110605239868164,"570":-1.4486839771270752,"571":1.4677027463912964,"572":1.7570202350616455,"573":1.2598835229873657,"574":-0.3912195861339569,"575":1.0466625690460205,"576":0.33075663447380066,"577":2.106806516647339,"578":0.354367196559906,"579":2.290566921234131,"580":1.4951008558273315,"581":1.2802907228469849,"582":-0.2511866092681885,"583":-0.25821179151535034,"584":1.4196608066558838,"585":-0.9166494011878967,"586":-0.9576360583305359,"587":-0.6206702589988708,"588":-0.39183884859085083,"589":-0.525219202041626,"590":-0.3212745487689972,"591":-1.5957043170928955,"592":-3.094787120819092,"593":1.9752566814422607,"594":-0.519096314907074,"595":0.44650399684906006,"596":2.620164632797241,"597":1.640655517578125,"598":0.00009423745359526947,"599":0.21616362035274506,"600":-0.15275683999061584,"601":-0.7730489373207092,"602":1.0434671640396118,"603":0.5060712695121765,"604":-1.3298174142837524,"605":0.8688075542449951,"606":-0.30131053924560547,"607":-0.20106510818004608,"608":0.6130791902542114,"609":2.2901127338409424,"610":1.289249062538147,"611":0.1806003600358963,"612":2.375347137451172,"613":0.6215472221374512,"614":2.834331750869751,"615":0.8471463322639465,"616":0.3718712031841278,"617":0.9986975789070129,"618":-1.0627398490905762,"619":0.35781461000442505,"620":-1.1568882465362549,"621":-0.04228203743696213,"622":-0.7648980617523193,"623":-2.2686831951141357,"624":2.078029155731201,"625":-1.0660938024520874,"626":2.9586265087127686,"627":-0.8704468011856079,"628":0.8341705203056335,"629":-0.4820832312107086,"630":2.278704881668091,"631":0.39649641513824463,"632":0.9518334269523621,"633":-1.3383361101150513,"634":-0.1996709555387497,"635":1.6000269651412964,"636":0.7597236037254333,"637":1.9752987623214722,"638":0.3644590377807617,"639":-1.1698509454727173,"640":0.9500539302825928,"641":0.6052613854408264,"642":-1.076776385307312,"643":-0.7480401396751404,"644":1.1983816623687744,"645":-0.13354848325252533,"646":1.3375073671340942,"647":-0.4365968704223633,"648":1.0489190816879272,"649":1.8007137775421143,"650":-1.9259312152862549,"651":1.664042353630066,"652":-0.39365431666374207,"653":0.21479403972625732,"654":3.1584620475769043,"655":0.024119963869452477,"656":0.4138994812965393,"657":0.46240895986557007,"658":-0.890235960483551,"659":0.8292620182037354}},"forgetHidden":{"rows":20,"columns":20,"weights":{"0":-1.5491009950637817,"1":-1.0588833093643188,"2":-2.494680643081665,"3":0.2408791184425354,"4":3.2070329189300537,"5":-3.578263521194458,"6":-0.5794228315353394,"7":0.17588210105895996,"8":-1.0928338766098022,"9":0.32854387164115906,"10":-2.442031145095825,"11":-0.26776862144470215,"12":-1.4592156410217285,"13":0.18268360197544098,"14":-2.632413387298584,"15":1.0018486976623535,"16":0.27126139402389526,"17":-0.22010885179042816,"18":-2.0115973949432373,"19":-2.062715530395508,"20":0.9679052233695984,"21":1.8918511867523193,"22":-0.01784871704876423,"23":-0.6685975790023804,"24":0.3868868052959442,"25":1.2099536657333374,"26":-0.9664933681488037,"27":-0.4308578670024872,"28":0.5132683515548706,"29":0.10917795449495316,"30":1.8059197664260864,"31":-0.32585811614990234,"32":1.9315288066864014,"33":-0.06242622807621956,"34":0.09101379662752151,"35":0.40938177704811096,"36":0.3384583294391632,"37":0.3280816972255707,"38":0.21912801265716553,"39":0.5921909213066101,"40":0.7541228532791138,"41":2.1984031200408936,"42":0.19137310981750488,"43":-1.3653994798660278,"44":-4.051883697509766,"45":0.490681529045105,"46":1.4012229442596436,"47":-0.820830762386322,"48":-3.8196797370910645,"49":3.20986008644104,"50":-0.7082126140594482,"51":-3.225084066390991,"52":-0.6150319576263428,"53":1.0025534629821777,"54":2.4929497241973877,"55":4.827657222747803,"56":-2.7227251529693604,"57":-1.7398854494094849,"58":1.3555887937545776,"59":-1.3754714727401733,"60":1.0204755067825317,"61":3.0546884536743164,"62":-0.22134461998939514,"63":-3.0030999183654785,"64":-1.8854509592056274,"65":-1.3808132410049438,"66":1.8614375591278076,"67":-1.8258187770843506,"68":-2.8832714557647705,"69":-2.5411875247955322,"70":1.7792644500732422,"71":-2.605717182159424,"72":-0.7971646785736084,"73":0.09434650838375092,"74":3.701812505722046,"75":2.304621696472168,"76":-2.365307569503784,"77":2.249241590499878,"78":3.017500400543213,"79":-0.3354003429412842,"80":0.13475045561790466,"81":-0.8306228518486023,"82":1.9967974424362183,"83":1.0293638706207275,"84":3.3911375999450684,"85":-0.17763599753379822,"86":2.2834086418151855,"87":3.633221387863159,"88":-1.5178265571594238,"89":-6.499375820159912,"90":0.8066183924674988,"91":-1.7885185480117798,"92":-1.7139554023742676,"93":0.5412883162498474,"94":-0.7217450737953186,"95":-4.208896636962891,"96":3.253624677658081,"97":0.3036799430847168,"98":-3.3849191665649414,"99":1.5752673149108887,"100":-0.6717970371246338,"101":-3.9250192642211914,"102":-1.4502465724945068,"103":-3.82474684715271,"104":-0.3961857557296753,"105":-0.2356918454170227,"106":2.4772660732269287,"107":2.4471585750579834,"108":-0.2730156183242798,"109":8.90422248840332,"110":-1.5464133024215698,"111":-2.837684392929077,"112":2.674590826034546,"113":0.9676844477653503,"114":3.1909403800964355,"115":5.014370918273926,"116":6.103943824768066,"117":0.5293508172035217,"118":5.5436110496521,"119":4.507566928863525,"120":-0.031195178627967834,"121":0.7686516642570496,"122":-0.5306050777435303,"123":-1.7490659952163696,"124":-2.0904159545898438,"125":-1.118205189704895,"126":1.107914686203003,"127":1.619695782661438,"128":0.17604772746562958,"129":-1.8748979568481445,"130":-1.2517211437225342,"131":-0.4251753091812134,"132":1.1414637565612793,"133":0.06254861503839493,"134":-0.5437976121902466,"135":0.2582760751247406,"136":0.03964955359697342,"137":2.528416872024536,"138":1.2648272514343262,"139":-0.47462937235832214,"140":1.526073932647705,"141":0.20672421157360077,"142":1.5058584213256836,"143":-1.491513729095459,"144":0.009317307732999325,"145":1.1881077289581299,"146":-0.17761638760566711,"147":-2.060905694961548,"148":0.11581433564424515,"149":0.9123681783676147,"150":1.16351318359375,"151":-0.13435737788677216,"152":-1.9716737270355225,"153":-1.0649455785751343,"154":-0.42447763681411743,"155":1.2567769289016724,"156":-1.9092305898666382,"157":3.456768035888672,"158":1.62843918800354,"159":1.3846038579940796,"160":0.5741016864776611,"161":-1.3365230560302734,"162":-2.29774808883667,"163":0.2073388695716858,"164":-0.0948040708899498,"165":-0.6985151171684265,"166":0.3886857032775879,"167":2.9721384048461914,"168":0.0451943501830101,"169":-0.8000243306159973,"170":-0.8396292924880981,"171":0.6353251934051514,"172":-4.00643253326416,"173":-0.8163563013076782,"174":-1.469664454460144,"175":0.9590911865234375,"176":0.30154556035995483,"177":0.43946704268455505,"178":-1.9652953147888184,"179":0.05394529551267624,"180":0.09957166761159897,"181":-0.22759734094142914,"182":0.4276958107948303,"183":0.1690540909767151,"184":-1.5510776042938232,"185":1.0780107975006104,"186":0.5880947113037109,"187":0.977347731590271,"188":-0.16360555589199066,"189":0.6851569414138794,"190":0.3872269093990326,"191":-0.7955108880996704,"192":0.46405357122421265,"193":0.03192155808210373,"194":0.13931678235530853,"195":-0.8894835710525513,"196":-0.6254379749298096,"197":0.9606791734695435,"198":0.6399771571159363,"199":0.2651800215244293,"200":-0.4730432629585266,"201":-0.7619360685348511,"202":0.848990797996521,"203":0.43511760234832764,"204":0.5092962384223938,"205":1.3673802614212036,"206":-0.24814632534980774,"207":-2.486558437347412,"208":-1.7416307926177979,"209":-1.1057418584823608,"210":1.344137191772461,"211":0.49937450885772705,"212":-0.5016211271286011,"213":-0.7479135394096375,"214":0.32955318689346313,"215":2.3756420612335205,"216":0.15458650887012482,"217":1.1395490169525146,"218":-2.906200647354126,"219":-4.438837051391602,"220":0.7665602564811707,"221":-0.40055909752845764,"222":1.040554404258728,"223":0.7857339382171631,"224":-0.16427737474441528,"225":-0.1772935688495636,"226":0.5018557906150818,"227":-1.0300374031066895,"228":0.07129483669996262,"229":3.365765333175659,"230":0.15842820703983307,"231":1.1273655891418457,"232":-1.168701410293579,"233":0.22444812953472137,"234":-0.3371832072734833,"235":1.064258098602295,"236":1.1932134628295898,"237":1.5737850666046143,"238":0.08603615313768387,"239":-0.7764012813568115,"240":-1.1796393394470215,"241":5.083604335784912,"242":-0.3398818373680115,"243":-2.356659412384033,"244":-2.6655936241149902,"245":3.9302444458007812,"246":0.2745550870895386,"247":-1.6581453084945679,"248":-0.47274938225746155,"249":2.808283805847168,"250":4.995141983032227,"251":0.3964380919933319,"252":3.7208046913146973,"253":-3.7387807369232178,"254":2.669724225997925,"255":3.144375801086426,"256":-1.8019731044769287,"257":2.3518669605255127,"258":0.635250985622406,"259":-0.045491889119148254,"260":0.5184110403060913,"261":0.5281357169151306,"262":-1.5153822898864746,"263":-0.5153605341911316,"264":-0.2714749872684479,"265":-1.5940924882888794,"266":-0.07182762771844864,"267":0.574191153049469,"268":-1.0326346158981323,"269":1.3070045709609985,"270":-1.1363929510116577,"271":-0.559198260307312,"272":-0.39242133498191833,"273":0.4375666081905365,"274":-0.4988514482975006,"275":0.3504151999950409,"276":-1.1371203660964966,"277":0.3661825954914093,"278":1.0997133255004883,"279":-0.6689563989639282,"280":1.9084590673446655,"281":-3.479879140853882,"282":1.7963783740997314,"283":-1.802712082862854,"284":-1.240851640701294,"285":0.3369012773036957,"286":-0.17716924846172333,"287":3.1696109771728516,"288":2.5549521446228027,"289":-1.530874490737915,"290":-0.11635137349367142,"291":-1.21015202999115,"292":3.1830692291259766,"293":-1.2190134525299072,"294":0.22397221624851227,"295":-1.3951054811477661,"296":-10.40821647644043,"297":-2.9299967288970947,"298":1.431196689605713,"299":5.191440582275391,"300":1.3226736783981323,"301":1.5522713661193848,"302":0.6082462072372437,"303":-1.7317124605178833,"304":-2.125066041946411,"305":0.08836159855127335,"306":-0.4877483546733856,"307":-0.8938389420509338,"308":-1.1653178930282593,"309":-0.45386967062950134,"310":2.390981912612915,"311":-0.1544158011674881,"312":0.2860260307788849,"313":-1.1095542907714844,"314":0.49197015166282654,"315":1.8420517444610596,"316":-0.46211427450180054,"317":1.7667834758758545,"318":0.10436950623989105,"319":0.8691954016685486,"320":0.2479020357131958,"321":-1.0831557512283325,"322":-0.5391306281089783,"323":1.8731354475021362,"324":-2.054129123687744,"325":-1.6742140054702759,"326":4.0172224044799805,"327":3.2649025917053223,"328":2.4262330532073975,"329":-2.9581239223480225,"330":-2.640183210372925,"331":1.8380000591278076,"332":-1.2356677055358887,"333":0.39547938108444214,"334":-0.7321771383285522,"335":0.8874102234840393,"336":1.4488250017166138,"337":0.2444024533033371,"338":0.8955422043800354,"339":-0.7372317314147949,"340":-1.0329153537750244,"341":1.312261700630188,"342":-0.7329387068748474,"343":-4.363507270812988,"344":-0.3515782058238983,"345":-1.6658538579940796,"346":-1.4183459281921387,"347":0.19161224365234375,"348":-2.588517665863037,"349":0.9393973350524902,"350":0.9879515171051025,"351":-3.7821595668792725,"352":-0.30504095554351807,"353":-0.6538905501365662,"354":1.0401151180267334,"355":-0.6907018423080444,"356":-1.1075472831726074,"357":-1.3176026344299316,"358":0.8625523447990417,"359":1.902098298072815,"360":-2.3193836212158203,"361":-1.2313772439956665,"362":-2.1037521362304688,"363":2.0961482524871826,"364":-0.4837869703769684,"365":2.2184977531433105,"366":-1.3095647096633911,"367":1.3472834825515747,"368":0.5802673101425171,"369":1.0188534259796143,"370":-1.2967960834503174,"371":2.4260294437408447,"372":1.641081690788269,"373":2.076514720916748,"374":-0.7787957191467285,"375":-0.9524846076965332,"376":-2.319788932800293,"377":-1.0221455097198486,"378":-1.6253349781036377,"379":-2.5461230278015137,"380":4.1637067794799805,"381":4.237667083740234,"382":1.6619457006454468,"383":-2.7494266033172607,"384":-1.9126840829849243,"385":1.017037272453308,"386":-0.29769033193588257,"387":1.7045782804489136,"388":-1.3896771669387817,"389":-2.694305658340454,"390":1.9156312942504883,"391":0.28442689776420593,"392":2.9662294387817383,"393":-2.932620048522949,"394":2.2867555618286133,"395":1.4575356245040894,"396":3.636385202407837,"397":-0.0365409217774868,"398":3.639590263366699,"399":3.87812876701355}},"forgetBias":{"rows":20,"columns":1,"weights":{"0":0,"1":0,"2":0,"3":0,"4":0,"5":0,"6":0,"7":0,"8":0,"9":0,"10":0,"11":0,"12":0,"13":0,"14":0,"15":0,"16":0,"17":0,"18":0,"19":0}},"outputMatrix":{"rows":20,"columns":33,"weights":{"0":-0.26869267225265503,"1":-0.4187319576740265,"2":0.47445055842399597,"3":-0.8041502237319946,"4":-0.6813269257545471,"5":0.13589966297149658,"6":-0.10379345715045929,"7":0.15432684123516083,"8":-0.4126402735710144,"9":-0.7673767805099487,"10":0.27184849977493286,"11":-0.2694513201713562,"12":-0.0033936072140932083,"13":0.08545537292957306,"14":0.45249250531196594,"15":0.1971951276063919,"16":0.5630439519882202,"17":-0.6911942362785339,"18":0.33475446701049805,"19":0.4345857501029968,"20":0.49220889806747437,"21":-0.32569268345832825,"22":-0.975472092628479,"23":0.15608400106430054,"24":0.40359315276145935,"25":-0.38932594656944275,"26":0.5352392196655273,"27":0.05574796348810196,"28":-0.08031455427408218,"29":-0.1409674882888794,"30":-0.7350473999977112,"31":0.12949293851852417,"32":-0.4160933196544647,"33":-1.0012985467910767,"34":-3.281014919281006,"35":-0.47394540905952454,"36":-0.4658236801624298,"37":-1.392151951789856,"38":-1.747802972793579,"39":-1.984896183013916,"40":0.517910361289978,"41":-2.5273921489715576,"42":-0.7229025959968567,"43":0.5604135394096375,"44":-1.115335464477539,"45":2.185598611831665,"46":-1.9163777828216553,"47":-0.14814072847366333,"48":0.3842303454875946,"49":-0.883851945400238,"50":1.595560908317566,"51":0.19155561923980713,"52":-2.0537543296813965,"53":0.4770641624927521,"54":0.40584978461265564,"55":-3.9768497943878174,"56":1.2945632934570312,"57":2.0202512741088867,"58":0.025095995515584946,"59":1.4477734565734863,"60":-2.5375072956085205,"61":-0.8593706488609314,"62":-0.041415128856897354,"63":-0.7320048213005066,"64":0.013778822496533394,"65":-0.2692476212978363,"66":1.8187907934188843,"67":1.1719964742660522,"68":-1.6108511686325073,"69":-1.473787546157837,"70":2.257045030593872,"71":-0.06195239722728729,"72":1.5661530494689941,"73":-0.05982624739408493,"74":0.9607546925544739,"75":-0.14893202483654022,"76":-1.391568660736084,"77":2.599071502685547,"78":1.1563481092453003,"79":-1.2933145761489868,"80":0.2006172090768814,"81":-2.019059896469116,"82":1.0804067850112915,"83":0.9232578277587891,"84":-1.7385644912719727,"85":-0.24376463890075684,"86":-1.8038790225982666,"87":-1.8282636404037476,"88":-0.7994347214698792,"89":-0.10853682458400726,"90":-0.3299961984157562,"91":-1.1637088060379028,"92":-2.1973507404327393,"93":-0.1068858876824379,"94":1.6915746927261353,"95":0.5329499840736389,"96":-0.41674625873565674,"97":-0.9819197058677673,"98":-1.8508620262145996,"99":0.4443196952342987,"100":-0.8623261451721191,"101":-1.3983917236328125,"102":0.6180359721183777,"103":-0.7291978597640991,"104":0.35133475065231323,"105":-1.573911190032959,"106":0.16949473321437836,"107":0.008807959035038948,"108":-0.6468313932418823,"109":1.0835434198379517,"110":0.25009164214134216,"111":-1.0780880451202393,"112":1.065444827079773,"113":-3.0666356086730957,"114":-1.0396230220794678,"115":0.1353043168783188,"116":0.40810784697532654,"117":-1.8617912530899048,"118":-1.9990088939666748,"119":-2.2673592567443848,"120":-0.5256662964820862,"121":-1.0979171991348267,"122":-1.0609179735183716,"123":-0.32738009095191956,"124":1.1549570560455322,"125":0.8709028959274292,"126":-0.056984297931194305,"127":-0.18122515082359314,"128":2.1754684448242188,"129":-1.4926789999008179,"130":0.08530280739068985,"131":0.6686767339706421,"132":0.15004611015319824,"133":0.41385170817375183,"134":1.4569213390350342,"135":0.20662759244441986,"136":0.4157349169254303,"137":3.0658130645751953,"138":0.738298773765564,"139":0.14569278061389923,"140":-0.5217383503913879,"141":-0.24930673837661743,"142":-1.458092451095581,"143":-1.6680878400802612,"144":0.8308380246162415,"145":0.2648026943206787,"146":3.216614007949829,"147":2.076772451400757,"148":-1.171513557434082,"149":-1.8594765663146973,"150":1.9134039878845215,"151":2.8978190422058105,"152":2.12721848487854,"153":-0.28112074732780457,"154":1.1810866594314575,"155":-0.6778497099876404,"156":-1.4732900857925415,"157":-0.2248907834291458,"158":0.2506285309791565,"159":0.3362908661365509,"160":-0.23746824264526367,"161":-1.5476871728897095,"162":2.2782599925994873,"163":0.37436729669570923,"164":1.5357550382614136,"165":0.8818448185920715,"166":-0.15475861728191376,"167":0.14639239013195038,"168":-0.41539156436920166,"169":0.07462563365697861,"170":0.2861231565475464,"171":0.8714779019355774,"172":-1.0075764656066895,"173":-0.7599829435348511,"174":-0.03724372759461403,"175":-1.1168015003204346,"176":-0.31715112924575806,"177":-0.9571012854576111,"178":0.01829201728105545,"179":-4.656050205230713,"180":-2.470459222793579,"181":-1.6070852279663086,"182":0.2652372419834137,"183":-3.2963383197784424,"184":-0.3305692672729492,"185":-3.3360531330108643,"186":-0.3681722581386566,"187":-1.9271883964538574,"188":-1.392069697380066,"189":-2.201911449432373,"190":0.7053415179252625,"191":0.2909412682056427,"192":-0.08598975092172623,"193":-0.6247277855873108,"194":2.8725297451019287,"195":-1.971402645111084,"196":0.9849477410316467,"197":1.295215129852295,"198":1.6598420143127441,"199":-0.07480277121067047,"200":1.3164310455322266,"201":0.05050649866461754,"202":-0.3402446508407593,"203":1.0960371494293213,"204":-1.9600945711135864,"205":-1.020511507987976,"206":-0.9373906850814819,"207":-2.643343687057495,"208":-0.20360925793647766,"209":0.9030688405036926,"210":-2.3105075359344482,"211":0.71616530418396,"212":0.5168038606643677,"213":1.7537776231765747,"214":0.9391779899597168,"215":0.41669926047325134,"216":0.7143526077270508,"217":0.1825469732284546,"218":3.1831963062286377,"219":0.4972679913043976,"220":1.2068198919296265,"221":-2.3811559677124023,"222":0.7340763211250305,"223":1.9822670221328735,"224":1.1631273031234741,"225":-0.4072878658771515,"226":-1.7103157043457031,"227":-2.1208958625793457,"228":2.1446783542633057,"229":-0.2070060521364212,"230":1.4197920560836792,"231":-0.7497569918632507,"232":-0.5313053131103516,"233":-0.9584481120109558,"234":0.960423469543457,"235":-1.498121976852417,"236":-1.8354532718658447,"237":-0.9737809300422668,"238":1.0280715227127075,"239":1.6870783567428589,"240":0.665759265422821,"241":1.7997781038284302,"242":-1.8723623752593994,"243":0.4702089726924896,"244":-0.2182428389787674,"245":-2.300198554992676,"246":-1.5201489925384521,"247":-1.477669596672058,"248":0.26083067059516907,"249":-1.0897959470748901,"250":-1.0666429996490479,"251":-2.5647149085998535,"252":-0.17029041051864624,"253":0.058646515011787415,"254":1.55946683883667,"255":-1.9189609289169312,"256":-1.2854459285736084,"257":2.4268972873687744,"258":1.906760811805725,"259":2.97723388671875,"260":2.325187921524048,"261":-1.974136233329773,"262":0.15732663869857788,"263":0.011960679665207863,"264":-1.880079984664917,"265":-2.108494758605957,"266":-0.450207382440567,"267":-1.5575459003448486,"268":-2.2777225971221924,"269":0.26931068301200867,"270":-1.475199818611145,"271":0.8534044027328491,"272":-2.2917981147766113,"273":-0.2841879427433014,"274":1.4396018981933594,"275":0.13031050562858582,"276":0.36911630630493164,"277":0.14289073646068573,"278":-0.5606080293655396,"279":-0.8361724615097046,"280":-0.5565600991249084,"281":-0.744879424571991,"282":-1.002854347229004,"283":-1.6170138120651245,"284":0.4438733458518982,"285":-0.24985145032405853,"286":-1.7236642837524414,"287":0.6248912215232849,"288":1.4572986364364624,"289":-0.803417444229126,"290":-0.06084255129098892,"291":-1.149437665939331,"292":-0.7429763078689575,"293":-0.3786667585372925,"294":0.5414286851882935,"295":1.269924521446228,"296":-0.15528646111488342,"297":-0.5085010528564453,"298":-0.4861140847206116,"299":0.7495356798171997,"300":0.08041238784790039,"301":-0.008817021735012531,"302":1.5561665296554565,"303":0.16746462881565094,"304":0.7288787364959717,"305":0.7537438273429871,"306":0.016559258103370667,"307":-0.862993597984314,"308":-0.4644259512424469,"309":-0.2641596496105194,"310":0.7590761184692383,"311":2.0369412899017334,"312":1.2215580940246582,"313":0.38123568892478943,"314":-0.7031676173210144,"315":1.3248322010040283,"316":2.7699196338653564,"317":1.9669218063354492,"318":1.120662808418274,"319":1.5914443731307983,"320":-0.4247063994407654,"321":-0.47797709703445435,"322":-0.22299356758594513,"323":0.7277609705924988,"324":0.7205442190170288,"325":0.9397790431976318,"326":-2.261972665786743,"327":0.1964571177959442,"328":-0.09512624144554138,"329":-1.6802325248718262,"330":-0.6983113288879395,"331":-1.0410131216049194,"332":-0.35199210047721863,"333":-1.1160258054733276,"334":-1.666503667831421,"335":-0.20144173502922058,"336":-0.3052668571472168,"337":0.6475219130516052,"338":-0.5753315687179565,"339":-0.3986918032169342,"340":0.8403919339179993,"341":-0.8376811742782593,"342":0.5413252115249634,"343":-1.4850010871887207,"344":-1.3768314123153687,"345":-0.6592947244644165,"346":-0.28554290533065796,"347":0.5404452085494995,"348":-0.9396781325340271,"349":-0.8869900703430176,"350":-0.6281703114509583,"351":0.34702828526496887,"352":-0.4145238995552063,"353":1.1188956499099731,