

let trained_brain = 
(function anonymous(rawInput, isSampleI, temperature
    ) {
    
      if (typeof rawInput === 'undefined') rawInput = [];
      if (typeof isSampleI === 'undefined') isSampleI = false;
      if (typeof temperature === 'undefined') temperature = 1;
      
    var characterTable = {"0":"I","1":" ","2":"a","3":"m","4":"s","5":"t","6":"i","7":"f","8":"e","9":"d","10":"l","11":"o","12":"r","13":"n","14":"y","15":"b","16":"v","17":"c","18":"w","19":"x","20":"p","21":"h","22":"u","23":",","24":"g","25":"j","26":"k","27":"!","28":"q","29":null,"30":null,"31":null};
    var indexTable = {"I":0," ":1,"a":2,"m":3,"s":4,"t":5,"i":6,"f":7,"e":8,"d":9,"l":10,"o":11,"r":12,"n":13,"y":14,"b":15,"v":16,"c":17,"w":18,"x":19,"p":20,"h":21,"u":22,",":23,"g":24,"j":25,"k":26,"!":27,"q":28,"stop-input":29,"start-output":30,"unrecognized":31};
    var characters = ["I"," ","a","m","s","t","i","f","e","d","l","o","r","n","y","b","v","c","w","x","p","h","u",",","g","j","k","!","q","stop-input","start-output","unrecognized"];
    function toIndexes(value) {
          var maxThreshold = arguments.length > 1 && arguments[1] !== undefined ? arguments[1] : 0;
          var result = [];
          
          for (var i = 0, max = value.length; i < max; i++) {
            var character = value[i];
            var index = indexTable[character];
    
            if (index === undefined) {
              if (indexTable['unrecognized']) {
                index = indexTable['unrecognized'];
              } else {
                throw new Error('unrecognized character "' + character + '"');
              }
            }
    
            if (index < maxThreshold) continue;
            result.push(index);
          }
    
          return result;
        }
    function toIndexesInputOutput(value1) {
          var value2 = arguments.length > 1 && arguments[1] !== undefined ? arguments[1] : null;
          var maxThreshold = arguments.length > 2 && arguments[2] !== undefined ? arguments[2] : 0;
          var result = void 0;
    
          if (typeof value1 === 'string') {
            result = toIndexes(value1.split('').concat(['stop-input', 'start-output']), maxThreshold);
          } else {
            result = toIndexes(value1.concat(['stop-input', 'start-output']), maxThreshold);
          }
    
          if (value2 === null) return result;
    
          if (typeof value2 === 'string') {
            return result.concat(toIndexes(value2.split(''), maxThreshold));
          } else {
            return result.concat(toIndexes(value2, maxThreshold));
          }
        }
    function toCharacters(indices) {
          var maxThreshold = arguments.length > 1 && arguments[1] !== undefined ? arguments[1] : 0;
          var result = [];
                var indexTable = indexTable;
    
          for (var i = 0, max = indices.length; i < max; i++) {
            var index = indices[i];
            if (index < maxThreshold) continue;
            var character = characterTable[index];
    
            if (character === undefined) {
              if (indexTable['unrecognized']) {
                character = characterTable[indexTable['unrecognized']];
              } else {
                throw new Error('unrecognized index "' + index + '"');
              }
            } else if (character !== null) {
              result.push(character);
            }
          }
    
          return result;
        }
    
      
      var input = formatDataIn(rawInput);
      var json = {"type":"LSTM","options":{"inputSize":32,"inputRange":32,"hiddenLayers":[20,20],"outputSize":32,"decayRate":0.999,"smoothEps":1e-8,"regc":0.000001,"clipval":5,"maxPredictionLength":100,"dataFormatter":{"values":["I am satisfied","alot of errors in my order","asdf","bad","bad after sale service","bad and slow","bad bad bad","bad experience","best choice out there","delicious food, great service","food was delicious awesome service","ghjghjghj","good","happy","hello","hi","i already set a record for ordering from them every week today i ordered twice","i am happy!","i am satisfied","i am super happy","i had a bad experience ordering with them","i had a really bad experience with them","i had to put it to the garbage","i had to trow half the food to the garbage","i hated the service and the food","i really did not liked the spagetthi","i was disapointed","i was happy with my order","i was very disapointed","i was very disapointed with my order","i was very happy with my order","i would never order from there again","i would not recommend","i would not recommend it to my friends","i would recommend it to my friends","omg best service","quick delivery, fast and effective","really bad first experice","review content","taste was not what i expected","taste was weird","the food tasted like crap","the food tasted like shit","the food was terrible","the vegetables where rotten","this is the best food ever","this is the worst place to eat in montreal","this looks really bad","very bad quality and slow","very large choice of meals easy to order and interesting offers to watch for great","very satisfied with alce they take care when delivering always on time great variety of","what a trhill","would not recommend to anyone"],"indexTable":{"I":0," ":1,"a":2,"m":3,"s":4,"t":5,"i":6,"f":7,"e":8,"d":9,"l":10,"o":11,"r":12,"n":13,"y":14,"b":15,"v":16,"c":17,"w":18,"x":19,"p":20,"h":21,"u":22,",":23,"g":24,"j":25,"k":26,"!":27,"q":28,"stop-input":29,"start-output":30,"unrecognized":31},"characterTable":{"0":"I","1":" ","2":"a","3":"m","4":"s","5":"t","6":"i","7":"f","8":"e","9":"d","10":"l","11":"o","12":"r","13":"n","14":"y","15":"b","16":"v","17":"c","18":"w","19":"x","20":"p","21":"h","22":"u","23":",","24":"g","25":"j","26":"k","27":"!","28":"q","29":null,"30":null,"31":null},"characters":["I"," ","a","m","s","t","i","f","e","d","l","o","r","n","y","b","v","c","w","x","p","h","u",",","g","j","k","!","q","stop-input","start-output","unrecognized"],"specialIndexes":[29,30,31]}},"input":{"rows":33,"columns":32,"weights":{"0":-2.7908880710601807,"1":0.5748529434204102,"2":-1.795904517173767,"3":0.08485947549343109,"4":-0.25906988978385925,"5":-3.057410717010498,"6":2.841771125793457,"7":0.32907089591026306,"8":-0.8664844036102295,"9":-0.49601078033447266,"10":4.351729393005371,"11":0.7135246396064758,"12":-0.44302237033843994,"13":-2.7792694568634033,"14":-0.3805862069129944,"15":-0.08187172561883926,"16":0.6313464641571045,"17":-0.800269365310669,"18":0.8950912356376648,"19":-0.5720436573028564,"20":2.074179172515869,"21":1.9277206659317017,"22":0.9480695128440857,"23":-0.9141602516174316,"24":-1.32566237449646,"25":-0.9978060722351074,"26":-0.6032537817955017,"27":-0.6355695128440857,"28":-2.339665174484253,"29":-1.641380786895752,"30":-1.5432900190353394,"31":0.7484822273254395,"32":4.493401527404785,"33":2.7178053855895996,"34":1.561996340751648,"35":3.0880539417266846,"36":-2.109367847442627,"37":4.111866474151611,"38":-25.484373092651367,"39":-7.382831573486328,"40":9.721475601196289,"41":1.932519793510437,"42":-15.827096939086914,"43":6.90262508392334,"44":11.939708709716797,"45":19.584197998046875,"46":-5.586094856262207,"47":-9.252264022827148,"48":10.385735511779785,"49":3.8365695476531982,"50":-3.622023344039917,"51":16.267351150512695,"52":-3.943488836288452,"53":-7.3365912437438965,"54":14.463006019592285,"55":19.344785690307617,"56":26.784770965576172,"57":-3.603726863861084,"58":-12.501555442810059,"59":11.215494155883789,"60":9.134613990783691,"61":15.141526222229004,"62":7.934298992156982,"63":14.950824737548828,"64":-0.12856045365333557,"65":-0.6397466063499451,"66":4.183393478393555,"67":-3.6259350776672363,"68":-0.2581736147403717,"69":0.21307158470153809,"70":-0.8347907662391663,"71":-2.061368703842163,"72":-0.6325250864028931,"73":-7.141266822814941,"74":1.0847491025924683,"75":6.034180641174316,"76":0.6515375971794128,"77":-1.2069159746170044,"78":0.9556770920753479,"79":-0.9210641980171204,"80":-3.9192447662353516,"81":0.5125130414962769,"82":3.816924810409546,"83":-2.686591386795044,"84":0.9740177989006042,"85":-1.1525572538375854,"86":1.1490339040756226,"87":2.0726723670959473,"88":2.266982078552246,"89":-0.6873896718025208,"90":-0.574442982673645,"91":-2.2682619094848633,"92":1.3895330429077148,"93":-0.40027397871017456,"94":0.6492099165916443,"95":0.13636451959609985,"96":0.30128946900367737,"97":0.9800988435745239,"98":-0.1102413758635521,"99":0.8630308508872986,"100":1.245998740196228,"101":-1.5771383047103882,"102":-0.4272477328777313,"103":1.3192657232284546,"104":1.168082594871521,"105":-5.294482707977295,"106":-2.361217737197876,"107":-1.2962822914123535,"108":-2.2757761478424072,"109":0.871696949005127,"110":-0.3451322913169861,"111":-0.20669005811214447,"112":1.5141602754592896,"113":1.5381312370300293,"114":-0.40928715467453003,"115":0.4825232923030853,"116":-0.5272793173789978,"117":1.482767939567566,"118":2.4747846126556396,"119":4.523495674133301,"120":2.3430445194244385,"121":-0.23772503435611725,"122":-5.401175498962402,"123":-0.25743910670280457,"124":0.3278457820415497,"125":0.5050665140151978,"126":-1.8901017904281616,"127":-0.15427224338054657,"128":1.1253986358642578,"129":-7.977446556091309,"130":-3.0837759971618652,"131":-0.9247271418571472,"132":-0.8747374415397644,"133":-3.87923264503479,"134":-2.6382052898406982,"135":-3.6252105236053467,"136":3.9348745346069336,"137":0.5556077361106873,"138":6.709654331207275,"139":-3.718341827392578,"140":-2.9051074981689453,"141":3.5815720558166504,"142":0.24843956530094147,"143":-3.794504404067993,"144":-1.320529818534851,"145":-1.8557261228561401,"146":-0.4902486503124237,"147":0.33117547631263733,"148":2.574734926223755,"149":-1.695582628250122,"150":-1.839951753616333,"151":3.7179713249206543,"152":1.4003900289535522,"153":-1.7514499425888062,"154":-3.9895455837249756,"155":3.7945973873138428,"156":-3.5798966884613037,"157":-1.6719485521316528,"158":-1.2526929378509521,"159":5.539730548858643,"160":4.371252536773682,"161":-1.362579345703125,"162":1.03379225730896,"163":-2.1757547855377197,"164":-1.3978019952774048,"165":1.570359230041504,"166":0.05596033111214638,"167":-2.42022705078125,"168":2.820695400238037,"169":-5.49368143081665,"170":-2.319370985031128,"171":1.3624581098556519,"172":2.3798136711120605,"173":1.257084846496582,"174":1.8589890003204346,"175":0.5480576753616333,"176":3.276409387588501,"177":0.8145654201507568,"178":0.08975515514612198,"179":5.12971305847168,"180":0.21167168021202087,"181":-2.386338472366333,"182":-1.4150387048721313,"183":0.8270677924156189,"184":4.802233695983887,"185":-0.8120627999305725,"186":-0.6614501476287842,"187":0.166243314743042,"188":-0.18427351117134094,"189":-2.0596837997436523,"190":4.219472885131836,"191":2.5202465057373047,"192":-2.462409019470215,"193":0.08063804358243942,"194":-1.5114628076553345,"195":-0.6678345203399658,"196":-0.11984214931726456,"197":-2.3904647827148438,"198":0.44780513644218445,"199":-2.3961381912231445,"200":-3.3047120571136475,"201":0.547317624092102,"202":3.343233108520508,"203":1.0479997396469116,"204":1.187597393989563,"205":0.5860161781311035,"206":1.0999181270599365,"207":-2.1745522022247314,"208":1.7180086374282837,"209":0.4597676694393158,"210":-1.4594308137893677,"211":-0.963834285736084,"212":-0.3558970093727112,"213":3.211853504180908,"214":0.4917287230491638,"215":0.14514029026031494,"216":-2.1828806400299072,"217":2.866281032562256,"218":0.4859737157821655,"219":0.9306900501251221,"220":0.2496885508298874,"221":-1.5432918071746826,"222":-1.0254778861999512,"223":-4.899744033813477,"224":1.0474331378936768,"225":0.6516510248184204,"226":0.46160584688186646,"227":0.4895152449607849,"228":-0.2110988050699234,"229":-0.11880971491336823,"230":2.152777910232544,"231":0.7039800882339478,"232":-2.3301265239715576,"233":2.178100347518921,"234":-0.0011384135577827692,"235":-2.471017360687256,"236":-1.1973984241485596,"237":0.35171636939048767,"238":-3.533665418624878,"239":1.1942185163497925,"240":0.2040071189403534,"241":-0.1555546373128891,"242":-3.832033634185791,"243":-2.7138829231262207,"244":0.808123767375946,"245":1.0897024869918823,"246":-0.6710819602012634,"247":-2.4172580242156982,"248":-1.3718562126159668,"249":1.4986505508422852,"250":0.5485667586326599,"251":0.2141917645931244,"252":-1.5656039714813232,"253":-1.5969120264053345,"254":0.10056674480438232,"255":-1.7019753456115723,"256":1.3900214433670044,"257":2.6620075702667236,"258":-1.5474469661712646,"259":-2.3182930946350098,"260":6.834667682647705,"261":-4.246293067932129,"262":3.3369057178497314,"263":4.8881378173828125,"264":-3.842400074005127,"265":-3.624906063079834,"266":0.12547658383846283,"267":-6.361368656158447,"268":-1.581057071685791,"269":0.11864215135574341,"270":-6.610024452209473,"271":-2.4654533863067627,"272":0.6746983528137207,"273":-1.5152208805084229,"274":-2.489468574523926,"275":-4.499000549316406,"276":1.7387038469314575,"277":6.659343242645264,"278":-0.9985073208808899,"279":2.2846181392669678,"280":-2.0190117359161377,"281":2.5453155040740967,"282":-0.08533944189548492,"283":-7.042541980743408,"284":-1.179186224937439,"285":-3.7124130725860596,"286":-7.297272682189941,"287":-0.9816450476646423,"288":-0.5947668552398682,"289":0.2060580551624298,"290":0.42987847328186035,"291":0.5029534697532654,"292":-0.28103137016296387,"293":-0.10253667086362839,"294":-0.1840674728155136,"295":-0.5557711124420166,"296":-0.3404562473297119,"297":0.1606835126876831,"298":0.015059911645948887,"299":-0.5316027998924255,"300":-0.3722021281719208,"301":-0.6554766297340393,"302":0.44081413745880127,"303":0.06165248528122902,"304":0.30223748087882996,"305":-1.1056946516036987,"306":0.5418504476547241,"307":1.517757773399353,"308":-0.13438867032527924,"309":1.2466371059417725,"310":-0.934068500995636,"311":1.2869806289672852,"312":-0.43845587968826294,"313":-0.13628551363945007,"314":-0.047913808375597,"315":0.14148569107055664,"316":-1.5018929243087769,"317":0.8478116393089294,"318":-0.42149412631988525,"319":-0.7451310157775879,"320":0.24249887466430664,"321":3.0937862396240234,"322":0.2993701100349426,"323":0.4624421298503876,"324":1.593616008758545,"325":0.7177050709724426,"326":-0.16849283874034882,"327":1.6139689683914185,"328":-0.05687018483877182,"329":-0.20989035069942474,"330":-0.5518968105316162,"331":-6.448957443237305,"332":-3.0689451694488525,"333":-0.9812286496162415,"334":-0.5339349508285522,"335":-0.5273861289024353,"336":-0.20659178495407104,"337":0.9440383315086365,"338":-3.2680022716522217,"339":0.38340848684310913,"340":0.1610098034143448,"341":3.765340566635132,"342":1.3886018991470337,"343":0.3237290382385254,"344":-2.684823989868164,"345":-1.0228620767593384,"346":-1.6540485620498657,"347":0.6527947783470154,"348":-0.6817813515663147,"349":2.181722402572632,"350":-2.814807176589966,"351":-1.7088385820388794,"352":-6.716423034667969,"353":-4.4064836502075195,"354":-1.426871657371521,"355":0.28200504183769226,"356":1.624334692955017,"357":-3.176732063293457,"358":4.178759574890137,"359":0.01786118745803833,"360":-9.431778907775879,"361":-0.6170499920845032,"362":6.6298980712890625,"363":-5.019045352935791,"364":-2.4605026245117188,"365":-0.3403414785861969,"366":-4.934155464172363,"367":1.4078489542007446,"368":7.2020487785339355,"369":-0.31560593843460083,"370":-0.9525163769721985,"371":0.9404553174972534,"372":1.8917449712753296,"373":3.6813483238220215,"374":2.0677602291107178,"375":-1.0569119453430176,"376":-3.231564998626709,"377":-3.7934083938598633,"378":-1.7826135158538818,"379":5.503654956817627,"380":-0.3901369571685791,"381":2.4555418491363525,"382":0.25508442521095276,"383":1.5352693796157837,"384":-3.031545400619507,"385":-0.6253897547721863,"386":-1.571777105331421,"387":0.6272580027580261,"388":1.6047688722610474,"389":-3.665196657180786,"390":1.598667025566101,"391":0.4363147020339966,"392":-2.6559650897979736,"393":-0.3942646384239197,"394":3.7449419498443604,"395":0.13068887591362,"396":2.4111509323120117,"397":-0.8516653776168823,"398":-1.6244208812713623,"399":-0.4405633807182312,"400":0.6279473304748535,"401":-0.9092603325843811,"402":0.1755073219537735,"403":-2.10762619972229,"404":0.5181933641433716,"405":2.5169780254364014,"406":-0.3417702615261078,"407":-0.27186739444732666,"408":-2.3968584537506104,"409":0.9384770393371582,"410":-1.0031235218048096,"411":-0.48660770058631897,"412":-1.1407561302185059,"413":-4.303854942321777,"414":-1.8606863021850586,"415":-0.0439784973859787,"416":-0.1292649358510971,"417":1.74120032787323,"418":-1.0039749145507812,"419":1.221487045288086,"420":3.878635883331299,"421":-2.828394889831543,"422":3.4699172973632812,"423":-1.0194675922393799,"424":-2.6038458347320557,"425":-0.3718355596065521,"426":-0.5481453537940979,"427":-2.7416789531707764,"428":-1.8981523513793945,"429":-0.2243744283914566,"430":0.3864666521549225,"431":3.4389119148254395,"432":4.3969831466674805,"433":-1.6224594116210938,"434":0.2357480823993683,"435":0.27289867401123047,"436":-2.0867652893066406,"437":9.493680000305176,"438":0.5895218253135681,"439":1.6523802280426025,"440":-3.620757579803467,"441":0.5632489323616028,"442":-0.5573775768280029,"443":9.017112731933594,"444":2.4425344467163086,"445":1.5561825037002563,"446":0.21315820515155792,"447":-1.6363680362701416,"448":3.629563331604004,"449":-2.1317169666290283,"450":-2.7377750873565674,"451":4.639930248260498,"452":1.4561861753463745,"453":3.3692307472229004,"454":-1.785158634185791,"455":0.21981291472911835,"456":0.22585174441337585,"457":0.4822104871273041,"458":-7.547699451446533,"459":-2.5965635776519775,"460":0.9659183025360107,"461":1.8351507186889648,"462":2.0446386337280273,"463":-3.0771920680999756,"464":0.3614695072174072,"465":-2.2330713272094727,"466":-3.281508684158325,"467":6.168490409851074,"468":-4.079516410827637,"469":0.36083224415779114,"470":4.129932880401611,"471":0.8211445808410645,"472":7.0180253982543945,"473":-4.434991836547852,"474":0.6748679280281067,"475":-7.41648530960083,"476":3.3661794662475586,"477":2.9242372512817383,"478":1.8444280624389648,"479":-3.3823375701904297,"480":1.5081758499145508,"481":0.2968374788761139,"482":5.25282096862793,"483":1.1263389587402344,"484":0.8341553211212158,"485":-0.02416875585913658,"486":-0.3228468596935272,"487":-3.984314441680908,"488":-1.7368180751800537,"489":-1.5786386728286743,"490":0.8321580290794373,"491":6.507741451263428,"492":0.562247097492218,"493":1.7242928743362427,"494":-2.598615884780884,"495":1.8356112241744995,"496":-3.5482003688812256,"497":1.7497332096099854,"498":-0.7866915464401245,"499":-1.0136549472808838,"500":-1.940416693687439,"501":3.170485019683838,"502":0.22293849289417267,"503":-4.1089091300964355,"504":1.7462843656539917,"505":1.0176461935043335,"506":-1.5968947410583496,"507":-2.0941500663757324,"508":-3.1982736587524414,"509":-5.312390327453613,"510":-0.6887329816818237,"511":-3.4371273517608643,"512":4.724743843078613,"513":0.045649293810129166,"514":0.6958488821983337,"515":0.3195986747741699,"516":-0.35845762491226196,"517":1.2731595039367676,"518":0.15938635170459747,"519":-1.3360540866851807,"520":2.3715286254882812,"521":-2.277104377746582,"522":-3.8079075813293457,"523":-1.7295931577682495,"524":1.9121806621551514,"525":1.1340006589889526,"526":-1.680252194404602,"527":1.9912877082824707,"528":3.918473720550537,"529":1.246802806854248,"530":-0.9214664101600647,"531":1.8634848594665527,"532":0.7971715927124023,"533":0.8048770427703857,"534":-1.4221770763397217,"535":2.56573486328125,"536":3.4446465969085693,"537":-0.5612186193466187,"538":-0.23697246611118317,"539":-0.045238394290208817,"540":-0.8495875000953674,"541":3.2843286991119385,"542":1.1723560094833374,"543":2.4960789680480957,"544":1.0841071605682373,"545":2.528765916824341,"546":5.585801124572754,"547":0.6719161868095398,"548":-1.2739486694335938,"549":-3.6185643672943115,"550":-1.281310796737671,"551":-9.53287410736084,"552":0.0943344458937645,"553":-5.416695594787598,"554":0.6680290699005127,"555":4.978485107421875,"556":-4.9098639488220215,"557":-3.1292941570281982,"558":-2.825194835662842,"559":-3.4941694736480713,"560":0.1918598860502243,"561":2.4266650676727295,"562":-0.048842865973711014,"563":-4.37288761138916,"564":1.0718891620635986,"565":2.1869242191314697,"566":-3.771263837814331,"567":1.7374836206436157,"568":4.419367790222168,"569":0.41714316606521606,"570":-3.4006426334381104,"571":-2.7689266204833984,"572":-4.658910751342773,"573":-4.459479331970215,"574":0.4405198097229004,"575":-4.735888957977295,"576":-0.30724602937698364,"577":-1.1923890113830566,"578":-2.1971805095672607,"579":2.828986406326294,"580":-1.6117382049560547,"581":4.942593574523926,"582":-2.012016534805298,"583":2.9578254222869873,"584":-1.5336836576461792,"585":3.4554522037506104,"586":-0.30673518776893616,"587":-0.5724000334739685,"588":1.3978453874588013,"589":-1.2057358026504517,"590":2.2439486980438232,"591":1.5331940650939941,"592":-2.4803905487060547,"593":-2.734161138534546,"594":-1.7246073484420776,"595":3.0424115657806396,"596":-0.11725938320159912,"597":-2.521947145462036,"598":4.152541160583496,"599":-1.2284319400787354,"600":1.0069233179092407,"601":-7.971650123596191,"602":7.649923324584961,"603":-2.545607328414917,"604":5.664078712463379,"605":9.685722351074219,"606":3.799614667892456,"607":-1.7717443704605103,"608":-1.3321281671524048,"609":-3.156895160675049,"610":2.194098472595215,"611":-1.1250660419464111,"612":-0.4469645619392395,"613":-0.5385233759880066,"614":-3.0309343338012695,"615":1.7035194635391235,"616":-0.3949357569217682,"617":0.23371101915836334,"618":-0.7468675374984741,"619":5.948495388031006,"620":10.065881729125977,"621":-1.3058656454086304,"622":3.1180784702301025,"623":0.4255857765674591,"624":-3.1080093383789062,"625":-0.053928524255752563,"626":0.8917474746704102,"627":0.3894912898540497,"628":-0.7800812721252441,"629":-0.6121242642402649,"630":-0.4911215007305145,"631":-5.275876522064209,"632":2.852573871612549,"633":-2.8200438022613525,"634":7.169027805328369,"635":-3.0227108001708984,"636":-1.5020281076431274,"637":1.8813480138778687,"638":0.33519798517227173,"639":0.7159920930862427,"640":9.781719207763672,"641":9.528450965881348,"642":4.328818321228027,"643":-9.046406745910645,"644":-0.16416731476783752,"645":-3.5005252361297607,"646":-1.4377926588058472,"647":4.458272933959961,"648":-0.15949909389019012,"649":-7.171823024749756,"650":-4.513326168060303,"651":4.01271915435791,"652":1.0293809175491333,"653":6.926798343658447,"654":1.4766223430633545,"655":-8.608206748962402,"656":0.6336885690689087,"657":5.702011585235596,"658":15.199681282043457,"659":2.2239139080047607,"660":6.500418186187744,"661":-4.402172565460205,"662":-4.548221588134766,"663":0.6623032093048096,"664":4.138362407684326,"665":-6.12380838394165,"666":-3.883373498916626,"667":-5.509651184082031,"668":-1.0263655185699463,"669":3.0184385776519775,"670":-12.666011810302734,"671":-1.1630520820617676,"672":0.532263457775116,"673":-0.7581944465637207,"674":2.154287576675415,"675":0.9323253631591797,"676":-0.7925845980644226,"677":1.6354560852050781,"678":-3.1891958713531494,"679":-4.66447114944458,"680":-1.0196619033813477,"681":-1.923120141029358,"682":1.3750795125961304,"683":2.9869680404663086,"684":-2.3509838581085205,"685":-0.7501130104064941,"686":-3.221679210662842,"687":-0.09713582694530487,"688":2.697115659713745,"689":-0.02953728847205639,"690":1.9655041694641113,"691":-0.16868235170841217,"692":-0.5951629281044006,"693":0.0780925378203392,"694":4.2233428955078125,"695":1.6581913232803345,"696":1.4489003419876099,"697":-3.195758819580078,"698":-2.074939727783203,"699":5.474991798400879,"700":2.6778512001037598,"701":1.3892611265182495,"702":-1.0828378200531006,"703":-0.9182322025299072,"704":0.5508750081062317,"705":-0.11075735092163086,"706":0.2538619339466095,"707":0.38738778233528137,"708":-1.2323795557022095,"709":2.460261583328247,"710":-3.005321741104126,"711":-3.0666091442108154,"712":0.7804214358329773,"713":3.16971755027771,"714":0.9959086179733276,"715":1.6459805965423584,"716":0.3145000636577606,"717":0.8931014537811279,"718":0.09060665965080261,"719":2.5968313217163086,"720":0.04826977103948593,"721":0.3219357132911682,"722":-0.9183384776115417,"723":0.22572916746139526,"724":1.0004699230194092,"725":0.22538135945796967,"726":1.4797219038009644,"727":0.8647269606590271,"728":0.006785778794437647,"729":-0.6585674285888672,"730":0.021450087428092957,"731":0.553398072719574,"732":-1.871093988418579,"733":-0.12167555093765259,"734":5.745023727416992,"735":1.7944154739379883,"736":-0.8193047046661377,"737":-1.0350769758224487,"738":-1.9435218572616577,"739":6.710264682769775,"740":-13.087089538574219,"741":9.7496976852417,"742":-6.621318817138672,"743":4.848383903503418,"744":-7.374176025390625,"745":0.5360239148139954,"746":0.9771097302436829,"747":-5.495280742645264,"748":-4.629698276519775,"749":5.102635860443115,"750":3.5337677001953125,"751":-1.1200579404830933,"752":3.5595903396606445,"753":-7.394293308258057,"754":1.818757176399231,"755":3.842672109603882,"756":0.8435246348381042,"757":-3.743150234222412,"758":-1.7936433553695679,"759":1.3766616582870483,"760":-3.671741008758545,"761":2.2872519493103027,"762":-1.3616042137145996,"763":6.956711292266846,"764":3.0253937244415283,"765":10.079583168029785,"766":2.581138849258423,"767":-5.223300933837891,"768":1.5749225616455078,"769":0.7819846272468567,"770":-0.7110697627067566,"771":-8.781341552734375,"772":-5.640625476837158,"773":-0.8686745762825012,"774":-0.46121227741241455,"775":-7.273231029510498,"776":1.6199132204055786,"777":9.438985824584961,"778":26.04322052001953,"779":4.942081451416016,"780":-0.9928694367408752,"781":4.93988561630249,"782":-21.756792068481445,"783":30.703760147094727,"784":-11.351162910461426,"785":-17.4453067779541,"786":-13.016794204711914,"787":-11.039728164672852,"788":-3.041255474090576,"789":10.024092674255371,"790":16.532508850097656,"791":-13.553215980529785,"792":-16.704933166503906,"793":6.387446403503418,"794":-7.289775848388672,"795":5.654252529144287,"796":-19.298255920410156,"797":-4.490653038024902,"798":-3.5067992210388184,"799":-7.86717414855957,"800":0.20831742882728577,"801":-2.7700915336608887,"802":0.5284109115600586,"803":-2.300126314163208,"804":0.6685077548027039,"805":4.473684310913086,"806":-5.045621871948242,"807":-1.9837030172348022,"808":2.3025779724121094,"809":-1.5446553230285645,"810":-5.872491359710693,"811":3.5410335063934326,"812":7.431331634521484,"813":10.107218742370605,"814":5.823841094970703,"815":-4.75726842880249,"816":-1.4514703750610352,"817":1.1701126098632812,"818":0.15186035633087158,"819":8.28490924835205,"820":-4.416745185852051,"821":-0.6157569289207458,"822":3.3777668476104736,"823":-3.905209541320801,"824":0.1537255197763443,"825":-2.5805535316467285,"826":4.270076274871826,"827":-3.522620916366577,"828":5.5877366065979,"829":1.1160160303115845,"830":2.490703582763672,"831":1.4344030618667603,"832":-6.420741081237793,"833":21.10050392150879,"834":-0.9358228445053101,"835":2.3850388526916504,"836":41.11904525756836,"837":-8.817383766174316,"838":5.863987922668457,"839":17.305770874023438,"840":-16.189481735229492,"841":6.9865546226501465,"842":22.066377639770508,"843":-10.865401268005371,"844":-25.41657829284668,"845":-22.045812606811523,"846":-14.424356460571289,"847":16.598447799682617,"848":4.05161714553833,"849":2.065258264541626,"850":-1.870514988899231,"851":-17.77584457397461,"852":4.269534587860107,"853":11.938338279724121,"854":-1.092491626739502,"855":9.855579376220703,"856":-4.499270439147949,"857":-12.956838607788086,"858":-1.3685593605041504,"859":-14.638120651245117,"860":12.064444541931152,"861":-2.535141944885254,"862":-22.76237678527832,"863":0.1510341912508011,"864":2.185353994369507,"865":-4.567365646362305,"866":-3.6199896335601807,"867":7.889691352844238,"868":-0.7355250120162964,"869":-0.3977374732494354,"870":3.202418804168701,"871":19.143115997314453,"872":-3.0197272300720215,"873":1.0965349674224854,"874":2.7072830200195312,"875":-13.19852352142334,"876":4.968158721923828,"877":7.054993629455566,"878":-13.585180282592773,"879":-1.7356963157653809,"880":-5.400671005249023,"881":-1.2986088991165161,"882":-5.178336143493652,"883":2.7388389110565186,"884":-2.181981325149536,"885":8.176046371459961,"886":8.93541145324707,"887":-4.605467796325684,"888":0.6515143513679504,"889":-3.123689651489258,"890":6.208472728729248,"891":-5.829212665557861,"892":-0.08957285434007645,"893":1.824049472808838,"894":-9.746988296508789,"895":-5.419734477996826,"896":11.501154899597168,"897":5.049251079559326,"898":13.809523582458496,"899":-6.225276470184326,"900":-19.162683486938477,"901":-18.004390716552734,"902":18.557987213134766,"903":-17.94861602783203,"904":1.5261707305908203,"905":-9.013996124267578,"906":-13.033379554748535,"907":-7.25750207901001,"908":13.42328929901123,"909":-7.2392191886901855,"910":13.505180358886719,"911":-6.714730262756348,"912":-6.92495584487915,"913":-17.335636138916016,"914":14.382962226867676,"915":-12.236618995666504,"916":-20.6988468170166,"917":-4.14107608795166,"918":-34.71138381958008,"919":3.6991400718688965,"920":11.585433959960938,"921":24.452974319458008,"922":-6.5338287353515625,"923":-34.55944061279297,"924":3.672677993774414,"925":-33.981719970703125,"926":2.6655189990997314,"927":-12.960395812988281,"928":-12.764705657958984,"929":-25.64678192138672,"930":19.180965423583984,"931":11.143760681152344,"932":-4.664873123168945,"933":-9.825074195861816,"934":17.850927352905273,"935":-7.272895336151123,"936":-9.486030578613281,"937":-8.042229652404785,"938":19.858797073364258,"939":3.134176254272461,"940":-1.7682108879089355,"941":7.658415794372559,"942":-13.634427070617676,"943":19.479413986206055,"944":6.1914849281311035,"945":6.829179286956787,"946":13.00381088256836,"947":9.358052253723145,"948":4.958810329437256,"949":3.5193610191345215,"950":15.345784187316895,"951":0.7404524087905884,"952":-7.958096981048584,"953":-10.243821144104004,"954":-0.6908340454101562,"955":-7.30603551864624,"956":3.8721187114715576,"957":5.88153600692749,"958":11.041816711425781,"959":-16.207115173339844,"960":-2.3802330493927,"961":-1.5157363414764404,"962":-0.37923651933670044,"963":-2.6130430698394775,"964":1.1509588956832886,"965":-1.0227341651916504,"966":-0.8555386662483215,"967":-0.6642026901245117,"968":0.8704255819320679,"969":1.1098181009292603,"970":3.4753832817077637,"971":4.5016584396362305,"972":1.957077145576477,"973":2.1181626319885254,"974":2.3573665618896484,"975":-4.3242716789245605,"976":-1.8309506177902222,"977":-0.4451342821121216,"978":2.5061256885528564,"979":3.753166675567627,"980":-0.5221288204193115,"981":-2.352489471435547,"982":-1.1097080707550049,"983":-1.941470742225647,"984":-1.5082108974456787,"985":0.9470471143722534,"986":0.23026874661445618,"987":-2.895399808883667,"988":-1.5023993253707886,"989":-3.637676477432251,"990":1.6151241064071655,"991":0.6302703022956848,"992":-1.6273376941680908,"993":0.9539571404457092,"994":-1.2787600755691528,"995":-1.374356985092163,"996":1.2807868719100952,"997":-0.5809229016304016,"998":-2.038020133972168,"999":2.0659780502319336,"1000":-1.9600704908370972,"1001":0.635307252407074,"1002":0.1793193221092224,"1003":2.6753547191619873,"1004":1.7110446691513062,"1005":-0.5662363767623901,"1006":1.6628602743148804,"1007":0.5978085994720459,"1008":-0.7152836322784424,"1009":1.27810537815094,"1010":3.764404773712158,"1011":-3.4409642219543457,"1012":-2.485823631286621,"1013":-0.49199777841567993,"1014":-1.9134681224822998,"1015":0.5124983787536621,"1016":0.8884760141372681,"1017":2.45854115486145,"1018":1.3854867219924927,"1019":-0.029503274708986282,"1020":1.788228988647461,"1021":-4.322031497955322,"1022":0.3932751417160034,"1023":-0.8957971930503845,"1024":0.05246253311634064,"1025":-0.0757860466837883,"1026":0.07448305934667587,"1027":0.05504477396607399,"1028":-0.07296860218048096,"1029":0.04561469331383705,"1030":0.0007357397116720676,"1031":0.03183569014072418,"1032":0.03821420669555664,"1033":0.013106095604598522,"1034":-0.01903156191110611,"1035":-0.036185409873723984,"1036":0.019380897283554077,"1037":-0.07023162394762039,"1038":0.012890288606286049,"1039":0.015472653321921825,"1040":0.009974226355552673,"1041":-0.07539105415344238,"1042":0.0405503585934639,"1043":-0.014760062098503113,"1044":-0.04682790860533714,"1045":0.0591534748673439,"1046":0.05707288533449173,"1047":-0.051119718700647354,"1048":0.007337038870900869,"1049":0.07025305181741714,"1050":0.06873996555805206,"1051":-0.029882948845624924,"1052":0.04804381728172302,"1053":-0.0010451661655679345,"1054":-0.018032986670732498,"1055":0.046290118247270584}},"hiddenLayers":[{"inputMatrix":{"rows":20,"columns":32,"weights":{"0":-3.433091402053833,"1":-1.9520031213760376,"2":-2.729667901992798,"3":0.9322847723960876,"4":-0.973816990852356,"5":-1.3770577907562256,"6":3.0078086853027344,"7":-0.12901219725608826,"8":0.12466856092214584,"9":1.2917901277542114,"10":3.990830659866333,"11":-2.755507469177246,"12":0.19656196236610413,"13":0.5904701948165894,"14":0.3184508681297302,"15":0.2463921159505844,"16":-0.3164052665233612,"17":-1.2146786451339722,"18":-0.5476611256599426,"19":-0.12793821096420288,"20":-1.2594051361083984,"21":0.6931735873222351,"22":2.0509049892425537,"23":0.716699481010437,"24":-2.2718734741210938,"25":2.0521256923675537,"26":1.2540079355239868,"27":-0.7534176111221313,"28":2.3406472206115723,"29":-1.3485170602798462,"30":1.1779733896255493,"31":-0.5302361845970154,"32":-3.6894102096557617,"33":-0.8320357799530029,"34":-1.2231371402740479,"35":-0.23484142124652863,"36":0.9548052549362183,"37":-2.920823335647583,"38":0.4604905843734741,"39":0.7932912111282349,"40":-0.4273148477077484,"41":0.2592144012451172,"42":1.7623041868209839,"43":-1.258597493171692,"44":0.9950317740440369,"45":0.475007563829422,"46":1.0570162534713745,"47":-0.241219162940979,"48":1.0871394872665405,"49":-0.6889684200286865,"50":0.7270354628562927,"51":1.4921152591705322,"52":-1.1652384996414185,"53":0.9514584541320801,"54":-1.1103458404541016,"55":0.17238301038742065,"56":0.6836804747581482,"57":0.5727258324623108,"58":0.451986163854599,"59":-0.3682955503463745,"60":0.8232569694519043,"61":0.6676821112632751,"62":-1.653560757637024,"63":-0.5197336673736572,"64":-1.632193922996521,"65":-3.0323476791381836,"66":0.158484548330307,"67":-2.144926071166992,"68":-1.4157840013504028,"69":-1.180466651916504,"70":2.0206961631774902,"71":-2.449467420578003,"72":1.0790120363235474,"73":-2.4184863567352295,"74":-1.5450050830841064,"75":-0.8317422866821289,"76":-2.5829391479492188,"77":-1.1092240810394287,"78":0.05329672992229462,"79":-0.5778742432594299,"80":0.8287482857704163,"81":-1.6372190713882446,"82":1.5863447189331055,"83":2.8566126823425293,"84":1.8146076202392578,"85":-2.1750314235687256,"86":-2.063239336013794,"87":2.5192501544952393,"88":1.9278051853179932,"89":0.43586158752441406,"90":-1.9997059106826782,"91":0.23361091315746307,"92":0.43215835094451904,"93":-0.6209524273872375,"94":1.5475904941558838,"95":0.7578883171081543,"96":5.016417026519775,"97":0.16050545871257782,"98":0.1811157763004303,"99":-0.5528337359428406,"100":-0.3675064742565155,"101":0.8385472297668457,"102":-1.3974859714508057,"103":0.429975688457489,"104":0.5325091481208801,"105":-1.9075359106063843,"106":-0.7962270379066467,"107":-0.6595024466514587,"108":0.11265407502651215,"109":1.224178671836853,"110":-0.03459375351667404,"111":-2.6211745738983154,"112":1.0355740785598755,"113":0.9936671257019043,"114":0.495624303817749,"115":0.3183821737766266,"116":-0.33109787106513977,"117":0.23718425631523132,"118":0.24294084310531616,"119":0.8850285410881042,"120":0.6778275966644287,"121":-0.16974885761737823,"122":-1.0339442491531372,"123":2.382988452911377,"124":2.3936493396759033,"125":-2.4581894874572754,"126":-0.8343614935874939,"127":-1.372517466545105,"128":0.029443008825182915,"129":0.1154940277338028,"130":1.231001853942871,"131":0.6427608728408813,"132":-0.38940706849098206,"133":0.8400233387947083,"134":-0.4051707983016968,"135":-0.15513521432876587,"136":-0.29984021186828613,"137":1.8014689683914185,"138":1.1326335668563843,"139":0.10112093389034271,"140":0.696438729763031,"141":0.6943199634552002,"142":-0.005998915992677212,"143":1.0982563495635986,"144":-1.4382232427597046,"145":-0.5885570049285889,"146":0.3874623477458954,"147":-0.47469276189804077,"148":0.23836545646190643,"149":-0.23383714258670807,"150":0.5513513684272766,"151":-1.0349235534667969,"152":-0.36761781573295593,"153":1.2005993127822876,"154":2.538205862045288,"155":-0.5449172258377075,"156":-0.016699867323040962,"157":-0.33538487553596497,"158":0.5749915838241577,"159":-1.4051456451416016,"160":0.48682403564453125,"161":-0.2251405566930771,"162":0.3820302188396454,"163":-2.0343267917633057,"164":0.18480508029460907,"165":-1.106889009475708,"166":-1.1364041566848755,"167":-2.5595548152923584,"168":-0.2481493502855301,"169":-2.3197758197784424,"170":0.7392611503601074,"171":1.2658087015151978,"172":0.1376243531703949,"173":0.8011524081230164,"174":-0.06165441870689392,"175":-1.045181155204773,"176":1.738547682762146,"177":1.5031421184539795,"178":-0.366924911737442,"179":0.19501104950904846,"180":-0.06608150154352188,"181":1.1420530080795288,"182":0.007233340758830309,"183":0.49231651425361633,"184":1.4586514234542847,"185":0.7508309483528137,"186":-0.11118248850107193,"187":-2.642141580581665,"188":1.123815655708313,"189":0.11261573433876038,"190":1.3029621839523315,"191":0.6126483678817749,"192":-0.688339114189148,"193":-0.6308140158653259,"194":1.971366286277771,"195":-1.6200237274169922,"196":-0.47222208976745605,"197":0.6405935883522034,"198":-0.6570863127708435,"199":0.14473912119865417,"200":0.09673280268907547,"201":0.5883188247680664,"202":0.3020440638065338,"203":-0.19989030063152313,"204":0.6232498288154602,"205":0.24795988202095032,"206":1.0295844078063965,"207":0.6510722041130066,"208":-0.9961819648742676,"209":0.7753081321716309,"210":2.800006151199341,"211":0.25045397877693176,"212":0.29624900221824646,"213":-1.8290131092071533,"214":-0.5350618958473206,"215":0.23299652338027954,"216":-0.7157296538352966,"217":-0.13151231408119202,"218":0.5530368685722351,"219":0.1436394900083542,"220":-0.7365135550498962,"221":-0.7235265374183655,"222":0.2640255391597748,"223":0.4627797603607178,"224":0.053239233791828156,"225":-0.11777347326278687,"226":0.890194833278656,"227":0.9630210995674133,"228":-0.18420195579528809,"229":0.8943645358085632,"230":-1.2180856466293335,"231":-1.6897481679916382,"232":-0.3399604856967926,"233":-0.714938759803772,"234":-0.4210259020328522,"235":0.9388276934623718,"236":0.16458143293857574,"237":-1.1955029964447021,"238":0.4349084198474884,"239":0.25501716136932373,"240":-0.364305704832077,"241":0.13363397121429443,"242":-0.49974504113197327,"243":0.2622876465320587,"244":0.9134001135826111,"245":0.13884983956813812,"246":-0.4043814539909363,"247":0.4729250967502594,"248":1.062790870666504,"249":-0.3146897554397583,"250":0.27853870391845703,"251":0.17261500656604767,"252":0.04869655519723892,"253":0.15666791796684265,"254":1.0403311252593994,"255":-0.4322575330734253,"256":0.39337965846061707,"257":-1.2166521549224854,"258":2.0769588947296143,"259":-1.0634992122650146,"260":1.3385746479034424,"261":-0.7471662759780884,"262":0.3224409520626068,"263":2.1238300800323486,"264":-0.3481326103210449,"265":0.6814982295036316,"266":0.5557336211204529,"267":-0.3334909975528717,"268":-2.2111995220184326,"269":-2.048447847366333,"270":1.4647725820541382,"271":1.04985773563385,"272":-3.8177778720855713,"273":1.7877501249313354,"274":2.681817054748535,"275":-1.3644832372665405,"276":0.3868979513645172,"277":-1.0475023984909058,"278":-3.613611936569214,"279":-0.4692918062210083,"280":-1.4213454723358154,"281":2.4070322513580322,"282":1.4938632249832153,"283":-1.2227628231048584,"284":-1.3867262601852417,"285":-2.353015184402466,"286":-0.2849638760089874,"287":1.1499422788619995,"288":0.2964416444301605,"289":0.5164502263069153,"290":0.11680597066879272,"291":-0.741485595703125,"292":-0.13546226918697357,"293":0.6057742238044739,"294":-1.333278775215149,"295":-0.22587716579437256,"296":0.050816986709833145,"297":1.4399231672286987,"298":-0.34368452429771423,"299":0.5294607281684875,"300":-0.6504167914390564,"301":-0.007153775542974472,"302":0.2298755943775177,"303":0.8760241866111755,"304":-0.2555365264415741,"305":-0.8179391026496887,"306":0.3311160206794739,"307":0.7092612385749817,"308":-0.32866308093070984,"309":-0.27550387382507324,"310":-1.1794437170028687,"311":-0.7362353205680847,"312":-0.20720019936561584,"313":0.43619421124458313,"314":0.9199007749557495,"315":0.26901975274086,"316":-0.4677227735519409,"317":0.1600402444601059,"318":-0.3647688031196594,"319":0.2128504067659378,"320":-0.7712738513946533,"321":0.6775920987129211,"322":-0.12035957723855972,"323":0.8046442866325378,"324":-0.7925261855125427,"325":0.2584085464477539,"326":0.657378077507019,"327":0.587015688419342,"328":-0.2873091995716095,"329":1.524761438369751,"330":-0.5450465083122253,"331":-0.5386576056480408,"332":1.5738015174865723,"333":0.37738335132598877,"334":1.602963924407959,"335":-0.1401943415403366,"336":-0.3910438120365143,"337":-0.801651656627655,"338":-0.9215343594551086,"339":-0.4134727120399475,"340":-0.16534604132175446,"341":0.4744102358818054,"342":0.3612433969974518,"343":-0.634662389755249,"344":-0.7224898338317871,"345":-0.47744220495224,"346":1.6347846984863281,"347":1.2689275741577148,"348":0.21197322010993958,"349":0.3414435386657715,"350":-0.5501481294631958,"351":-0.5130540728569031,"352":-1.7848587036132812,"353":0.18189740180969238,"354":0.8369671106338501,"355":1.122244954109192,"356":1.6246916055679321,"357":-0.4477314352989197,"358":2.8780221939086914,"359":0.5038854479789734,"360":0.6021049618721008,"361":0.9987331628799438,"362":1.5855003595352173,"363":-1.4143410921096802,"364":0.10117147117853165,"365":0.012525294907391071,"366":0.4110037088394165,"367":2.264202833175659,"368":-1.542707920074463,"369":-0.45124760270118713,"370":0.040640536695718765,"371":0.22022871673107147,"372":-0.15836164355278015,"373":0.6831106543540955,"374":-2.4806158542633057,"375":-0.8689677119255066,"376":-2.5412240028381348,"377":2.6649649143218994,"378":0.4192761480808258,"379":-0.19863416254520416,"380":-1.6463432312011719,"381":-1.3513165712356567,"382":-0.2545597553253174,"383":0.14547047019004822,"384":-4.03077507019043,"385":-1.8964835405349731,"386":-0.19703342020511627,"387":-0.18742968142032623,"388":0.6205064058303833,"389":-3.760310173034668,"390":0.7855832576751709,"391":-1.4878913164138794,"392":-1.3496280908584595,"393":-0.6238266825675964,"394":3.659717321395874,"395":-0.3222818970680237,"396":0.24665282666683197,"397":-1.5356028079986572,"398":0.9345892667770386,"399":0.7922844290733337,"400":-0.8675974607467651,"401":-0.7963409423828125,"402":2.886715888977051,"403":-0.6080145239830017,"404":-1.449637532234192,"405":0.21748095750808716,"406":-1.3242698907852173,"407":-0.08435355126857758,"408":1.9361258745193481,"409":-0.011864293366670609,"410":0.9794078469276428,"411":-3.2492642402648926,"412":-0.38582879304885864,"413":-0.2403246909379959,"414":0.7442335486412048,"415":0.36160406470298767,"416":4.263113021850586,"417":1.3515808582305908,"418":1.2766079902648926,"419":-0.5459208488464355,"420":0.8871164917945862,"421":0.06503152847290039,"422":1.0666148662567139,"423":0.9728838801383972,"424":0.3609587550163269,"425":-0.9119880795478821,"426":-1.3273683786392212,"427":-1.1448748111724854,"428":0.579318642616272,"429":1.5809838771820068,"430":-1.2254488468170166,"431":-1.2161433696746826,"432":-0.6600503325462341,"433":1.6749855279922485,"434":-0.16825424134731293,"435":-0.33664342761039734,"436":0.17188258469104767,"437":1.3786417245864868,"438":-0.774389922618866,"439":-2.098703622817993,"440":-1.2065365314483643,"441":0.7384584546089172,"442":-2.0714597702026367,"443":1.6284786462783813,"444":-2.6153945922851562,"445":-3.5281105041503906,"446":-3.3087730407714844,"447":-2.6669528484344482,"448":-2.066699266433716,"449":-0.21219709515571594,"450":0.04819058999419212,"451":0.5827437043190002,"452":0.5440613627433777,"453":-3.0110998153686523,"454":5.484957218170166,"455":-1.8010960817337036,"456":-0.9954801797866821,"457":0.06898703426122665,"458":3.329191207885742,"459":-0.9268302917480469,"460":-0.3949151337146759,"461":-0.09749307483434677,"462":0.3592381477355957,"463":0.8371649384498596,"464":0.5069467425346375,"465":-1.1432074308395386,"466":1.062779188156128,"467":-2.5341413021087646,"468":-0.5709196329116821,"469":2.170166015625,"470":-3.290701389312744,"471":-0.10368888825178146,"472":-1.867767095565796,"473":2.8114635944366455,"474":1.9509540796279907,"475":0.1066233292222023,"476":-1.0409947633743286,"477":-2.62591290473938,"478":-0.9502001404762268,"479":-1.802242398262024,"480":0.015211683697998524,"481":-2.1117069721221924,"482":-3.161201000213623,"483":0.9656628370285034,"484":-0.3506430387496948,"485":1.74825918674469,"486":2.16599702835083,"487":2.898496150970459,"488":2.070782423019409,"489":0.8626701235771179,"490":-1.8517926931381226,"491":0.6933205127716064,"492":-0.3772350549697876,"493":2.5539755821228027,"494":-2.1784210205078125,"495":-3.203413724899292,"496":2.5290071964263916,"497":0.008426392450928688,"498":-1.7696465253829956,"499":1.5909197330474854,"500":-1.861263394355774,"501":-2.0299651622772217,"502":1.889284610748291,"503":-1.1937042474746704,"504":1.625154972076416,"505":-1.1307871341705322,"506":-0.3966446816921234,"507":3.1824986934661865,"508":0.02880994975566864,"509":-0.11093840003013611,"510":1.5400762557983398,"511":1.1741034984588623,"512":1.648789405822754,"513":4.232747554779053,"514":-1.6523865461349487,"515":-0.5562630891799927,"516":0.8429452776908875,"517":-0.2882547974586487,"518":0.4831347167491913,"519":3.499444007873535,"520":0.03980524465441704,"521":-0.2984551191329956,"522":-0.7315821647644043,"523":-1.16916024684906,"524":-0.6682316064834595,"525":-0.44300317764282227,"526":1.174372673034668,"527":-0.12607966363430023,"528":-0.3041074573993683,"529":0.3653402328491211,"530":0.3657221496105194,"531":-0.7606295943260193,"532":0.3925206661224365,"533":1.2606269121170044,"534":-1.1886241436004639,"535":-0.404918909072876,"536":-1.6995041370391846,"537":0.5824938416481018,"538":0.7249895930290222,"539":0.8259539008140564,"540":-0.1471228301525116,"541":-2.3640570640563965,"542":-2.619580030441284,"543":-1.5272952318191528,"544":-0.22845041751861572,"545":0.07928537577390671,"546":0.7927975654602051,"547":-0.8642824292182922,"548":-0.5346620678901672,"549":-0.20033439993858337,"550":1.3202388286590576,"551":-0.45468607544898987,"552":-0.7122082114219666,"553":0.09695190191268921,"554":1.8669744729995728,"555":-1.5958805084228516,"556":1.0324959754943848,"557":-1.2286409139633179,"558":0.15771204233169556,"559":-0.3000987470149994,"560":-1.5970498323440552,"561":-1.4197455644607544,"562":-0.04061917960643768,"563":0.7633093595504761,"564":-0.02316671423614025,"565":0.5050230026245117,"566":-0.2648225426673889,"567":-0.2594150900840759,"568":-1.3829160928726196,"569":1.6685941219329834,"570":1.8126435279846191,"571":-1.5778025388717651,"572":-0.288735955953598,"573":-0.865645706653595,"574":0.06630229204893112,"575":-1.1862491369247437,"576":-2.3679144382476807,"577":-0.3378167450428009,"578":-1.2219653129577637,"579":0.02438771165907383,"580":0.03846895694732666,"581":-0.6754719614982605,"582":0.14367364346981049,"583":-1.2325836420059204,"584":-0.07433294504880905,"585":1.6946935653686523,"586":0.8802076578140259,"587":1.3090195655822754,"588":0.3931005299091339,"589":-1.2388666868209839,"590":-0.41418588161468506,"591":0.1802252233028412,"592":-0.9099499583244324,"593":-1.3566310405731201,"594":-0.6965035200119019,"595":0.13617251813411713,"596":-0.9628163576126099,"597":-0.46755629777908325,"598":-0.992244303226471,"599":-0.3473326563835144,"600":0.13127852976322174,"601":2.114452600479126,"602":-0.049267541617155075,"603":-1.7244421243667603,"604":-1.7844775915145874,"605":-1.6198071241378784,"606":0.12736167013645172,"607":0.6041956543922424,"608":-2.79174542427063,"609":0.1845991313457489,"610":0.3886165916919708,"611":-0.1546286940574646,"612":-0.06384804099798203,"613":-0.1490657776594162,"614":-1.1438970565795898,"615":-0.2679329812526703,"616":-0.8863427639007568,"617":-0.46050047874450684,"618":0.5484357476234436,"619":0.8831488490104675,"620":0.11808087676763535,"621":-0.7621484994888306,"622":-0.22655685245990753,"623":1.2978087663650513,"624":-1.389386773109436,"625":0.4628106355667114,"626":0.04895004257559776,"627":-1.0398012399673462,"628":0.24550166726112366,"629":0.8043526411056519,"630":-0.47728219628334045,"631":0.06345640122890472,"632":-0.8892043232917786,"633":0.703909158706665,"634":-0.18041105568408966,"635":-0.35846784710884094,"636":-2.258389711380005,"637":-0.02128513902425766,"638":-0.49425363540649414,"639":0.08545348048210144}},"inputHidden":{"rows":20,"columns":20,"weights":{"0":2.825080633163452,"1":2.7291712760925293,"2":0.8272712230682373,"3":0.8741925358772278,"4":2.0727217197418213,"5":-2.295997142791748,"6":1.8974707126617432,"7":3.6183886528015137,"8":-1.8242056369781494,"9":1.5528573989868164,"10":-2.6508634090423584,"11":-1.9827702045440674,"12":-0.18548709154129028,"13":-4.252412796020508,"14":0.8367297053337097,"15":-3.360952138900757,"16":-0.5273503065109253,"17":4.8741936683654785,"18":0.856880247592926,"19":2.272916316986084,"20":-1.1203720569610596,"21":-1.4596105813980103,"22":4.923593997955322,"23":-1.5000903606414795,"24":-0.5480379462242126,"25":0.8483116626739502,"26":-0.44051095843315125,"27":-1.8468637466430664,"28":5.297592639923096,"29":-5.7954630851745605,"30":2.7111599445343018,"31":-1.453332781791687,"32":-6.294317722320557,"33":-3.714585304260254,"34":2.6333446502685547,"35":9.054245948791504,"36":1.5089794397354126,"37":3.280984401702881,"38":-1.437885046005249,"39":3.9259233474731445,"40":-1.3020660877227783,"41":0.6917027831077576,"42":-2.2808737754821777,"43":0.42245519161224365,"44":-0.9181855320930481,"45":-0.6190768480300903,"46":-0.7392868399620056,"47":-2.1703507900238037,"48":-1.6527659893035889,"49":-0.19465354084968567,"50":2.255866765975952,"51":-0.5857675671577454,"52":1.6578137874603271,"53":2.803346872329712,"54":-1.7502332925796509,"55":3.6966073513031006,"56":0.4123934805393219,"57":0.7269076704978943,"58":2.669952154159546,"59":0.32619279623031616,"60":0.8935173749923706,"61":0.24296575784683228,"62":0.9793624877929688,"63":-5.444952011108398,"64":0.8566281199455261,"65":0.8358032703399658,"66":-2.3225600719451904,"67":-4.070746898651123,"68":-1.9831880331039429,"69":-3.6585888862609863,"70":-5.968981742858887,"71":0.6047281622886658,"72":2.7140586376190186,"73":-2.2133212089538574,"74":0.9778552651405334,"75":3.827803373336792,"76":-0.5442489981651306,"77":-2.0005853176116943,"78":-3.000749349594116,"79":-1.0639137029647827,"80":1.6335607767105103,"81":2.4124855995178223,"82":3.0368127822875977,"83":5.527156829833984,"84":-0.1100962907075882,"85":0.957859218120575,"86":-2.297302484512329,"87":2.009916305541992,"88":4.778811454772949,"89":-0.23596696555614471,"90":3.21889591217041,"91":-2.2055373191833496,"92":2.0051968097686768,"93":-7.7775373458862305,"94":0.7964253425598145,"95":0.03451431542634964,"96":-5.260403633117676,"97":-4.2040276527404785,"98":-2.4519846439361572,"99":1.4180666208267212,"100":-1.6027064323425293,"101":1.9128727912902832,"102":3.909376859664917,"103":-1.706813931465149,"104":-3.5442869663238525,"105":-0.12646415829658508,"106":2.1604385375976562,"107":-2.1031758785247803,"108":-0.6390015482902527,"109":-3.022946834564209,"110":-1.2067564725875854,"111":-3.5741636753082275,"112":1.4778584241867065,"113":-7.751954555511475,"114":-1.647453784942627,"115":-2.8071136474609375,"116":-0.7715607285499573,"117":5.425109386444092,"118":-0.6972878575325012,"119":3.299546957015991,"120":-0.6350486278533936,"121":5.084991931915283,"122":-3.022135019302368,"123":6.3602399826049805,"124":0.13561272621154785,"125":-1.187900424003601,"126":-2.631135940551758,"127":0.6003594398498535,"128":1.2212399244308472,"129":-3.283916711807251,"130":2.536921501159668,"131":-3.465334892272949,"132":2.1134345531463623,"133":-3.988004684448242,"134":-0.5631001591682434,"135":8.572850227355957,"136":-0.7878910899162292,"137":3.0425491333007812,"138":0.3945406675338745,"139":1.446424961090088,"140":0.32360291481018066,"141":-1.3146759271621704,"142":-0.3492726981639862,"143":-0.6220696568489075,"144":-2.001049518585205,"145":-0.8811997771263123,"146":-0.42073914408683777,"147":-0.7251273393630981,"148":-3.7429914474487305,"149":-1.7830345630645752,"150":4.486262321472168,"151":-2.0411057472229004,"152":-1.3909010887145996,"153":2.9388208389282227,"154":0.6259943246841431,"155":2.4024159908294678,"156":-0.05399150773882866,"157":-3.816633462905884,"158":-0.7137066721916199,"159":3.9552364349365234,"160":-0.7257458567619324,"161":-0.9016360640525818,"162":4.101540565490723,"163":-0.14275865256786346,"164":-0.043983716517686844,"165":1.3690975904464722,"166":5.491580963134766,"167":0.8844033479690552,"168":-0.04170002415776253,"169":-0.37829893827438354,"170":-0.4225198030471802,"171":4.416020393371582,"172":-3.1094706058502197,"173":-0.19642257690429688,"174":0.7390744686126709,"175":1.1608431339263916,"176":0.3010680377483368,"177":-1.055357813835144,"178":-2.583313226699829,"179":-0.5232226252555847,"180":4.618923664093018,"181":-1.0929582118988037,"182":1.0594043731689453,"183":-2.023843765258789,"184":0.4885351359844208,"185":4.683867931365967,"186":-0.8536774516105652,"187":3.3720924854278564,"188":2.5868375301361084,"189":1.5825608968734741,"190":-3.0063071250915527,"191":3.6900486946105957,"192":-1.6383473873138428,"193":-7.955027103424072,"194":2.443361282348633,"195":2.0332400798797607,"196":0.9838968515396118,"197":-2.5894758701324463,"198":-3.0781586170196533,"199":3.6633567810058594,"200":-0.33001527190208435,"201":-3.404662847518921,"202":-2.5891060829162598,"203":-3.3783583641052246,"204":-0.544912576675415,"205":5.384652137756348,"206":-1.7540415525436401,"207":-0.13774816691875458,"208":-4.53682804107666,"209":1.9102736711502075,"210":3.2482595443725586,"211":1.025376558303833,"212":-0.9044588208198547,"213":-2.8546555042266846,"214":0.7766631841659546,"215":-3.9033071994781494,"216":-3.8525590896606445,"217":3.030241012573242,"218":-2.7501044273376465,"219":-8.647403717041016,"220":-3.6440908908843994,"221":1.8673570156097412,"222":-1.4250062704086304,"223":2.0812764167785645,"224":-2.666107416152954,"225":-1.5629749298095703,"226":3.3356943130493164,"227":0.2716867923736572,"228":-0.8911997079849243,"229":-3.4123899936676025,"230":-3.2011382579803467,"231":-5.348632335662842,"232":-3.9111130237579346,"233":-4.464746952056885,"234":1.2279413938522339,"235":5.152554512023926,"236":-4.3680901527404785,"237":-0.2444753497838974,"238":-2.6327030658721924,"239":-0.5582237243652344,"240":3.234004259109497,"241":2.390306234359741,"242":1.419243574142456,"243":-0.7799252867698669,"244":2.12905216217041,"245":1.9607843160629272,"246":1.5914796590805054,"247":-1.1381503343582153,"248":-3.749627113342285,"249":-1.3983041048049927,"250":-1.4169529676437378,"251":-1.821871042251587,"252":-4.622870922088623,"253":3.686528205871582,"254":2.59851336479187,"255":0.3362518846988678,"256":-1.4254953861236572,"257":1.740267038345337,"258":1.4583996534347534,"259":-4.768939971923828,"260":0.2665923535823822,"261":0.7956534624099731,"262":0.6852566599845886,"263":-1.6470773220062256,"264":-0.07940109819173813,"265":0.7253128290176392,"266":2.317176580429077,"267":1.1536660194396973,"268":2.3368685245513916,"269":1.268191933631897,"270":-0.9878100156784058,"271":1.2515407800674438,"272":0.4061310589313507,"273":-1.1052085161209106,"274":-0.8450577855110168,"275":1.2572399377822876,"276":-0.2807476818561554,"277":-0.1114969328045845,"278":-1.1850275993347168,"279":-1.0513111352920532,"280":0.5055542588233948,"281":0.049151867628097534,"282":-2.757838726043701,"283":1.6308168172836304,"284":0.8043137192726135,"285":0.008569223806262016,"286":3.472489595413208,"287":3.516940116882324,"288":-0.7956150770187378,"289":0.7586288452148438,"290":-0.8725677132606506,"291":1.8699662685394287,"292":-2.1780779361724854,"293":1.0403422117233276,"294":2.5940237045288086,"295":-0.08754906058311462,"296":-0.0015569583047181368,"297":1.4835255146026611,"298":-0.21464960277080536,"299":-1.0591458082199097,"300":-0.5493758916854858,"301":1.5615971088409424,"302":0.0910450741648674,"303":1.5803196430206299,"304":1.9617291688919067,"305":1.104217290878296,"306":1.0359179973602295,"307":0.18156306445598602,"308":-0.9475982785224915,"309":0.3917844295501709,"310":-2.426827907562256,"311":0.4674471914768219,"312":1.4711823463439941,"313":-0.3641771376132965,"314":-0.7543579339981079,"315":1.235530138015747,"316":1.2656961679458618,"317":-1.5182905197143555,"318":0.5770584940910339,"319":-0.10379603505134583,"320":-2.5711491107940674,"321":2.9998323917388916,"322":3.9617161750793457,"323":-0.6585071682929993,"324":-2.2100915908813477,"325":1.020107388496399,"326":1.655791163444519,"327":1.371802806854248,"328":3.326592445373535,"329":5.296026229858398,"330":2.3958518505096436,"331":-3.2192654609680176,"332":0.2513691484928131,"333":3.081747531890869,"334":-3.0639171600341797,"335":7.6801557540893555,"336":1.8523451089859009,"337":-1.7815823554992676,"338":-1.3046306371688843,"339":1.5411258935928345,"340":0.9455116987228394,"341":-0.9795455932617188,"342":0.31340935826301575,"343":3.3142499923706055,"344":-0.42434751987457275,"345":-0.02287375181913376,"346":-2.1312015056610107,"347":0.4552709460258484,"348":-0.10202764719724655,"349":-2.3389928340911865,"350":-2.7709014415740967,"351":1.8655965328216553,"352":-6.146381378173828,"353":-2.3164215087890625,"354":3.999253034591675,"355":5.224918842315674,"356":-4.1458048820495605,"357":-0.9974467158317566,"358":-1.5977568626403809,"359":0.5111581683158875,"360":-2.1754345893859863,"361":0.8138444423675537,"362":-0.4761922359466553,"363":0.04274981468915939,"364":-2.761118173599243,"365":-3.357975959777832,"366":3.1173276901245117,"367":-0.8783583045005798,"368":-0.005238675512373447,"369":3.1760008335113525,"370":0.7406317591667175,"371":-5.494948863983154,"372":-3.445462942123413,"373":2.063718318939209,"374":-1.1697461605072021,"375":5.123481273651123,"376":5.428637504577637,"377":-0.8196579217910767,"378":5.8032917976379395,"379":0.7732772827148438,"380":4.156702518463135,"381":-0.1277826726436615,"382":3.4725863933563232,"383":-1.9879943132400513,"384":2.108581781387329,"385":4.3295440673828125,"386":-3.6699721813201904,"387":1.323646903038025,"388":-4.079421043395996,"389":3.7595083713531494,"390":4.753142833709717,"391":2.637266159057617,"392":-2.732151508331299,"393":1.0178018808364868,"394":3.867711305618286,"395":-0.20469261705875397,"396":-1.5253537893295288,"397":4.516682147979736,"398":0.0702790766954422,"399":-1.4016326665878296}},"inputBias":{"rows":20,"columns":1,"weights":{"0":-0.08739284425973892,"1":0.2963196039199829,"2":7.451728343963623,"3":0.10672029852867126,"4":-2.8433609008789062,"5":0.06607812643051147,"6":-0.11998091638088226,"7":0.5580620765686035,"8":0.1604473739862442,"9":-3.818258762359619,"10":1.2952933311462402,"11":-0.14246055483818054,"12":-0.16563892364501953,"13":0.1977517306804657,"14":-0.17545562982559204,"15":0.029751600697636604,"16":-2.15385365486145,"17":-0.01279106829315424,"18":-0.11398760974407196,"19":0.015586566179990768}},"forgetMatrix":{"rows":20,"columns":32,"weights":{"0":0.1275162547826767,"1":-0.41710954904556274,"2":1.7374465465545654,"3":-1.5496952533721924,"4":0.16453807055950165,"5":0.49875980615615845,"6":-0.7858025431632996,"7":-4.885934829711914,"8":-0.21910102665424347,"9":0.24758973717689514,"10":1.8776373863220215,"11":-1.9004961252212524,"12":-0.4069845974445343,"13":-1.1252875328063965,"14":-0.013484491035342216,"15":-1.2082862854003906,"16":0.6793485283851624,"17":-1.203685998916626,"18":-1.8088370561599731,"19":0.43511754274368286,"20":-0.4916923940181732,"21":1.2619099617004395,"22":0.8861089944839478,"23":1.0525418519973755,"24":-0.9500508904457092,"25":0.8444873690605164,"26":-2.3665106296539307,"27":-0.2536669373512268,"28":-2.311426877975464,"29":-1.3854494094848633,"30":1.1460555791854858,"31":0.17768916487693787,"32":-0.8342618346214294,"33":0.5068612098693848,"34":-1.509604573249817,"35":-0.7215837836265564,"36":-1.9315625429153442,"37":-1.672902226448059,"38":1.55165433883667,"39":3.9948651790618896,"40":-1.0345792770385742,"41":-0.9856060147285461,"42":-1.1842389106750488,"43":-1.5630813837051392,"44":2.1841821670532227,"45":1.18221914768219,"46":-1.044028401374817,"47":0.5792627334594727,"48":0.9710748791694641,"49":2.0417866706848145,"50":0.5245523452758789,"51":-2.615701913833618,"52":2.147752046585083,"53":2.3493924140930176,"54":0.3297941982746124,"55":-2.569558620452881,"56":-0.6453173756599426,"57":-1.306257724761963,"58":2.0604331493377686,"59":-0.3110627233982086,"60":2.734266996383667,"61":0.2129552960395813,"62":0.8590192198753357,"63":-3.733635187149048,"64":2.0122785568237305,"65":0.6768849492073059,"66":0.20871897041797638,"67":-0.4693465828895569,"68":-1.51430344581604,"69":2.9658658504486084,"70":-2.29716420173645,"71":0.4006350338459015,"72":0.6338328719139099,"73":2.2764182090759277,"74":0.18355692923069,"75":-2.950019359588623,"76":1.6685229539871216,"77":2.229440689086914,"78":2.815497875213623,"79":-1.0486690998077393,"80":0.15897445380687714,"81":0.5691338181495667,"82":-2.697202205657959,"83":2.513967514038086,"84":1.5165687799453735,"85":0.2585448622703552,"86":1.6159658432006836,"87":-1.2802566289901733,"88":-0.2997410297393799,"89":1.1906932592391968,"90":3.7043001651763916,"91":-0.3959593176841736,"92":-1.656516432762146,"93":1.393926739692688,"94":-1.9192968606948853,"95":-0.7734313011169434,"96":2.863532304763794,"97":-2.0429210662841797,"98":-2.4568264484405518,"99":-1.728800654411316,"100":-1.6583846807479858,"101":1.617730975151062,"102":-1.2418491840362549,"103":1.2421122789382935,"104":1.8315787315368652,"105":-1.303583025932312,"106":-0.16238698363304138,"107":2.4908735752105713,"108":1.176567792892456,"109":3.327181816101074,"110":-0.6751178503036499,"111":0.1378994882106781,"112":1.3634788990020752,"113":1.274759292602539,"114":2.3212106227874756,"115":0.01458706520497799,"116":0.6276089549064636,"117":0.2006227970123291,"118":-0.8481236100196838,"119":1.2065913677215576,"120":0.6073886752128601,"121":-0.4436695873737335,"122":-1.8951972723007202,"123":1.9438297748565674,"124":0.7695338726043701,"125":0.8676230311393738,"126":0.3253666162490845,"127":3.156698703765869,"128":-3.6366167068481445,"129":1.4087653160095215,"130":-0.5131930112838745,"131":1.2885726690292358,"132":2.5438156127929688,"133":-1.6144107580184937,"134":0.9420744776725769,"135":-2.6041927337646484,"136":1.6421350240707397,"137":-0.9689162969589233,"138":0.7893772125244141,"139":1.4261589050292969,"140":-1.695935606956482,"141":-2.5589938163757324,"142":1.4171103239059448,"143":0.9062460064888,"144":-1.2962591648101807,"145":-0.3778836131095886,"146":1.0971300601959229,"147":0.5169086456298828,"148":-1.0973474979400635,"149":1.0967488288879395,"150":2.1434221267700195,"151":2.2172906398773193,"152":-0.2750917375087738,"153":-1.5135506391525269,"154":-2.3393003940582275,"155":-0.3030497431755066,"156":-0.7202426791191101,"157":-0.8797347545623779,"158":-2.2123184204101562,"159":2.627746820449829,"160":0.8713860511779785,"161":-1.4521985054016113,"162":-1.4162254333496094,"163":0.1279272735118866,"164":-1.877727746963501,"165":0.2620190680027008,"166":-2.043485164642334,"167":-2.2981607913970947,"168":0.29070618748664856,"169":0.7102546095848083,"170":0.9882559180259705,"171":-0.1359490305185318,"172":-0.8570433855056763,"173":-0.029975632205605507,"174":-0.23030294477939606,"175":1.7904750108718872,"176":1.5755565166473389,"177":-0.8521576523780823,"178":-1.6375465393066406,"179":-1.3376473188400269,"180":-0.1251276433467865,"181":-3.0120677947998047,"182":1.817132830619812,"183":-0.4495595097541809,"184":3.34041428565979,"185":-3.447993040084839,"186":-0.9845741987228394,"187":2.4503676891326904,"188":-0.5052496194839478,"189":1.9937034845352173,"190":3.004823684692383,"191":4.114315032958984,"192":-1.8964234590530396,"193":-0.5846881866455078,"194":2.888352394104004,"195":0.8937523365020752,"196":-1.3449205160140991,"197":0.6444842219352722,"198":-0.4752001464366913,"199":-1.7934030294418335,"200":0.10925326496362686,"201":-0.0091333519667387,"202":1.1499302387237549,"203":0.27291032671928406,"204":-0.2617679238319397,"205":-1.468629240989685,"206":0.22331103682518005,"207":3.2636961936950684,"208":-0.48885059356689453,"209":1.93013334274292,"210":1.5994025468826294,"211":-1.4131550788879395,"212":1.1905549764633179,"213":-0.4721154272556305,"214":0.40132635831832886,"215":2.5479116439819336,"216":2.6450610160827637,"217":1.6212100982666016,"218":0.7056506872177124,"219":0.271349161863327,"220":0.7611804008483887,"221":1.343510627746582,"222":2.5322988033294678,"223":1.0277554988861084,"224":0.8473926782608032,"225":-1.2619073390960693,"226":0.7222835421562195,"227":-0.18737246096134186,"228":-1.5674357414245605,"229":-0.5455227494239807,"230":2.5441081523895264,"231":-1.7415395975112915,"232":-0.9087383151054382,"233":1.0119881629943848,"234":1.9076296091079712,"235":-0.5882951617240906,"236":3.462129831314087,"237":0.808535099029541,"238":0.028014259412884712,"239":1.3553860187530518,"240":-0.06917070597410202,"241":0.24500378966331482,"242":1.1411411762237549,"243":-0.14703811705112457,"244":-0.0480373315513134,"245":2.103882074356079,"246":-1.0705134868621826,"247":-1.7433886528015137,"248":-0.5654846429824829,"249":0.7735410332679749,"250":3.8804922103881836,"251":-1.485739827156067,"252":0.033622194081544876,"253":-0.14363569021224976,"254":1.542433500289917,"255":0.4801234006881714,"256":2.7164924144744873,"257":-0.5738224387168884,"258":1.076985478401184,"259":-1.1839354038238525,"260":-1.4492359161376953,"261":0.7788288593292236,"262":2.303762197494507,"263":0.8104624152183533,"264":0.16043785214424133,"265":-0.966651439666748,"266":-2.232212543487549,"267":0.11039227247238159,"268":1.6561789512634277,"269":-0.42305901646614075,"270":-0.15446729958057404,"271":-1.5382881164550781,"272":0.3000320494174957,"273":0.1809649020433426,"274":0.42150697112083435,"275":0.2290576696395874,"276":-0.3249265253543854,"277":-0.8868778944015503,"278":1.7259222269058228,"279":0.357685387134552,"280":3.1873276233673096,"281":-2.357954740524292,"282":-0.7803214192390442,"283":-0.7072880268096924,"284":1.2920891046524048,"285":0.877386748790741,"286":-1.1654863357543945,"287":-0.27593886852264404,"288":2.1396961212158203,"289":-0.5347805619239807,"290":2.1832375526428223,"291":-3.4687511920928955,"292":-0.4678431749343872,"293":-1.0227364301681519,"294":-2.181734085083008,"295":0.052408162504434586,"296":-1.2024574279785156,"297":1.9228463172912598,"298":2.5198588371276855,"299":2.4201366901397705,"300":1.0683892965316772,"301":3.49615216255188,"302":0.88031005859375,"303":-0.4168524742126465,"304":0.3074784278869629,"305":1.612178921699524,"306":1.4905099868774414,"307":-0.5336663722991943,"308":0.649673581123352,"309":0.4604971706867218,"310":-1.0041087865829468,"311":-1.8512746095657349,"312":-0.02249271050095558,"313":-0.28606221079826355,"314":-0.2687123417854309,"315":0.1765722632408142,"316":-2.13985538482666,"317":-0.2657102644443512,"318":-2.011094093322754,"319":0.3570365309715271,"320":-1.9981565475463867,"321":0.5536314845085144,"322":-0.597828209400177,"323":0.051431089639663696,"324":1.4465678930282593,"325":-1.8707603216171265,"326":-0.5330926179885864,"327":-0.02608550526201725,"328":-0.5648780465126038,"329":1.673581600189209,"330":-0.4477878510951996,"331":1.7055000066757202,"332":-0.7548654675483704,"333":-1.2476187944412231,"334":1.6987448930740356,"335":-2.8882484436035156,"336":-3.263914108276367,"337":-2.3392443656921387,"338":0.0998334065079689,"339":1.4150807857513428,"340":-1.75830078125,"341":-3.3188390731811523,"342":0.7892367243766785,"343":1.2205742597579956,"344":-0.45875364542007446,"345":0.02863330952823162,"346":0.5752110481262207,"347":-1.4788813591003418,"348":0.7688300609588623,"349":2.5981335639953613,"350":-0.8504087924957275,"351":3.1950461864471436,"352":0.8116733431816101,"353":0.7923210263252258,"354":-2.6365911960601807,"355":0.3634521961212158,"356":1.1679044961929321,"357":1.7229068279266357,"358":1.0331027507781982,"359":1.1077308654785156,"360":-0.7239556908607483,"361":1.1909948587417603,"362":0.7522955536842346,"363":-2.7652225494384766,"364":0.13385866582393646,"365":0.4494190216064453,"366":0.7031802535057068,"367":1.5082428455352783,"368":0.870749294757843,"369":-0.8094655871391296,"370":-1.7838622331619263,"371":-0.5999844074249268,"372":-1.0364234447479248,"373":0.2644880712032318,"374":1.342287302017212,"375":0.16400142014026642,"376":-1.2367266416549683,"377":0.24397747218608856,"378":0.27751579880714417,"379":1.1242070198059082,"380":0.7188918590545654,"381":0.26243558526039124,"382":-0.9156678318977356,"383":-0.770331621170044,"384":0.44645270705223083,"385":-0.6584739685058594,"386":-1.483162522315979,"387":0.8942708969116211,"388":1.1896467208862305,"389":1.1958470344543457,"390":-1.1043510437011719,"391":-2.594388723373413,"392":0.6805067658424377,"393":-0.6353517174720764,"394":1.0783213376998901,"395":1.143282175064087,"396":0.39461204409599304,"397":1.6429988145828247,"398":0.35255712270736694,"399":0.28345540165901184,"400":2.8338143825531006,"401":1.6890524625778198,"402":-1.410431146621704,"403":2.3800299167633057,"404":1.148024082183838,"405":-0.11172772198915482,"406":2.740618944168091,"407":0.9783505201339722,"408":-2.95806622505188,"409":0.1734684854745865,"410":-0.27018555998802185,"411":2.805203676223755,"412":-0.6062982678413391,"413":0.0911124125123024,"414":0.8624241948127747,"415":1.9150365591049194,"416":0.848345160484314,"417":0.4214652180671692,"418":0.791033148765564,"419":-1.301900029182434,"420":0.04214298352599144,"421":-0.618340015411377,"422":1.4599915742874146,"423":-0.8420063853263855,"424":1.640142560005188,"425":-2.2144293785095215,"426":0.25145232677459717,"427":1.109825611114502,"428":-0.796902596950531,"429":-0.1856660395860672,"430":0.23528246581554413,"431":-1.5349035263061523,"432":1.0472180843353271,"433":-0.12275344133377075,"434":2.892866611480713,"435":0.2614940106868744,"436":-1.1026747226715088,"437":-1.8261150121688843,"438":-0.8235184550285339,"439":0.4833236038684845,"440":0.8502795696258545,"441":-0.6511165499687195,"442":-1.2994811534881592,"443":0.3519430160522461,"444":0.04217192903161049,"445":-1.2636932134628296,"446":-0.7441123127937317,"447":1.3974521160125732,"448":0.6684567928314209,"449":-0.10842929780483246,"450":-0.5524609684944153,"451":0.30715492367744446,"452":-0.2525264620780945,"453":1.1206659078598022,"454":-0.38163408637046814,"455":0.7969628572463989,"456":1.259093165397644,"457":2.437656879425049,"458":-2.255472183227539,"459":0.645391583442688,"460":1.3842259645462036,"461":0.9658001661300659,"462":-0.02287639118731022,"463":0.010299988090991974,"464":-0.8178400993347168,"465":1.3494595289230347,"466":-1.5533632040023804,"467":1.4404972791671753,"468":0.3752234876155853,"469":-0.7133206725120544,"470":1.1896666288375854,"471":-2.6840360164642334,"472":1.7541831731796265,"473":-1.6824567317962646,"474":2.9531071186065674,"475":-2.4681124687194824,"476":0.500450611114502,"477":2.0849595069885254,"478":0.6383156776428223,"479":3.8134398460388184,"480":2.1658029556274414,"481":0.26401010155677795,"482":0.3985750675201416,"483":0.9876415729522705,"484":-0.1068175882101059,"485":0.3454054892063141,"486":-0.05066661909222603,"487":-0.7991312146186829,"488":1.7519371509552002,"489":-0.5784894824028015,"490":-2.3189826011657715,"491":-0.428543359041214,"492":-0.8333439230918884,"493":0.390502393245697,"494":2.199495315551758,"495":-2.2823848724365234,"496":1.5856791734695435,"497":2.0090603828430176,"498":-2.1141858100891113,"499":-0.3837655186653137,"500":1.6057230234146118,"501":1.4670963287353516,"502":0.437079519033432,"503":2.500114917755127,"504":0.03335223346948624,"505":1.6049954891204834,"506":-0.8513146042823792,"507":-0.591102659702301,"508":1.6697087287902832,"509":-0.5769266486167908,"510":-0.07381957024335861,"511":0.08912316709756851,"512":0.17842386662960052,"513":-1.2253483533859253,"514":-0.05815138295292854,"515":-1.3607327938079834,"516":0.32423603534698486,"517":-1.0449624061584473,"518":1.3415790796279907,"519":-3.9605703353881836,"520":2.109632730484009,"521":-0.582228422164917,"522":1.557508945465088,"523":1.9239989519119263,"524":-1.0564210414886475,"525":-0.7345383763313293,"526":-2.8306257724761963,"527":1.164265513420105,"528":-1.251218557357788,"529":-0.46921128034591675,"530":0.42151451110839844,"531":1.8823421001434326,"532":1.1543723344802856,"533":-0.9213644862174988,"534":0.12279221415519714,"535":1.3802684545516968,"536":1.6477622985839844,"537":0.4870389997959137,"538":-0.9129369854927063,"539":1.692222237586975,"540":0.477853924036026,"541":0.16418026387691498,"542":3.8120779991149902,"543":2.060936689376831,"544":-3.8686323165893555,"545":-3.459794044494629,"546":-0.9527062773704529,"547":-0.7512151002883911,"548":0.0032484447583556175,"549":-0.7903217077255249,"550":1.6008504629135132,"551":-1.5513468980789185,"552":-0.14846481382846832,"553":0.09323964267969131,"554":3.3342370986938477,"555":-0.34207332134246826,"556":-0.1406821608543396,"557":-0.1636166274547577,"558":2.1673951148986816,"559":0.589255690574646,"560":0.6246469616889954,"561":-1.9479734897613525,"562":2.7849090099334717,"563":0.014763017185032368,"564":0.33755674958229065,"565":-1.5483194589614868,"566":0.6381469368934631,"567":1.2399038076400757,"568":-1.8525408506393433,"569":0.4784722328186035,"570":-0.2843412458896637,"571":0.6863209009170532,"572":0.027934778481721878,"573":0.8603271245956421,"574":1.1854926347732544,"575":-1.0864678621292114,"576":-3.507035970687866,"577":-1.2128924131393433,"578":-1.9382281303405762,"579":1.3228398561477661,"580":2.5504066944122314,"581":-1.8230438232421875,"582":-0.38884037733078003,"583":-1.5017118453979492,"584":-1.1253732442855835,"585":-0.2505618929862976,"586":3.002284288406372,"587":-0.7340286374092102,"588":-0.30890482664108276,"589":-2.8966047763824463,"590":-0.7672058343887329,"591":0.3154710531234741,"592":0.17324833571910858,"593":-1.347995638847351,"594":-0.1594054251909256,"595":-0.6079984903335571,"596":-3.442265033721924,"597":2.636427164077759,"598":0.9937238693237305,"599":1.127231240272522,"600":-2.274982452392578,"601":-2.3032329082489014,"602":-3.0541975498199463,"603":1.0766923427581787,"604":-0.12755239009857178,"605":3.399566888809204,"606":-2.5675253868103027,"607":0.8270178437232971,"608":0.5253064036369324,"609":-1.0414085388183594,"610":1.2922192811965942,"611":-3.0085861682891846,"612":0.8635687232017517,"613":-0.6202934980392456,"614":2.06329083442688,"615":2.0118470191955566,"616":-1.0721029043197632,"617":-0.01648995280265808,"618":-0.03460345044732094,"619":3.6623117923736572,"620":-0.3638532757759094,"621":-0.42369943857192993,"622":-0.04756200313568115,"623":0.21788306534290314,"624":-0.6259788870811462,"625":1.9328781366348267,"626":1.252621054649353,"627":-0.7903769016265869,"628":-0.8176857829093933,"629":-2.689302921295166,"630":-2.822700023651123,"631":-1.4530754089355469,"632":-0.20495884120464325,"633":0.37670502066612244,"634":-2.2806315422058105,"635":0.6453561186790466,"636":-2.694464683532715,"637":-1.7928065061569214,"638":0.560022234916687,"639":0.5238391757011414}},"forgetHidden":{"rows":20,"columns":20,"weights":{"0":3.526914358139038,"1":1.3421025276184082,"2":-2.294208288192749,"3":4.617344379425049,"4":-0.2252756655216217,"5":-1.2949719429016113,"6":4.249565124511719,"7":3.0564188957214355,"8":-0.9038331508636475,"9":-8.75485897064209,"10":1.8471158742904663,"11":-2.0635793209075928,"12":-2.084385395050049,"13":1.0985808372497559,"14":0.2848016321659088,"15":2.4623613357543945,"16":-1.7610664367675781,"17":-4.281375885009766,"18":-1.2885950803756714,"19":0.7476220726966858,"20":0.8330991268157959,"21":1.9180113077163696,"22":0.004788792692124844,"23":1.8478091955184937,"24":1.4132728576660156,"25":-0.9979939460754395,"26":0.6290481090545654,"27":-3.3297526836395264,"28":0.15322871506214142,"29":6.256882190704346,"30":-3.1405720710754395,"31":-2.5464882850646973,"32":2.8071935176849365,"33":1.4097061157226562,"34":-2.527529239654541,"35":-4.239965438842773,"36":0.32747700810432434,"37":1.7004015445709229,"38":4.532275199890137,"39":0.5295940041542053,"40":4.520367622375488,"41":1.597485899925232,"42":2.297889232635498,"43":0.30854594707489014,"44":0.5788434147834778,"45":0.45067378878593445,"46":6.015983581542969,"47":2.482010841369629,"48":2.141512155532837,"49":0.7434367537498474,"50":-0.06917158514261246,"51":5.6484150886535645,"52":-1.1356937885284424,"53":3.9601824283599854,"54":1.74544095993042,"55":4.657228469848633,"56":0.5436140298843384,"57":-5.022449493408203,"58":1.5122052431106567,"59":2.9796721935272217,"60":0.1165151596069336,"61":2.4447343349456787,"62":-2.378317356109619,"63":1.669274926185608,"64":3.630033493041992,"65":2.577699661254883,"66":-6.685117721557617,"67":0.06631205976009369,"68":-0.4743552803993225,"69":-1.9753185510635376,"70":3.541757822036743,"71":-0.7098852396011353,"72":-1.376534342765808,"73":2.009615898132324,"74":-0.2551223039627075,"75":-3.7154088020324707,"76":1.635339617729187,"77":-0.09162101149559021,"78":-0.2299969345331192,"79":-2.334277629852295,"80":6.684974670410156,"81":2.473573684692383,"82":3.9513819217681885,"83":-2.044820785522461,"84":3.2106683254241943,"85":4.087503433227539,"86":0.8292826414108276,"87":-0.8259021639823914,"88":-1.1353354454040527,"89":4.736701488494873,"90":-1.1213878393173218,"91":4.287600994110107,"92":-3.2496912479400635,"93":-4.484854698181152,"94":4.89299201965332,"95":-3.2357683181762695,"96":-0.6715548634529114,"97":3.029346466064453,"98":-2.629345178604126,"99":1.8415473699569702,"100":0.05232326686382294,"101":1.5960320234298706,"102":-1.1235761642456055,"103":-0.959187924861908,"104":0.08860199898481369,"105":-1.8314998149871826,"106":2.2380332946777344,"107":-1.3406376838684082,"108":-2.0998401641845703,"109":1.0540707111358643,"110":2.900265693664551,"111":-3.3509716987609863,"112":3.5819201469421387,"113":-1.4886221885681152,"114":-2.9324123859405518,"115":4.990241050720215,"116":3.124772787094116,"117":-4.023870468139648,"118":0.03172379359602928,"119":1.4319231510162354,"120":3.4822731018066406,"121":1.0912292003631592,"122":2.8008010387420654,"123":1.6907386779785156,"124":-0.9634926915168762,"125":4.657355785369873,"126":2.399576187133789,"127":0.8628680109977722,"128":-0.01169296633452177,"129":3.1178178787231445,"130":-0.43298259377479553,"131":-0.6593524813652039,"132":0.33995363116264343,"133":-3.534811496734619,"134":0.5439292192459106,"135":-0.22869738936424255,"136":-4.6235198974609375,"137":1.2886977195739746,"138":-3.6722652912139893,"139":-2.9228618144989014,"140":-0.7690765857696533,"141":0.6823787093162537,"142":0.8853816986083984,"143":5.52631139755249,"144":1.753299593925476,"145":1.7081286907196045,"146":3.8789360523223877,"147":5.905427932739258,"148":1.397905707359314,"149":7.674229145050049,"150":-4.858434677124023,"151":3.50042462348938,"152":-0.3062205910682678,"153":-0.835509181022644,"154":1.1317520141601562,"155":-0.5058241486549377,"156":1.4984842538833618,"157":5.212790489196777,"158":1.8743093013763428,"159":-0.7782891392707825,"160":-4.552041053771973,"161":0.42195767164230347,"162":-1.8361817598342896,"163":1.6351661682128906,"164":-0.3432878255844116,"165":-0.19682876765727997,"166":-3.034921407699585,"167":-3.8241360187530518,"168":0.8883819580078125,"169":1.715453863143921,"170":0.04514021798968315,"171":-2.018761396408081,"172":3.9952898025512695,"173":4.606407642364502,"174":-4.557448863983154,"175":1.8158564567565918,"176":7.937361240386963,"177":1.8004355430603027,"178":6.9765777587890625,"179":-1.0389913320541382,"180":3.2599987983703613,"181":1.1821811199188232,"182":-3.2927513122558594,"183":-1.7560945749282837,"184":3.156378984451294,"185":4.406899929046631,"186":2.4879648685455322,"187":4.363766193389893,"188":1.129336953163147,"189":5.071954727172852,"190":-4.2681684494018555,"191":1.888885736465454,"192":-3.7149815559387207,"193":-0.14036783576011658,"194":0.4310968518257141,"195":-3.1442039012908936,"196":2.5198283195495605,"197":-0.920310378074646,"198":-2.436033010482788,"199":0.3235723078250885,"200":-3.207854986190796,"201":0.07625611871480942,"202":-4.636235237121582,"203":-0.4662932753562927,"204":2.2328896522521973,"205":1.8993767499923706,"206":-3.3538777828216553,"207":1.4212366342544556,"208":-2.8805572986602783,"209":-2.68991756439209,"210":-5.471847057342529,"211":4.07606315612793,"212":3.4462172985076904,"213":1.306092619895935,"214":-4.801023006439209,"215":-4.379780292510986,"216":0.4455642104148865,"217":1.529870629310608,"218":4.955855846405029,"219":1.1211624145507812,"220":-1.459821343421936,"221":-1.9991636276245117,"222":-1.8685981035232544,"223":-0.895467221736908,"224":4.163605690002441,"225":1.071419358253479,"226":7.00105094909668,"227":2.7240147590637207,"228":-3.8199024200439453,"229":0.804990291595459,"230":-1.673055648803711,"231":4.268839359283447,"232":-0.32916855812072754,"233":-6.335437297821045,"234":3.0662264823913574,"235":9.901324272155762,"236":-3.21280837059021,"237":4.907027244567871,"238":-0.3713950216770172,"239":5.217717170715332,"240":4.699539661407471,"241":3.3779072761535645,"242":0.1817987561225891,"243":2.682420492172241,"244":-1.7877980470657349,"245":-3.8466579914093018,"246":-4.912607669830322,"247":0.20582613348960876,"248":2.2553954124450684,"249":-0.06623214483261108,"250":-0.652191162109375,"251":-7.762741565704346,"252":1.0040518045425415,"253":-1.2405400276184082,"254":-0.12801402807235718,"255":2.117567300796509,"256":-1.3906350135803223,"257":0.2765902876853943,"258":-2.5525858402252197,"259":1.6316468715667725,"260":1.125115156173706,"261":-3.742124080657959,"262":1.472490906715393,"263":0.5259266495704651,"264":1.8142067193984985,"265":1.4573276042938232,"266":-2.252953052520752,"267":0.5532386302947998,"268":0.6500169634819031,"269":-5.165566921234131,"270":-3.622772455215454,"271":2.205265998840332,"272":4.2295241355896,"273":0.31878653168678284,"274":0.9453753232955933,"275":6.030600547790527,"276":-4.147594928741455,"277":-3.092513084411621,"278":1.7214936017990112,"279":1.3263858556747437,"280":-0.7844880819320679,"281":-0.1383933275938034,"282":-4.332859992980957,"283":-2.5496034622192383,"284":0.9488450884819031,"285":0.42768749594688416,"286":-2.474485397338867,"287":6.016490459442139,"288":1.4531528949737549,"289":-0.27784255146980286,"290":4.60121488571167,"291":0.428340882062912,"292":1.2631185054779053,"293":-0.35385334491729736,"294":-0.9927561283111572,"295":5.6129937171936035,"296":0.6818222999572754,"297":-2.6428542137145996,"298":0.6487938165664673,"299":-1.6483540534973145,"300":-4.163846015930176,"301":-2.6993327140808105,"302":3.0375895500183105,"303":1.335566520690918,"304":-1.7507963180541992,"305":-0.36759865283966064,"306":-1.5497506856918335,"307":0.9887265563011169,"308":-2.6494157314300537,"309":-3.1175692081451416,"310":-1.1064053773880005,"311":1.0498734712600708,"312":-0.49867308139801025,"313":-1.108181118965149,"314":0.09605956077575684,"315":2.785642385482788,"316":0.8701468706130981,"317":-3.1712546348571777,"318":1.3982326984405518,"319":-1.1890629529953003,"320":-0.8038001656532288,"321":0.711315393447876,"322":-2.75972056388855,"323":-5.109971523284912,"324":0.47526153922080994,"325":2.4101786613464355,"326":3.269871234893799,"327":4.085480690002441,"328":-0.8446431159973145,"329":-1.9977014064788818,"330":-2.846381187438965,"331":1.421115517616272,"332":-0.30035215616226196,"333":-0.35332727432250977,"334":-0.3522288501262665,"335":0.4292134940624237,"336":-5.563514232635498,"337":-0.684227705001831,"338":4.833625793457031,"339":-0.8751862049102783,"340":1.2674827575683594,"341":2.4360713958740234,"342":0.9975460171699524,"343":2.484114646911621,"344":-1.6998244524002075,"345":-0.6973735690116882,"346":0.11990774422883987,"347":-1.5936543941497803,"348":-3.5689215660095215,"349":4.429770469665527,"350":1.1479830741882324,"351":-3.4039297103881836,"352":3.3848509788513184,"353":-5.041555404663086,"354":-0.8978381156921387,"355":-5.203156471252441,"356":-4.559387683868408,"357":0.24589483439922333,"358":-0.691131591796875,"359":-1.942847728729248,"360":-3.031078338623047,"361":3.3868443965911865,"362":-0.6285790801048279,"363":-3.5384762287139893,"364":1.6170810461044312,"365":-1.9667171239852905,"366":-1.5255508422851562,"367":0.06984346359968185,"368":-0.5708352327346802,"369":-0.8954461216926575,"370":0.03596995770931244,"371":-2.309807538986206,"372":1.8633214235305786,"373":0.3693399727344513,"374":-2.938839912414551,"375":0.10326437652111053,"376":3.7726263999938965,"377":1.3242753744125366,"378":2.1098978519439697,"379":-3.189760208129883,"380":-0.40591850876808167,"381":0.09707121551036835,"382":-0.9185718894004822,"383":-0.5741572380065918,"384":-0.8708483576774597,"385":1.6551449298858643,"386":-0.03481112793087959,"387":-0.936587393283844,"388":-0.24648232758045197,"389":3.266953706741333,"390":3.603618621826172,"391":-2.3537700176239014,"392":1.6918100118637085,"393":1.1917414665222168,"394":-2.6913905143737793,"395":-2.5415914058685303,"396":3.857658624649048,"397":-0.40949904918670654,"398":-0.7869781255722046,"399":1.2067874670028687}},"forgetBias":{"rows":20,"columns":1,"weights":{"0":0,"1":0,"2":0,"3":0,"4":0,"5":0,"6":0,"7":0,"8":0,"9":0,"10":0,"11":0,"12":0,"13":0,"14":0,"15":0,"16":0,"17":0,"18":0,"19":0}},"outputMatrix":{"rows":20,"columns":32,"weights":{"0":-5.406941890716553,"1":-2.079660654067993,"2":-0.20266658067703247,"3":1.3390734195709229,"4":0.11690112948417664,"5":-2.6921963691711426,"6":2.038783550262451,"7":-0.9747536182403564,"8":-0.7238593101501465,"9":-1.2117023468017578,"10":7.026555061340332,"11":-0.47872188687324524,"12":1.3658325672149658,"13":-1.3495521545410156,"14":-0.03021322190761566,"15":-0.21773041784763336,"16":-1.4185256958007812,"17":-1.2118620872497559,"18":1.979767084121704,"19":-2.4769206047058105,"20":-0.34712353348731995,"21":0.9438190460205078,"22":0.7822203636169434,"23":2.722334384918213,"24":-0.2852005660533905,"25":-1.2122544050216675,"26":1.2443052530288696,"27":-1.6948834657669067,"28":1.529712200164795,"29":0.18889616429805756,"30":0.15702077746391296,"31":0.10232248157262802,"32":-1.402992844581604,"33":-0.9384377598762512,"34":1.544760823249817,"35":-0.12478643655776978,"36":0.14567838609218597,"37":-0.7305999994277954,"38":0.9305312037467957,"39":-2.070838689804077,"40":-0.8074013590812683,"41":-0.04056820273399353,"42":4.059175491333008,"43":0.7977834939956665,"44":0.18109415471553802,"45":-0.6153101325035095,"46":1.7831424474716187,"47":1.251013994216919,"48":-1.0706846714019775,"49":-0.3904128670692444,"50":2.0768487453460693,"51":-2.1482367515563965,"52":-0.717137336730957,"53":0.7388195991516113,"54":-0.3167770802974701,"55":0.2792230248451233,"56":-0.9766033887863159,"57":0.4743199944496155,"58":0.16088460385799408,"59":1.0347446203231812,"60":0.01983513869345188,"61":-1.0773179531097412,"62":0.609072208404541,"63":-0.6863356232643127,"64":-0.02407260239124298,"65":-0.838594377040863,"66":0.5219074487686157,"67":0.1146884337067604,"68":-1.213333249092102,"69":1.8890608549118042,"70":0.022433456033468246,"71":-1.1889346837997437,"72":-0.7582180500030518,"73":0.3310677707195282,"74":3.2880077362060547,"75":-0.2908245921134949,"76":-1.108632206916809,"77":-1.1515368223190308,"78":-0.3019108176231384,"79":-0.560839056968689,"80":-0.4979981482028961,"81":-0.5154414176940918,"82":0.5033900141716003,"83":0.1678006500005722,"84":0.6248115301132202,"85":-0.3966711163520813,"86":-0.18280835449695587,"87":0.3849536180496216,"88":-0.8088908791542053,"89":-0.006949839647859335,"90":0.004716936498880386,"91":1.030449628829956,"92":-0.20649310946464539,"93":-0.33607205748558044,"94":1.0474128723144531,"95":-0.8857649564743042,"96":0.6060437560081482,"97":-0.9946346879005432,"98":0.3450049161911011,"99":-0.31818100810050964,"100":-0.35059770941734314,"101":-0.08267094939947128,"102":0.118726447224617,"103":-1.066583275794983,"104":1.8670963048934937,"105":-0.8748705387115479,"106":-0.9951928853988647,"107":-0.42114412784576416,"108":-0.7724171876907349,"109":-0.7281054258346558,"110":0.5252283215522766,"111":-1.3406052589416504,"112":0.2625322639942169,"113":-0.0036180540919303894,"114":-0.16699348390102386,"115":1.1603492498397827,"116":0.36798444390296936,"117":-1.1234843730926514,"118":0.23267607390880585,"119":1.585880160331726,"120":1.6907289028167725,"121":-0.7166030406951904,"122":-0.9727334380149841,"123":0.7582144141197205,"124":1.4280909299850464,"125":1.0589896440505981,"126":-0.030067503452301025,"127":-0.10852155834436417,"128":-2.7410531044006348,"129":0.8627404570579529,"130":-0.9178684949874878,"131":-0.6826873421669006,"132":0.04670528322458267,"133":1.1804100275039673,"134":-0.8732252717018127,"135":1.1468236446380615,"136":0.8127243518829346,"137":1.3833894729614258,"138":0.3923644423484802,"139":-0.2758125066757202,"140":-1.125754952430725,"141":-0.8372986912727356,"142":-0.369000643491745,"143":1.9890215396881104,"144":-1.4194328784942627,"145":-0.8676276803016663,"146":-0.5127524733543396,"147":0.7980979681015015,"148":1.3895957469940186,"149":-0.6553036570549011,"150":-1.8894591331481934,"151":-1.0744572877883911,"152":-1.9308104515075684,"153":0.25378862023353577,"154":0.0450669601559639,"155":0.9881664514541626,"156":-1.6546664237976074,"157":0.4663403332233429,"158":1.2555882930755615,"159":0.8045130968093872,"160":3.256840705871582,"161":1.3850144147872925,"162":-0.22786474227905273,"163":-2.203266143798828,"164":0.6644924283027649,"165":0.06347472965717316,"166":1.157630443572998,"167":2.4446170330047607,"168":-1.7353053092956543,"169":0.9312649965286255,"170":-0.4831961989402771,"171":0.33963268995285034,"172":-0.40168339014053345,"173":1.6668882369995117,"174":-1.6156351566314697,"175":-0.7055181860923767,"176":-0.26979416608810425,"177":-0.15520352125167847,"178":-0.02433582954108715,"179":-1.2762435674667358,"180":-1.1527739763259888,"181":2.052867889404297,"182":-2.252315044403076,"183":-2.4092679023742676,"184":-2.776641368865967,"185":2.135978937149048,"186":-0.16837020218372345,"187":-0.3772268295288086,"188":-2.3758864402770996,"189":-3.782137632369995,"190":-2.4826016426086426,"191":-1.6245023012161255,"192":1.3761718273162842,"193":0.4219384491443634,"194":1.7330652475357056,"195":-0.1658744066953659,"196":1.115282416343689,"197":1.8331044912338257,"198":-1.7696894407272339,"199":-2.143589973449707,"200":-0.07703176885843277,"201":1.164360523223877,"202":-2.3864591121673584,"203":2.176476001739502,"204":0.04099490866065025,"205":-0.6576114892959595,"206":-0.0738932192325592,"207":1.29777991771698,"208":-0.722163200378418,"209":0.12986721098423004,"210":1.303356409072876,"211":1.833907127380371,"212":-0.5051121711730957,"213":0.05498823523521423,"214":-1.3264862298965454,"215":-0.46113288402557373,"216":0.5737519860267639,"217":0.05888396501541138,"218":0.24005042016506195,"219":0.16120649874210358,"220":-1.5891273021697998,"221":-1.8278645277023315,"222":-0.041487157344818115,"223":-0.04706977680325508,"224":-2.2541327476501465,"225":-0.08171442896127701,"226":0.30363959074020386,"227":-2.0593037605285645,"228":0.09741349518299103,"229":1.8609371185302734,"230":0.723338782787323,"231":-3.538954019546509,"232":0.060606278479099274,"233":-0.7127664685249329,"234":0.9848395586013794,"235":0.0010098769562318921,"236":4.03753137588501,"237":0.3686355650424957,"238":1.8441152572631836,"239":1.8993346691131592,"240":1.1017285585403442,"241":-0.15200616419315338,"242":0.15848179161548615,"243":1.6129149198532104,"244":-1.0075486898422241,"245":1.3330292701721191,"246":2.184696674346924,"247":-0.49405741691589355,"248":-0.8864473104476929,"249":-0.5308172106742859,"250":1.3227977752685547,"251":-1.3261092901229858,"252":1.22707200050354,"253":3.771304130554199,"254":1.7825255393981934,"255":0.06317213177680969,"256":0.6780218482017517,"257":-0.09552379697561264,"258":1.1604093313217163,"259":-2.630028486251831,"260":-0.43438172340393066,"261":2.11344838142395,"262":0.17507196962833405,"263":1.1020385026931763,"264":-0.4149493873119354,"265":-0.5698925852775574,"266":-0.5564131140708923,"267":-0.6048844456672668,"268":0.3736301362514496,"269":0.6738830208778381,"270":1.3686330318450928,"271":-1.0967878103256226,"272":-1.6801667213439941,"273":-0.9290334582328796,"274":1.011911392211914,"275":0.07507499307394028,"276":0.012724638916552067,"277":-0.6119495034217834,"278":-1.7863281965255737,"279":0.2434181272983551,"280":-0.7833718061447144,"281":0.071016825735569,"282":3.6615729331970215,"283":-1.2847570180892944,"284":0.9411860704421997,"285":-0.522147536277771,"286":1.2487975358963013,"287":-0.8431165218353271,"288":-0.9543138742446899,"289":-0.8173659443855286,"290":0.681523859500885,"291":0.2944888174533844,"292":-0.6243469715118408,"293":0.8262990117073059,"294":-0.22977620363235474,"295":3.823481798171997,"296":-1.0028502941131592,"297":2.4063076972961426,"298":1.1878705024719238,"299":-1.279557228088379,"300":0.10446338355541229,"301":1.150762915611267,"302":1.288187026977539,"303":-2.8327150344848633,"304":-1.6003836393356323,"305":-0.43173348903656006,"306":1.8349056243896484,"307":-0.6284178495407104,"308":-1.1666429042816162,"309":0.8009395003318787,"310":-1.0066649913787842,"311":-0.3369600176811218,"312":-2.9335012435913086,"313":1.7290802001953125,"314":2.6033177375793457,"315":-0.9180300831794739,"316":-0.70167076587677,"317":0.05627668276429176,"318":-1.8903634548187256,"319":-2.787051200866699,"320":0.3236938416957855,"321":-0.07825619727373123,"322":2.7586512565612793,"323":-2.2519943714141846,"324":-0.2309403270483017,"325":0.8484074473381042,"326":-0.8315033912658691,"327":-2.2666289806365967,"328":1.2062162160873413,"329":-0.3086254298686981,"330":0.6655028462409973,"331":-0.14836804568767548,"332":0.8343674540519714,"333":0.18728232383728027,"334":0.3562632203102112,"335":1.1702048778533936,"336":-1.7673627138137817,"337":0.4564284384250641,"338":-1.305924654006958,"339":0.15255294740200043,"340":-0.05221142619848251,"341":-1.0974640846252441,"342":-1.1607975959777832,"343":-0.21794630587100983,"344":-0.6522388458251953,"345":0.4008241891860962,"346":0.2922806739807129,"347":-0.5293197631835938,"348":-2.240309238433838,"349":-0.8840410113334656,"350":1.636099934577942,"351":1.2679780721664429,"352":-2.5732810497283936,"353":0.4257470667362213,"354":0.3698195815086365,"355":0.37163129448890686,"356":0.46026140451431274,"357":0.8539801836013794,"358":0.9427778720855713,"359":-0.3128417730331421,"360":-2.5106568336486816,"361":0.2517922520637512,"362":2.4844377040863037,"363":-0.12599830329418182,"364":0.21991966664791107,"365":-1.637497067451477,"366":0.7276557683944702,"367":1.2482010126113892,"368":-0.9565698504447937,"369":-1.0141295194625854,"370":1.5446163415908813,"371":-0.12929588556289673,"372":-1.6210683584213257,"373":-0.6819671988487244,"374":-1.7122256755828857,"375":-0.6874731779098511,"376":-1.5600204467773438,"377":0.49694010615348816,"378":1.0969740152359009,"379":0.22954712808132172,"380":0.7063217163085938,"381":-0.12524737417697906,"382":2.072755813598633,"383":-3.4795310497283936,"384":-1.0159536600112915,"385":-1.1289427280426025,"386":0.40014028549194336,"387":1.0805602073669434,"388":-0.4937089681625366,"389":-0.27695947885513306,"390":1.0995787382125854,"391":-4.259368896484375,"392":-0.026402417570352554,"393":0.5019665956497192,"394":0.03705965727567673,"395":-0.21714212000370026,"396":-0.7263349890708923,"397":-0.6006796956062317,"398":-0.5972933173179626,"399":1.7329037189483643,"400":-0.0236919317394495,"401":-0.8126795291900635,"402":-1.3599448204040527,"403":0.8938462734222412,"404":0.4974175989627838,"405":1.070521593093872,"406":-0.4492095708847046,"407":0.10547562688589096,"408":0.06850350648164749,"409":1.2617852687835693,"410":0.23675517737865448,"411":0.4853745996952057,"412":-1.4020013809204102,"413":-0.4957299530506134,"414":0.49434778094291687,"415":0.7402993440628052,"416":0.2907620668411255,"417":0.9681704044342041,"418":0.6148576736450195,"419":-1.9985733032226562,"420":-1.056855320930481,"421":1.6390763521194458,"422":-3.2761456966400146,"423":0.6404237747192383,"424":-1.1290547847747803,"425":1.3672280311584473,"426":1.289623498916626,"427":-0.28250852227211,"428":-0.39186564087867737,"429":2.3750717639923096,"430":-0.015074027702212334,"431":-0.6657621264457703,"432":0.425102174282074,"433":0.10050754994153976,"434":-2.2796082496643066,"435":-0.4533713757991791,"436":-0.6429241299629211,"437":0.4911280572414398,"438":1.823734998703003,"439":-4.1014299392700195,"440":-1.5976897478103638,"441":-0.5142366290092468,"442":1.6247972249984741,"443":-0.3086949586868286,"444":0.953021228313446,"445":1.945101261138916,"446":-0.19077841937541962,"447":-1.6988216638565063,"448":-4.889651298522949,"449":-1.3157362937927246,"450":-0.3102976381778717,"451":-0.17835277318954468,"452":0.10944246500730515,"453":-4.427666664123535,"454":1.6772165298461914,"455":-4.372403621673584,"456":-1.3571267127990723,"457":-0.3757478892803192,"458":5.71065616607666,"459":1.2652783393859863,"460":0.2839837372303009,"461":-1.121284008026123,"462":0.8206130862236023,"463":1.7888922691345215,"464":0.06334438920021057,"465":1.0612882375717163,"466":3.1184396743774414,"467":-4.188259124755859,"468":-2.444774866104126,"469":0.8305302262306213,"470":-0.94786137342453,"471":2.032752275466919,"472":-1.899986743927002,"473":0.7677459716796875,"474":-2.60432505607605,"475":0.7963988780975342,"476":0.41544651985168457,"477":0.024923596531152725,"478":-1.9582257270812988,"479":-0.49313196539878845,"480":-2.4437403678894043,"481":0.4970859885215759,"482":-1.3240070343017578,"483":0.032320406287908554,"484":0.9501280188560486,"485":-1.474447250366211,"486":-0.531988799571991,"487":2.8094587326049805,"488":0.5896193385124207,"489":-0.219182550907135,"490":-3.3897736072540283,"491":-0.1070680096745491,"492":-1.5956577062606812,"493":-2.4606568813323975,"494":0.687240719795227,"495":-2.4748966693878174,"496":0.15543124079704285,"497":0.3966771066188812,"498":-2.7210683822631836,"499":1.0576707124710083,"500":-3.716196060180664,"501":-0.9904991388320923,"502":1.434934377670288,"503":-0.37839993834495544,"504":0.8017882108688354,"505":-0.9016251564025879,"506":0.18460288643836975,"507":-1.6908398866653442,"508":1.6337426900863647,"509":1.9740248918533325,"510":-0.45448368787765503,"511":-0.6185312271118164,"512":1.0311203002929688,"513":-1.9370167255401611,"514":0.5612512826919556,"515":-0.12017171829938889,"516":-0.23774650692939758,"517":0.5609124302864075,"518":-0.4308208227157593,"519":0.2553604543209076,"520":-1.1381176710128784,"521":1.0777183771133423,"522":2.5561671257019043,"523":-1.244827389717102,"524":1.6201883554458618,"525":1.6150869131088257,"526":0.1879470944404602,"527":0.3885548412799835,"528":0.08854256570339203,"529":1.0668566226959229,"530":-0.8899615406990051,"531":0.8173994421958923,"532":0.7772653698921204,"533":0.6446356773376465,"534":0.760688841342926,"535":-2.099569320678711,"536":-1.4742343425750732,"537":0.034123316407203674,"538":1.5351229906082153,"539":-1.3994414806365967,"540":-2.706766128540039,"541":0.3512824773788452,"542":-0.45741212368011475,"543":-0.5399486422538757,"544":-1.3004655838012695,"545":-0.5201040506362915,"546":0.761135995388031,"547":-0.4254895746707916,